you 0.13565094769001007 0.3451196551322937 -0.4031645357608795 -0.16306309401988983 0.2219700962305069 -0.10362514853477478 -0.4201318621635437 0.239209845662117 -0.27322521805763245 -0.22331754863262177 -0.21809399127960205 -0.15104329586029053 0.028615038841962814 0.4205978214740753 -0.4651678800582886 -0.14610452950000763 -0.07522891461849213 -0.051867611706256866 0.26040390133857727 -0.14948898553848267 0.035573218017816544 0.2338661551475525 0.20525012910366058 0.20082926750183105 0.012399692088365555 -0.1085720881819725 -0.41448143124580383 0.3343430459499359 -0.14738018810749054 0.22882142663002014 -0.05272439122200012 0.1082335039973259 0.440817654132843 0.14097103476524353 -0.1684451699256897 -0.19068683683872223 0.34464702010154724 -0.13733600080013275 0.3508372902870178 -0.16944584250450134 -0.4695362150669098 0.8158241510391235 0.04437565058469772 -0.059133246541023254 -0.11425585299730301 0.07695992290973663 0.2666027843952179 -0.3368055522441864 -0.09606228768825531 -0.3215942084789276
the 0.2642793357372284 -0.04315342754125595 0.5106030106544495 -0.3976791501045227 -0.021788138896226883 -0.041951458901166916 0.017717817798256874 0.4758051633834839 0.2831099331378937 0.007543616462498903 0.1686302125453949 0.32085055112838745 0.21910002827644348 -0.20099973678588867 0.3289200961589813 -0.04988909512758255 -0.21896710991859436 0.19804728031158447 -0.15513907372951508 -0.17907172441482544 0.0005692802951671183 -0.19316157698631287 -0.10428033024072647 0.16432404518127441 0.05764036998152733 0.20123989880084991 0.3691607415676117 0.5696414709091187 0.2808395028114319 0.2596815228462219 0.16032931208610535 -0.503841757774353 -0.09557544440031052 0.06479930132627487 -0.43097996711730957 0.008969280868768692 -0.012119499035179615 0.15935863554477692 -0.3760184645652771 -0.19138970971107483 -0.015613524243235588 0.21102872490882874 -0.31270018219947815 -0.014474260620772839 -0.12820535898208618 -0.011357132345438004 -0.26743409037590027 -0.2850211560726166 -0.2370111644268036 0.2936714291572571
i -0.05146682262420654 0.10900434851646423 0.05310347303748131 0.09917248040437698 -0.028335081413388252 -0.5654547810554504 -0.09396249800920486 -0.10194912552833557 0.34082677960395813 -0.15720930695533752 -0.09930011630058289 -0.0075577059760689735 0.08109770715236664 -0.12016424536705017 -0.0065519255585968494 0.29158279299736023 -0.12464649975299835 -0.28733697533607483 -0.10479076951742172 0.21775402128696442 0.04734314605593681 -0.21523579955101013 -0.26031792163848877 0.28764820098876953 -0.2044922411441803 0.2503627836704254 -0.006163422949612141 0.16130048036575317 0.027404194697737694 -0.12936647236347198 0.3001250922679901 -0.20764751732349396 -0.2341088205575943 0.38169246912002563 -0.12460403889417648 -0.5665184259414673 0.24842800199985504 -0.021562378853559494 -0.42054110765457153 -0.20268376171588898 -0.08835217356681824 0.5714038610458374 -0.2549985945224762 -0.09057384729385376 0.04851139336824417 -0.4604187309741974 -0.3905509114265442 -0.025895437225699425 0.4455527365207672 -0.3335428237915039
to 0.49527037143707275 0.18431328237056732 0.329860657453537 -0.04136405512690544 0.009426966309547424 0.05154135823249817 0.022688448429107666 -0.011777942068874836 0.08406195044517517 -0.11069508641958237 0.024878347292542458 0.18984703719615936 -0.5356237888336182 -0.17424651980400085 0.27425336837768555 -0.4509952664375305 -0.01691821776330471 0.3418779969215393 0.07330986857414246 0.048487138003110886 0.11440596729516983 -0.2555297911167145 0.010416820645332336 -0.1984255164861679 -0.26918837428092957 -0.1916811168193817 0.07483574748039246 0.08181939274072647 -0.14486785233020782 -0.38402649760246277 -0.20791299641132355 -0.0338042713701725 0.07115316390991211 -0.2062118649482727 0.08658863604068756 -0.21293076872825623 -0.09981685131788254 -0.17063963413238525 0.22590897977352142 -0.5211165547370911 -0.04543384909629822 0.12402975559234619 0.19142314791679382 -0.006870328914374113 0.16556036472320557 -0.003694024635478854 -0.3828869163990021 -0.23397457599639893 0.36691418290138245 0.5390130281448364
and -0.025981424376368523 0.1791822910308838 -0.11257264018058777 0.07289757579565048 0.034014999866485596 -0.10153722018003464 0.5110904574394226 -0.3126700520515442 0.4627014994621277 0.5715528130531311 0.10391559451818466 0.4327537417411804 0.1364065408706665 -0.14688248932361603 0.0127802649512887 0.11040237545967102 -0.06498484313488007 0.021894017234444618 0.058499060571193695 0.5237383842468262 0.001013952773064375 0.3109649419784546 0.027907170355319977 -0.3661612272262573 0.06532061100006104 -0.05560791864991188 0.06589967757463455 -0.26910462975502014 -0.19303885102272034 -0.0635814517736435 0.0015982898185029626 -0.3245750069618225 0.2859787940979004 0.33875060081481934 -0.2041056901216507 -0.23602493107318878 0.48243388533592224 -0.038594573736190796 -0.3173442780971527 0.48881030082702637 -0.01973455213010311 -0.36138221621513367 0.12135902047157288 -0.17802415788173676 -0.10330662131309509 0.04127614572644234 0.5376523733139038 -0.5397335290908813 -0.4827941954135895 -0.1167437955737114
a 0.17754517495632172 0.40560176968574524 0.012908445671200752 0.18196815252304077 0.002531626494601369 0.052123215049505234 0.32113245129585266 0.4464801847934723 0.24942412972450256 -0.0029596425592899323 -0.040655072778463364 -0.3449958562850952 -0.24553295969963074 0.3435820937156677 -0.06037021055817604 -0.08991360664367676 0.0664857029914856 -0.4208245277404785 -0.1904531568288803 -0.439640074968338 0.0008018786320462823 -0.08674488961696625 0.2206885814666748 0.239559605717659 -0.18518179655075073 -0.059868957847356796 0.004091197159141302 -0.7685219049453735 -0.24447552859783173 -0.16984426975250244 0.30613505840301514 -0.31519365310668945 -0.07547265291213989 -0.02285449393093586 -0.07866048812866211 -0.05040641501545906 -0.7255007028579712 -0.061945732682943344 -0.5860666036605835 0.1870131492614746 0.01056462898850441 0.11318430304527283 -0.007031488232314587 0.319201797246933 -0.06961110979318619 -0.018833156675100327 -0.3438799977302551 -0.11314920336008072 0.2479541152715683 0.30886754393577576
me 0.2929341197013855 0.08267273008823395 0.39781415462493896 -0.12389481067657471 -0.13707448542118073 -0.12723073363304138 -0.4143351912498474 -0.34961238503456116 -0.12576930224895477 -0.2956705689430237 -0.3204498589038849 0.28253665566444397 -0.17599380016326904 -0.02644691802561283 0.01916896179318428 -0.314361035823822 -0.18764320015907288 -0.0311334989964962 0.2784574627876282 -0.44259142875671387 -0.34262534976005554 0.03276831656694412 0.042314425110816956 -0.34278804063796997 -0.22653937339782715 -0.0432453528046608 0.23363396525382996 0.5706862807273865 -0.4026471674442291 0.05152524262666702 -0.19836284220218658 -0.29552599787712097 -0.10912599414587021 -0.28207871317863464 0.10122346132993698 -0.19331739842891693 -0.36342841386795044 -0.03965500369668007 0.10243324935436249 -0.010425598360598087 -0.40147653222084045 0.4282115399837494 -0.17923638224601746 -0.054898981004953384 0.06671666353940964 -0.022068029269576073 0.36656180024147034 0.2229214906692505 0.7209922075271606 0.38265860080718994
my 0.20347322523593903 0.21474041044712067 0.28647860884666443 -0.22331318259239197 -0.35494911670684814 0.1778828501701355 0.04053739830851555 0.21483591198921204 0.29156506061553955 0.09811192750930786 0.04767391458153725 -0.11321023106575012 -0.6199700236320496 0.04078315570950508 -0.10075841099023819 -0.7479689717292786 0.24754756689071655 -0.45216619968414307 0.06392931938171387 -0.0019217449007555842 0.06917077302932739 0.5069900155067444 0.027014782652258873 -0.05278581380844116 -0.07325279712677002 -0.08395662903785706 -0.07896804064512253 0.045029956847429276 0.1661912053823471 0.3156222999095917 0.16734763979911804 0.02069682814180851 -0.010347273200750351 -0.2077285796403885 -0.1236891970038414 0.13511110842227936 0.2039223313331604 0.04744931682944298 0.23539720475673676 -0.037077199667692184 0.3032378554344177 -0.09666329622268677 0.20992521941661835 -0.14409057796001434 0.37295469641685486 0.0685667172074318 -0.16526418924331665 -0.08397518843412399 0.3168098032474518 0.15469616651535034
it 0.036726221442222595 0.3727231025695801 0.19741404056549072 -0.49185967445373535 0.03387278690934181 0.1727341115474701 -0.5081289410591125 -0.05632511153817177 -0.05736765265464783 0.11796081066131592 -0.34242501854896545 -0.4855577349662781 -0.24114130437374115 -0.37757250666618347 -0.027204090729355812 -0.08989352732896805 -0.035021573305130005 -0.026344656944274902 -0.05827058106660843 -0.029821081086993217 -0.09002505987882614 0.4893112778663635 -0.27382636070251465 0.21728338301181793 0.022369930520653725 -0.19503682851791382 -0.19174687564373016 -0.32391539216041565 0.08545398712158203 0.18807996809482574 -0.09998169541358948 0.08273834735155106 -0.06611316651105881 -0.17683173716068268 -0.09770085662603378 -0.21625067293643951 -0.32031482458114624 0.08275111764669418 -0.04967273399233818 0.34262657165527344 -0.3802150785923004 -0.3720894157886505 0.5546285510063171 -0.07506817579269409 -0.022625384852290154 0.042015355080366135 0.255262166261673 -0.20844753086566925 0.1071879044175148 0.20879076421260834
in -0.09925559163093567 -0.46491408348083496 0.3574554920196533 0.2709636092185974 0.3327796459197998 0.16093328595161438 0.20879648625850677 0.007809831760823727 -0.21291829645633698 -0.750933051109314 0.10521239787340164 -0.3660792410373688 -0.4939902722835541 -0.10562700033187866 -0.02047242410480976 0.2000817209482193 -0.16617104411125183 -0.5916789770126343 0.1295476108789444 -0.08694714307785034 0.1131860688328743 0.03213867172598839 0.5101721286773682 0.057466939091682434 0.028411228209733963 -0.04042822867631912 0.057360339909791946 0.07780043035745621 0.2702105641365051 0.021422889083623886 0.6219596266746521 0.5472186803817749 -0.17533615231513977 0.06930965185165405 0.07747332751750946 -0.18262340128421783 0.49641260504722595 0.263010710477829 -0.3219372630119324 0.11405482888221741 0.2814860939979553 -0.197815403342247 0.1463957577943802 0.40389886498451233 -0.2656998336315155 -0.04098362475633621 0.16573911905288696 -0.4652576148509979 -0.017787760123610497 -0.5430520176887512
on -0.3964393138885498 0.16827189922332764 -0.07018141448497772 -0.263894647359848 0.038134410977363586 -0.41803908348083496 -0.3073730766773224 0.14238251745700836 0.11560127139091492 -0.12555786967277527 -0.5615911483764648 0.17191191017627716 -0.4771718382835388 -0.08737708628177643 0.45536261796951294 0.2744523584842682 0.11053039878606796 -0.16531100869178772 -0.12955354154109955 -0.048715461045503616 -0.03609707951545715 -0.001127090654335916 -0.25698715448379517 -0.4593406915664673 0.35656118392944336 0.0052022142335772514 -0.006845514755696058 -0.17921136319637299 0.13130655884742737 0.1616828888654709 -0.07633029669523239 0.07631906121969223 -0.26634833216667175 0.5305576920509338 -0.20876874029636383 -0.3294614255428314 0.014319156296551228 0.04848545044660568 0.15122857689857483 -0.2824869453907013 0.23765970766544342 0.4939929246902466 -0.47388383746147156 -0.25045353174209595 -0.0711737796664238 0.3491054177284241 -0.1125498041510582 0.27688878774642944 0.0028042581398040056 -0.5274900197982788
that -0.16742295026779175 -0.01413118839263916 -0.14023947715759277 -0.05963297188282013 -0.3051896393299103 0.541965126991272 -0.14899645745754242 0.26841071248054504 0.21590930223464966 0.09920881688594818 0.2024214267730713 0.6362859010696411 -0.05580700933933258 0.05386577546596527 0.0675804615020752 -0.0855683758854866 0.14294709265232086 -0.14326967298984528 -0.08081116527318954 -0.3778730034828186 0.11556693911552429 0.17691963911056519 0.06888881325721741 0.325309157371521 0.32106712460517883 -0.11040095239877701 0.16526062786579132 0.17566464841365814 -0.17759524285793304 0.18947680294513702 -0.07949104905128479 0.22689281404018402 0.38954898715019226 -0.19260619580745697 0.16574740409851074 0.03145061433315277 0.02754194848239422 0.04035232961177826 0.12808746099472046 0.07650871574878693 -0.1770845502614975 -0.23407234251499176 -0.07697658240795135 -0.032700762152671814 0.024950401857495308 0.20632971823215485 0.15555450320243835 0.307731568813324 0.26594439148902893 -0.10066073387861252
your 0.2111603319644928 -0.04133930057287216 0.12821437418460846 -0.07149796932935715 0.08339795470237732 0.22008469700813293 0.1772494614124298 -0.07341174781322479 -0.07021520286798477 -0.29326295852661133 0.17469961941242218 -0.37333372235298157 -0.09556598216295242 0.11922270804643631 0.06749209016561508 0.13516654074192047 0.2358342707157135 0.47123053669929504 -0.10480014234781265 0.022948570549488068 0.055849865078926086 0.40058040618896484 -0.12355034798383713 0.12854266166687012 -0.04640314355492592 0.1558498740196228 0.41167423129081726 -0.4139234125614166 0.2085495889186859 -0.2939133942127228 0.12728114426136017 0.3243982493877411 0.08847686648368835 0.16674953699111938 -0.27615973353385925 0.3449213206768036 -0.04148136451840401 0.04048001393675804 -0.06204995885491371 -0.05381995439529419 -0.0865715742111206 -0.6337461471557617 -0.09072332829236984 0.2626180946826935 -0.3134675920009613 0.014825752004981041 0.21169279515743256 -0.36871835589408875 0.08321297913789749 -0.36932894587516785
of 0.05924807861447334 0.7138605117797852 -0.01836237497627735 -0.19826728105545044 -0.23950113356113434 -0.4640871584415436 0.01723949983716011 0.16015295684337616 -0.6421623826026917 -0.05361403524875641 -0.09150124341249466 -0.09069916605949402 0.10310272872447968 0.32740122079849243 -0.10474733263254166 -0.5129912495613098 -0.26594117283821106 -0.17812786996364594 0.1780375987291336 0.48960816860198975 -0.06173840910196304 -0.08172927051782608 -0.013214465230703354 -0.09841033071279526 0.2575761079788208 0.12759582698345184 -0.22695842385292053 0.2745349705219269 0.25083598494529724 -0.09858027845621109 0.10427502542734146 -0.2258215993642807 -0.15936914086341858 0.24338945746421814 0.28705787658691406 -0.3535917103290558 0.18095119297504425 -0.32099008560180664 0.07817937433719635 0.3322656750679016 -0.14057670533657074 -0.13493503630161285 -0.03871302306652069 -0.005463847424834967 0.28772032260894775 0.5519691705703735 0.45160409808158875 0.07667586207389832 -0.34158608317375183 0.370743989944458
all -0.10600892454385757 -0.1384943574666977 -0.09455135464668274 -0.18247194588184357 -0.07462920248508453 -0.03960214927792549 -0.15674738585948944 0.08736298233270645 -0.10323428362607956 0.05129559710621834 -0.1543639451265335 0.030905909836292267 -0.25953933596611023 -0.23523063957691193 -0.4031083285808563 0.03037334606051445 -0.010769371874630451 -0.03009270504117012 -0.19532154500484467 0.02312609925866127 -0.04392412677407265 0.03166438266634941 0.2368813157081604 -0.08572915196418762 0.00262658903375268 -0.28425270318984985 0.3216526210308075 -0.3177695572376251 -0.03317606449127197 -0.48471659421920776 0.16964495182037354 0.2024514228105545 0.1799790859222412 0.314365029335022 0.3752264976501465 0.04064469411969185 -0.3875715136528015 0.34638091921806335 0.29600289463996887 0.10457707196474075 0.06643544137477875 -0.21079818904399872 0.031452324241399765 0.03242906183004379 -0.09462062269449234 0.22078846395015717 -0.3824235498905182 0.20931154489517212 -0.003371699247509241 0.7169992923736572
be -0.6333909630775452 0.12289838492870331 0.17583611607551575 -0.12256161123514175 0.26919206976890564 0.16782186925411224 0.13945338129997253 0.1620214283466339 -0.2562792897224426 0.008864411152899265 0.17090989649295807 0.4169255197048187 0.5078145861625671 -0.21660012006759644 -0.4097205698490143 -0.6823646426200867 0.12674002349376678 -0.09563851356506348 0.13338153064250946 -0.286806583404541 0.18085534870624542 0.4458022713661194 -0.2856100797653198 0.10947147011756897 0.1889943778514862 -0.09190414845943451 -0.1654464602470398 0.3462301790714264 -0.21460863947868347 0.24758902192115784 0.22479914128780365 0.14413626492023468 -0.1121748685836792 -0.24981538951396942 -0.07645117491483688 -0.06123589724302292 0.15476280450820923 -0.2372271865606308 -0.23837101459503174 -0.19012129306793213 -0.15360009670257568 -0.20809459686279297 -0.043129634112119675 -0.05112389102578163 -0.010225096717476845 -0.0713239386677742 -0.3222477436065674 -0.0783742219209671 -0.11779311299324036 -0.08327771723270416
we 0.04727456718683243 -0.508405864238739 0.41609570384025574 0.11909092217683792 0.3137592077255249 0.23169146478176117 0.1320328265428543 -0.11265894770622253 0.12971609830856323 -0.13438266515731812 0.2706167995929718 0.06743919849395752 0.04839912801980972 0.00181831163354218 -0.06603735685348511 0.38917919993400574 -0.4216625392436981 -0.018993103876709938 -0.04408761113882065 0.2776851952075958 -0.20970459282398224 0.15855136513710022 -0.2829659879207611 0.08603417873382568 0.027176598086953163 0.0034069863613694906 -0.04748275876045227 -0.008133815601468086 -0.05327954515814781 0.1586788296699524 0.09273086488246918 0.4643034338951111 -0.11148333549499512 -0.14688648283481598 0.01818578690290451 -0.024361105635762215 0.28362223505973816 0.0442831926047802 0.009362918324768543 0.19229739904403687 -0.10294689983129501 0.387367844581604 -0.15849518775939941 -0.11511682718992233 -0.31955114006996155 0.4458610415458679 0.17324353754520416 0.04829557612538338 -0.2055283933877945 0.330374538898468
is 0.20397821068763733 -0.04408339038491249 0.014305406250059605 0.06921587884426117 -0.21264450252056122 0.04942614212632179 -0.10820537805557251 -0.0304387379437685 0.14440570771694183 -0.09867434203624725 -0.4070528447628021 0.05240175127983093 0.05052148550748825 -0.008094483986496925 -0.32341456413269043 -0.15453486144542694 -0.03113197349011898 0.4123876690864563 -0.029357891529798508 -0.15380805730819702 -0.03673803433775902 0.23036755621433258 0.5047805905342102 0.02097489684820175 -0.5031977295875549 0.13997741043567657 0.3510902523994446 -0.013735548593103886 -0.26120245456695557 -0.01644108071923256 -0.41464605927467346 -0.056248657405376434 -0.06429725140333176 -0.09615390002727509 -0.2895938754081726 -0.3379460573196411 0.4455786943435669 0.17337670922279358 -0.22895419597625732 0.16518156230449677 -0.4073883593082428 -0.32490113377571106 0.08458001166582108 0.1014622375369072 0.02104661799967289 0.5642364621162415 0.6137262582778931 -0.2292984127998352 -0.20487472414970398 0.040435001254081726
for 0.11491842567920685 -0.3289429545402527 0.1645325869321823 -0.12222167104482651 -0.021605234593153 0.24774819612503052 -0.00634004408493638 0.25015589594841003 0.09915141761302948 0.0577053539454937 0.46298378705978394 -0.37740641832351685 0.2945070266723633 0.09618870913982391 0.656400740146637 0.10485046356916428 -0.0018759835511446 -0.12123813480138779 -0.14165133237838745 -0.08319760859012604 -0.033726029098033905 -0.3719469904899597 0.21351125836372375 0.5258172154426575 0.013507550582289696 0.07589372992515564 -0.4519803822040558 0.17157284915447235 0.16959957778453827 0.025203432887792587 0.15104228258132935 -0.06059388816356659 -0.0965222641825676 0.12808719277381897 -0.026947766542434692 -0.10473331063985825 0.13782954216003418 -0.2630850374698639 0.09395628422498703 -0.23262479901313782 0.16992321610450745 -0.41762983798980713 -0.522758424282074 -0.045445043593645096 -0.07734179496765137 0.02663286216557026 0.11543390154838562 0.23747505247592926 0.6556090116500854 0.1404944211244583
like 0.3476253151893616 0.3696078658103943 -0.9080442786216736 -0.6815853714942932 -0.4352881908416748 -0.16532137989997864 0.5724806189537048 -0.9774957299232483 0.7204452157020569 -0.19326169788837433 0.17807495594024658 1.4840811491012573 0.3959891200065613 0.21891047060489655 -0.9635342359542847 0.4099309742450714 -0.8202365040779114 -1.917862057685852 0.4829719364643097 -0.7391360402107239 -0.3914981484413147 -0.47743338346481323 0.16275577247142792 -0.11225207895040512 -0.23881074786186218 -0.5721768140792847 0.6266626715660095 0.05059640109539032 -0.06804542243480682 -0.38529908657073975 -0.06605026870965958 -0.2955506145954132 -0.19950076937675476 0.13767549395561218 0.39106935262680054 0.009445185773074627 -0.7007407546043396 -0.28338661789894104 -0.14768637716770172 0.6990687847137451 1.0985642671585083 0.9129053354263306 0.20351558923721313 -1.044966697692871 -1.2695196866989136 -0.28592056035995483 0.4343547821044922 -0.4836922585964203 0.21662040054798126 -2.076378583908081
so 0.08995683491230011 -0.027946118265390396 0.6980100870132446 -0.059784140437841415 -0.18342633545398712 0.10251226276159286 0.09129882603883743 0.170388862490654 -0.5279707312583923 -0.28639736771583557 0.2635384202003479 -0.06046478450298309 -0.26940152049064636 -0.3006742000579834 -0.19476787745952606 -0.24921829998493195 -0.2279994785785675 -0.331394225358963 -0.10810860246419907 0.2582989037036896 0.409883052110672 0.011781377717852592 -0.0599786676466465 0.048107556998729706 0.4796047806739807 0.25368157029151917 -0.07834435999393463 -0.2290850132703781 -0.10932579636573792 0.11723170429468155 0.41280215978622437 -0.23166939616203308 -0.22092068195343018 0.263077974319458 0.06936120241880417 -0.003540623467415571 0.3906015455722809 -0.36224156618118286 -0.3701607584953308 0.17928875982761383 -0.22132377326488495 -0.06229695305228233 0.18489088118076324 0.13528378307819366 -0.5756517648696899 -0.04722367227077484 -0.048413123935461044 0.06068386882543564 0.17596852779388428 0.26805898547172546
know -0.025074200704693794 0.3337726294994354 -1.0306346416473389 -0.14612193405628204 0.15557286143302917 -0.1231294646859169 0.11238328367471695 -0.7432941794395447 -0.12558512389659882 -0.10985974222421646 -0.1867101788520813 1.5191829204559326 -0.09385756403207779 0.13385054469108582 -1.2225573062896729 0.15278160572052002 -0.6381151080131531 -2.3850066661834717 0.09098092466592789 -1.043018102645874 -0.02178749069571495 0.2595021724700928 0.13687092065811157 -0.05292753502726555 -0.14426957070827484 -0.5606914162635803 -0.04622570797801018 -0.229848712682724 0.12349207699298859 -0.7343525886535645 -0.041045404970645905 -0.07450903952121735 0.40972432494163513 0.43284839391708374 0.05611436441540718 -0.10497589409351349 0.8405551314353943 -0.5402927994728088 -0.3318344056606293 0.22480303049087524 0.5485487580299377 0.18841500580310822 0.08784718811511993 -1.1982883214950562 -0.9878087043762207 -0.6718507409095764 0.5849334597587585 0.7536892890930176 0.0021364078857004642 -2.002594232559204
up -0.2432052195072174 0.06943999230861664 0.0586458295583725 -0.11170735210180283 0.011472237296402454 -0.16099146008491516 -0.026323629543185234 -0.27458810806274414 0.495022177696228 -0.3627374470233917 0.3098011314868927 0.10663153976202011 0.14591890573501587 -0.11764790862798691 -0.4797348380088806 -0.04991726949810982 0.07650108635425568 -0.15265904366970062 0.1136087030172348 -0.09302519261837006 -0.1819046288728714 0.34304362535476685 0.014095249585807323 -0.2741875946521759 -0.2673507630825043 0.07144442200660706 0.36427679657936096 -0.08170333504676819 0.24433378875255585 0.10620833188295364 0.07969772815704346 0.28738945722579956 0.21985012292861938 -0.3757820129394531 -0.20864799618721008 -0.12262250483036041 0.527122437953949 0.14173641800880432 0.5118363499641418 0.1693270206451416 -0.30453360080718994 0.12651249766349792 0.300420343875885 -0.3096604347229004 0.22665470838546753 0.19742436707019806 -0.3576080799102783 -0.11514969170093536 -0.1461031287908554 -0.3311298191547394
but 0.2892027199268341 -0.3422023355960846 -0.3474968671798706 0.10945601761341095 -0.24535071849822998 -0.008912289515137672 0.10104501992464066 0.36157506704330444 -0.0314185693860054 0.0808669924736023 -0.36080262064933777 0.2604902982711792 0.11319034546613693 -0.12212823331356049 0.3425073027610779 0.27693694829940796 -0.3304159641265869 -0.08424024283885956 0.1734808087348938 0.30689817667007446 0.11080174148082733 -0.06937890499830246 0.019474951550364494 0.1658022105693817 -0.6375078558921814 -0.05027049034833908 0.0005289274849928916 0.15997819602489471 -0.1826925277709961 -0.2776532769203186 -0.31659913063049316 0.2647087574005127 0.06043680012226105 -0.10291928797960281 0.17281103134155273 0.31903570890426636 -0.22866690158843994 -0.25515493750572205 0.5194098353385925 0.059434618800878525 -0.16583363711833954 0.17119447886943817 0.39157313108444214 0.29517361521720886 -0.0758434385061264 -0.22822469472885132 -0.048474717885255814 -0.1396126002073288 -0.2010938823223114 -0.2390175610780716
its 0.5821871161460876 -0.6586736440658569 0.12674523890018463 0.2694500684738159 0.11905296891927719 0.056231625378131866 -0.030235331505537033 0.025521613657474518 -0.03172317147254944 -0.14355792105197906 -0.10124530643224716 0.005232664290815592 -0.038952331990003586 -0.19075319170951843 0.3508695960044861 -0.35953134298324585 0.21351411938667297 -0.2640063464641571 0.31234055757522583 0.2838555574417114 -0.10083373636007309 -0.05212859809398651 0.4822777211666107 0.05628868192434311 0.054889824241399765 -0.2910069227218628 0.08743461221456528 -0.17339475452899933 -0.07646897435188293 -0.42019301652908325 -0.1908556967973709 -0.03021470457315445 -0.008536740206182003 -0.18846268951892853 0.04820819944143295 0.3074520528316498 -0.294776052236557 -0.22922056913375854 -0.3242448568344116 0.08190667629241943 -0.09447603672742844 0.1191953793168068 0.07784417271614075 -0.05235210806131363 0.2483959197998047 0.13482770323753357 0.11727265268564224 -0.03824881464242935 -0.04529326781630516 -0.13892705738544464
love -0.08179803192615509 1.239747166633606 -0.8105359673500061 -0.8220405578613281 0.5595393776893616 -0.5198362469673157 -0.2242482304573059 -0.7636570930480957 0.8055054545402527 -0.21585136651992798 -0.17502713203430176 1.5208306312561035 0.847132682800293 0.4633721113204956 -1.3213162422180176 -0.3942955732345581 -0.010284087620675564 -1.8573412895202637 0.6145825982093811 -1.464777946472168 -0.11111948639154434 -0.5672791004180908 0.7517610788345337 0.012972528114914894 0.2571205794811249 -0.1678914725780487 -0.009723037481307983 0.04487532004714012 0.6968881487846375 -0.47322818636894226 -0.21325038373470306 -0.14855949580669403 0.3545001149177551 1.063286304473877 0.11980689316987991 0.17044147849082947 0.7165609002113342 -0.44763150811195374 -0.4817655384540558 0.13499706983566284 -0.19945092499256134 0.5596706867218018 -0.14798185229301453 -0.8052743673324585 -0.8949695825576782 -1.2138046026229858 1.4212408065795898 -0.18053331971168518 0.6237497329711914 -2.0338661670684814
with -0.10320492833852768 -0.5468898415565491 0.0009840166894719005 -0.15284450352191925 0.11553885787725449 0.404697984457016 -0.04935150966048241 0.42051538825035095 -0.32562756538391113 -0.2692485451698303 0.021356243640184402 -0.17529235780239105 -0.4344104528427124 -0.046371620148420334 0.042699817568063736 0.08852120488882065 0.3487222492694855 0.03461823984980583 0.37002384662628174 0.1835976392030716 -0.10391297936439514 -0.19092842936515808 0.018002435564994812 0.30467021465301514 0.25473320484161377 0.07851678133010864 -0.3473448157310486 0.3190462589263916 0.6676187515258789 -0.22463461756706238 0.04640533775091171 -0.5438374876976013 0.13770383596420288 0.11306072771549225 0.40060266852378845 -0.11685075610876083 0.2584435045719147 0.03695915266871452 -0.46829476952552795 0.07987481355667114 -0.22167737782001495 0.3114371597766876 0.4047728180885315 0.2425529509782791 -0.2182992696762085 -0.22063900530338287 -0.15143953263759613 -0.2125483751296997 0.3859502077102661 0.22444972395896912
just -0.056515034288167953 -0.26806747913360596 0.37254032492637634 0.14717398583889008 -0.08647637069225311 0.17047977447509766 0.2787516713142395 -0.4373563528060913 0.011409244500100613 -0.2693968713283539 -0.343900591135025 0.24232478439807892 0.36568692326545715 -0.5633122324943542 -0.06307892501354218 -0.2379673570394516 -0.05692552775144577 -0.26680049300193787 -0.10122479498386383 0.3611937165260315 -0.34959039092063904 0.07581818103790283 -0.12024226784706116 -0.09026395529508591 0.1891297847032547 0.017451608553528786 0.26866158843040466 -0.3764660954475403 -0.04272615909576416 0.7478691935539246 -0.04860964044928551 -0.020689047873020172 0.27860647439956665 0.1297309398651123 0.17330102622509003 0.14636985957622528 -0.09519845247268677 0.3210940659046173 0.12901261448860168 -0.13047708570957184 -0.063521608710289 0.008004512637853622 -0.374716192483902 -0.2943021357059479 0.15515214204788208 -0.3015654683113098 0.1345737725496292 0.18705525994300842 0.06422681361436844 -0.09390013664960861
this -0.009000539779663086 0.40166187286376953 0.7301416397094727 0.14864276349544525 0.29482796788215637 -0.12858141958713531 0.12749066948890686 0.03560386598110199 -0.2689802646636963 -0.39894407987594604 0.1668248176574707 -0.06891300529241562 0.033145979046821594 0.33806151151657104 -0.22225381433963776 -0.17330090701580048 -0.08204926550388336 0.03304219990968704 0.0736747607588768 0.28616607189178467 0.1286013126373291 -0.18614518642425537 -0.2123349905014038 0.5646139979362488 -0.2485874742269516 0.28069400787353516 -0.06052705645561218 -0.22815647721290588 0.19945524632930756 -0.3611643314361572 -0.04085614159703255 -0.250544935464859 0.005732755642384291 0.3680292069911957 -0.10093498229980469 0.09438574314117432 -0.03819159418344498 -0.01490721944719553 0.0025519540067762136 0.054879240691661835 -0.09981369972229004 0.4811820685863495 0.36071470379829407 0.0761125236749649 -0.05890592560172081 -0.3283390402793884 0.019006624817848206 -0.1089245155453682 0.20490466058254242 0.09090866893529892
got -0.23784102499485016 -0.024315567687153816 -0.28663167357444763 0.2162046581506729 -0.33878934383392334 -0.13863502442836761 -0.13153250515460968 -0.3575018644332886 -0.4834558963775635 -0.243120938539505 -0.26927828788757324 -0.0999540388584137 0.6322270035743713 -0.3370179235935211 0.2484058141708374 0.48451346158981323 0.05618329718708992 -0.5760216116905212 0.3752571940422058 -0.15826597809791565 -0.15694637596607208 0.026037801057100296 -0.3129878640174866 -0.3614093065261841 -0.38368046283721924 -0.07859066873788834 -0.3954258859157562 -0.11836714297533035 0.07464299350976944 0.5057597160339355 0.051610708236694336 0.19660671055316925 -0.019737619906663895 0.19673871994018555 -0.06553816795349121 0.3218839764595032 -0.10333158075809479 0.3648163676261902 0.43177828192710876 -0.3249150216579437 0.12950588762760162 0.28489601612091064 -0.3238094747066498 -0.05957219749689102 0.3502437174320221 -0.055749572813510895 0.03663576766848564 -0.2494887113571167 -0.001190854236483574 -0.20520402491092682
no 0.5007708668708801 0.2285538613796234 -0.11306437104940414 -0.08002062141895294 -0.35421109199523926 0.14788196980953217 0.15412206947803497 0.12779183685779572 -0.06333761662244797 -0.05699001997709274 0.23852117359638214 0.062026817351579666 0.05316933989524841 0.10387561470270157 -0.11808109283447266 0.35626035928726196 -0.09234250336885452 0.05303202196955681 0.02586582489311695 -0.33079805970191956 0.38104405999183655 0.08213042467832565 -0.10363840311765671 -0.011296253651380539 -0.22008273005485535 0.08245199918746948 -0.25168660283088684 -0.0922892615199089 0.15528425574302673 -0.48863351345062256 0.25920817255973816 -0.34391337633132935 -0.2774224281311035 0.3707248866558075 -0.15263499319553375 -0.27494898438453674 0.4263213574886322 0.4613664448261261 -0.1727575808763504 -0.05927738547325134 0.3313671350479126 -0.14067687094211578 0.3654744029045105 0.08062324672937393 0.07999511808156967 0.22127442061901093 0.2278924435377121 0.008928132243454456 0.3488442003726959 -0.22581055760383606
when 0.037974096834659576 0.4242490828037262 0.44549620151519775 -0.3155265152454376 -0.03664418309926987 -0.19389106333255768 -0.14493760466575623 0.3644845485687256 -0.021861715242266655 -0.31504011154174805 -0.10945798456668854 -0.20504774153232574 -0.3640146851539612 0.022562164813280106 0.46761786937713623 -0.3717992603778839 0.19400274753570557 -0.21701259911060333 -0.17801886796951294 -0.05558030307292938 0.19209204614162445 -0.043112192302942276 0.03010440804064274 0.372189998626709 -0.266355961561203 0.14061136543750763 -0.1525331288576126 0.29508984088897705 0.15549881756305695 -0.11797932535409927 0.2032148689031601 -0.27180972695350647 0.15636925399303436 0.4640306532382965 -0.1547318994998932 -0.07870426028966904 0.22795060276985168 0.06090481951832771 0.4441898465156555 -0.32841143012046814 0.4994742274284363 0.21936462819576263 -0.15230868756771088 0.3860669732093811 0.02533550374209881 0.5940098762512207 0.16882698237895966 -0.05606846511363983 0.26740652322769165 0.2721349596977234
what 0.4267948567867279 -0.00709669291973114 -0.5700698494911194 -0.2980533540248871 -0.21065010130405426 -0.4864586889743805 0.1287783980369568 0.09193714708089828 -0.13705484569072723 -0.16231296956539154 -0.34001076221466064 0.1792018860578537 0.015049099922180176 -0.16716615855693817 0.17226041853427887 -0.1536443531513214 -0.2286325842142105 -0.71771240234375 0.19002074003219604 0.03746834024786949 0.1503366380929947 -0.36837562918663025 0.2639033794403076 0.08672274649143219 -0.2847456932067871 -0.1238304153084755 0.0545806884765625 -0.3213884234428406 0.2846530079841614 0.12165728956460953 -0.3691199719905853 0.2584536373615265 -0.1388108879327774 -0.23050712049007416 0.49457603693008423 -0.11054138839244843 -0.4112667143344879 -0.2435881346464157 0.24310776591300964 -0.1302798092365265 -0.371721476316452 -0.2950042188167572 0.15911762416362762 -0.08960560709238052 0.12115143984556198 0.042548224329948425 0.2034056931734085 -0.017341893166303635 -0.15760217607021332 0.3620503842830658
get 0.6215038299560547 -0.25704047083854675 0.43067118525505066 0.2061983197927475 -0.21405260264873505 -0.21997137367725372 -0.1956511288881302 -0.39373815059661865 -0.32152819633483887 0.22457833588123322 -0.07691539824008942 -0.2654576599597931 0.0028917337767779827 -0.35610535740852356 -0.19875119626522064 0.3223886489868164 0.20245440304279327 0.3912625014781952 0.26167625188827515 0.24569666385650635 0.32423803210258484 0.4965047538280487 -0.39659640192985535 -0.11088786274194717 -0.07397831231355667 -0.12234417349100113 -0.2553707957267761 -0.049074605107307434 0.2450234591960907 -0.02936679683625698 -0.4113575220108032 -0.18230697512626648 0.1683332920074463 0.14520590007305145 -0.036280300468206406 -0.08544574677944183 0.06772761791944504 0.1749366670846939 0.24083760380744934 -0.11286875605583191 0.20473764836788177 0.534692108631134 -0.31826046109199524 -0.5156245827674866 0.07465631514787674 0.12915046513080597 0.3790871798992157 0.37460434436798096 0.3129839599132538 -0.0015271555166691542
do 0.16670525074005127 0.20155538618564606 0.08427147567272186 -0.040862154215574265 -0.017949573695659637 0.07862434536218643 -0.12055434286594391 -0.09746761620044708 -0.004238484892994165 0.00891022477298975 -0.21464981138706207 0.32818350195884705 0.027340324595570564 0.12144307047128677 0.16517089307308197 -0.04135103523731232 -0.08502719551324844 0.25573301315307617 0.01425227802246809 -0.24867482483386993 -0.2675989270210266 -0.07944456487894058 -0.052103083580732346 -0.0794949010014534 -0.13041239976882935 -0.06591182202100754 -0.19039566814899445 0.23648683726787567 -0.0946689248085022 -0.5872799158096313 -0.21009041368961334 0.37734973430633545 -0.6756670475006104 -0.09810847043991089 0.24507194757461548 -0.2520168125629425 0.03275519236922264 0.4072527289390564 -0.19257494807243347 0.36836495995521545 -0.3091144561767578 0.15341556072235107 -0.47177550196647644 -0.02956903912127018 0.3424549102783203 0.1830054223537445 0.4774130880832672 -0.14146794378757477 -0.2749227285385132 -0.024263320490717888
can -0.49008429050445557 -0.17868971824645996 0.36962729692459106 0.02198822796344757 0.09266688674688339 -0.04504429176449776 -0.24994033575057983 -0.155333012342453 -0.09388521313667297 -0.22607167065143585 0.3659718632698059 -0.32305315136909485 0.027088062837719917 -0.5035680532455444 0.5518962740898132 0.10534954071044922 -0.15081356465816498 -0.5959987640380859 0.3857363760471344 0.21608316898345947 -0.058264363557100296 0.09568965435028076 0.14443810284137726 -0.11403337866067886 -0.5352055430412292 0.24503850936889648 -0.15363822877407074 0.27286967635154724 0.10899551957845688 -0.09586786478757858 -0.2107052356004715 0.39938440918922424 -0.15649478137493134 0.17769567668437958 -0.2179422527551651 0.09838636219501495 0.19371618330478668 -0.11182236671447754 -0.124009869992733 -0.1280170977115631 0.012635809369385242 0.07476114481687546 -0.014970475807785988 -0.2528512179851532 -0.06687586009502411 -0.030034204944968224 0.08306077867746353 -0.0279611274600029 -0.3440498113632202 0.33846741914749146
now -0.0474662147462368 0.17906460165977478 0.1709471195936203 -0.05029625818133354 -0.082241952419281 -0.1020195260643959 0.03551677241921425 0.05943860858678818 -0.006421325262635946 -0.472471684217453 0.12678177654743195 0.021014073863625526 -0.46736350655555725 0.3782076835632324 -0.303367018699646 0.08955399692058563 -0.19246889650821686 -0.21849633753299713 0.10972517728805542 -0.34554624557495117 0.04721519723534584 -0.3828926086425781 -0.23295466601848602 0.26416945457458496 0.2540675699710846 0.30929285287857056 0.30286598205566406 0.4711333215236664 -0.12595830857753754 0.035241298377513885 0.5322440266609192 0.06396472454071045 0.04947741702198982 0.1790124475955963 -0.03961966931819916 0.14735636115074158 -0.10729632526636124 -0.01570078171789646 0.02765493653714657 0.04461319372057915 0.20703750848770142 0.33696794509887695 -0.30933478474617004 -0.011041809804737568 0.15814532339572906 0.09977047145366669 -0.2669558823108673 0.23009039461612701 0.4543014466762543 -0.4302825331687927
if 0.06746812164783478 0.2968143820762634 -0.2859943211078644 -0.3179609179496765 0.3358772397041321 -0.08974184840917587 -0.18538779020309448 0.02392059564590454 -0.0508263073861599 -0.11441013216972351 -0.10840098559856415 -0.1492183357477188 -0.17776556313037872 -0.258905827999115 -0.2991621494293213 0.1489708572626114 0.22638264298439026 0.08900540322065353 -0.3837224245071411 0.3935109078884125 -0.3206713795661926 -0.019922057166695595 -0.016098784282803535 -0.15853272378444672 -0.007706590462476015 -0.06904856860637665 -0.6238731741905212 -0.42502114176750183 -0.024472085759043694 -0.23536686599254608 -0.15067733824253082 0.44068223237991333 -0.004498967435210943 -0.07857295870780945 0.0810154378414154 -0.23875035345554352 0.4119393229484558 0.0928896963596344 -0.04935743287205696 -0.2422904223203659 0.08482741564512253 -0.018993670120835304 0.4538188874721527 0.18648596107959747 0.19244153797626495 -0.35721054673194885 -0.24187986552715302 0.08912023901939392 -0.06442784518003464 -0.38146117329597473
out -0.30437132716178894 -0.21492046117782593 -0.5067366361618042 0.2971971035003662 0.057472113519907 0.09117242693901062 0.3349950909614563 -0.2237531542778015 -0.12918320298194885 -0.37780115008354187 0.3253019452095032 -0.15990117192268372 0.16090823709964752 -0.38280993700027466 0.30176541209220886 0.20104028284549713 -0.1986985206604004 0.15074299275875092 0.016947193071246147 0.01344238594174385 -0.5116719007492065 0.24324175715446472 0.032333746552467346 -0.006859026849269867 0.23056237399578094 -0.012275122106075287 0.020870650187134743 0.05330272018909454 0.10633767396211624 -0.17557929456233978 -0.002916296012699604 0.21129007637500763 0.22297149896621704 0.2446361780166626 0.24409116804599762 -0.18518546223640442 0.23188745975494385 -0.2840307950973511 -0.2252371460199356 0.6045411229133606 0.04965991899371147 -0.4205305278301239 0.4328005313873291 -0.2785071134567261 0.05872126668691635 -0.573279082775116 -0.2960869073867798 -0.13932950794696808 0.17064927518367767 -0.5442389249801636
down -0.24605722725391388 -0.09230020642280579 0.501910388469696 0.12516281008720398 -0.1360262781381607 -0.18305732309818268 0.3874891996383667 0.24616505205631256 0.10105279088020325 0.0026998096145689487 -0.05238625779747963 -0.07356114685535431 0.433880090713501 -0.33782532811164856 0.18485821783542633 -0.17823141813278198 -0.001543169841170311 -0.25759467482566833 0.1303408145904541 0.2368684858083725 0.29629388451576233 0.3923853933811188 0.12040184438228607 -0.03602401167154312 -0.012432695366442204 -0.010625398717820644 0.03963709995150566 -0.2338111400604248 -0.03044547140598297 0.2497725784778595 0.18482013046741486 -0.17188571393489838 0.0334751196205616 -0.1561773419380188 0.17187024652957916 0.19881221652030945 0.6347408890724182 -0.2625718116760254 0.5348155498504639 -0.26090607047080994 -0.16197045147418976 -0.40041816234588623 0.0404505617916584 -0.010765964165329933 0.06919194757938385 0.32327020168304443 -0.286998450756073 -0.43233010172843933 0.008312709629535675 0.14482587575912476
baby -0.4655475616455078 0.07817106693983078 -0.4060317575931549 -0.1015501320362091 0.6219775676727295 -0.08523024618625641 -0.3482426404953003 -0.6530299186706543 0.59373539686203 -0.22903193533420563 -0.42737507820129395 1.4829262495040894 0.7914031147956848 -0.5806996822357178 -0.9984347820281982 0.04309607297182083 -0.9320936799049377 -2.1495139598846436 -0.163742795586586 -1.2426435947418213 0.07178132236003876 0.5863744616508484 -0.08593867719173431 0.5530101656913757 0.6221441626548767 -0.040696218609809875 0.10322700440883636 0.22939349710941315 0.5363699197769165 -1.1534323692321777 -0.09042094647884369 -0.10671193897724152 0.06787877529859543 0.20122231543064117 -0.17603985965251923 -0.25297003984451294 -0.31238147616386414 0.4739333689212799 0.22402353584766388 -0.15493598580360413 0.7145701050758362 0.40600326657295227 -0.25252553820610046 -1.0984207391738892 -1.0403960943222046 -0.8494434356689453 1.186977744102478 0.6769123077392578 -0.40909042954444885 -1.8155609369277954
one -0.08505508303642273 0.021963175386190414 0.37103304266929626 0.12559467554092407 -0.46030059456825256 -0.10910262167453766 0.2267625331878662 0.40742963552474976 -0.12959475815296173 -0.06835630536079407 -0.026075908914208412 -0.33632659912109375 -0.3037683963775635 0.16376075148582458 -0.09953314065933228 -0.19729633629322052 0.07063745707273483 -0.18217825889587402 0.27746376395225525 0.5392464995384216 0.1835944801568985 0.1889774352312088 0.027305684983730316 -0.0784706249833107 0.3345073461532593 0.104075588285923 0.16240981221199036 -0.5983825922012329 -0.031304556876420975 -0.06262700259685516 -0.1627625674009323 0.06256440281867981 0.09291408956050873 -0.3282039761543274 -0.36400115489959717 0.09808116406202316 -0.05677250772714615 0.09214340895414352 -0.17444054782390594 -0.29885607957839966 0.004762820899486542 0.7453950643539429 0.2672138214111328 0.33920350670814514 0.0018820969853550196 -0.12750975787639618 -0.06395453959703445 0.04632018133997917 0.44119471311569214 -0.2883920669555664
see 0.05042290687561035 -0.6491138935089111 -0.2131977528333664 0.3073451519012451 -0.3570311367511749 0.48176002502441406 -0.15343225002288818 -0.05231616273522377 -0.22476303577423096 0.1595156490802765 0.6837796568870544 -0.24813419580459595 -0.06337815523147583 0.3200845420360565 -0.3457637131214142 -0.0813349261879921 0.25108739733695984 0.26546934247016907 -0.03923386335372925 0.20430047810077667 0.04578598216176033 -0.13161121308803558 0.1510719656944275 -0.09033089876174927 0.25410082936286926 -0.19720889627933502 -0.203212708234787 -0.2911938428878784 0.14500297605991364 0.2331668585538864 -0.45991089940071106 -0.42817139625549316 0.11995431780815125 -0.35207411646842957 0.22286562621593475 0.09698441624641418 0.21366344392299652 0.03520992770791054 0.26275840401649475 0.1817449927330017 0.09740684926509857 -0.039231836795806885 0.034786634147167206 0.14528438448905945 -0.10611867159605026 -0.26616692543029785 -0.0768401250243187 0.016807012259960175 -0.15630324184894562 0.24783934652805328
they 0.05800560861825943 0.1276133507490158 -0.11974312365055084 0.13361184298992157 -0.02730676531791687 0.09611967206001282 -0.046522077172994614 -0.056302864104509354 0.2664838135242462 -0.1994188278913498 -0.02547440491616726 -0.2986833453178406 -0.726631760597229 -0.2822125554084778 0.40597233176231384 -0.2832329571247101 -0.22676922380924225 -0.04344719648361206 0.31490904092788696 0.03695891797542572 -0.07491539418697357 -0.5593065619468689 -0.005842028651386499 0.18446800112724304 0.21126385033130646 0.07083815336227417 -0.052883245050907135 0.17512834072113037 0.02518543414771557 0.48148617148399353 0.12930691242218018 -0.37191423773765564 0.08781754225492477 0.1344829648733139 -0.18462184071540833 -0.34832707047462463 0.4376465380191803 0.21828217804431915 -0.07681480050086975 0.15526758134365082 -0.06769268959760666 -0.43703019618988037 0.4420066475868225 0.14019429683685303 0.15375620126724243 -0.180019810795784 0.3247933089733124 0.4495464563369751 -0.3915995955467224 -0.11922289431095123
time 0.7888650298118591 0.4425806701183319 -0.8868186473846436 0.21699386835098267 -0.4264596998691559 -0.25705111026763916 -0.3690107762813568 -0.20415149629116058 -0.0778530165553093 0.33638694882392883 0.5569334626197815 0.9678033590316772 0.04823736473917961 -0.652536153793335 -1.3276811838150024 -0.03336479887366295 -0.6397289633750916 -1.409549593925476 0.2589351236820221 -1.2938313484191895 0.030973391607403755 -0.04997328296303749 0.24015891551971436 -0.151876762509346 -0.3166963458061218 -0.11339300870895386 0.18836647272109985 0.16523340344429016 -0.3158911168575287 -0.9557223320007324 -0.30980098247528076 -0.07215473055839539 -0.47593218088150024 0.21770621836185455 -0.7713963389396667 -0.8229346871376038 1.0954352617263794 0.24224057793617249 -0.46344757080078125 0.2320505529642105 -0.4803796410560608 0.294819712638855 0.34504443407058716 -1.1281094551086426 -1.2258737087249756 -0.9993683695793152 0.857846200466156 0.20897482335567474 -0.7128668427467346 -2.1447036266326904
yeah 0.5820136070251465 0.1777866631746292 -0.9546037316322327 0.2405358850955963 0.6007957458496094 -0.4005638360977173 0.17279326915740967 -0.5795801281929016 0.24607327580451965 0.8877672553062439 -0.5329042077064514 1.4626789093017578 -0.012396253645420074 0.06049168109893799 -0.9601085782051086 0.747731626033783 -0.2743740677833557 -1.2793704271316528 0.3152776062488556 -1.043763279914856 0.26891469955444336 -0.10046911239624023 0.2594303488731384 0.8974080681800842 0.08997026830911636 -0.7438600063323975 0.13321858644485474 1.1776243448257446 -0.06492223590612411 -0.8148319125175476 -0.47679945826530457 -0.5542302131652832 -0.10827499628067017 1.2209138870239258 -0.33447641134262085 0.12609489262104034 0.4810970723628998 -0.004391373600810766 0.5924803614616394 -0.017996568232774734 1.0853221416473389 0.6991997361183167 0.0373082160949707 -1.1362191438674927 -0.7926116585731506 -0.6910290122032166 0.1093825027346611 0.5381567478179932 -0.14219094812870026 -1.4341648817062378
was -0.4961014688014984 -0.34578076004981995 0.26987969875335693 -0.013470785692334175 -0.13414017856121063 0.3337644934654236 0.3241390585899353 0.4484661817550659 -0.17352084815502167 0.44119659066200256 0.3824141323566437 -0.17749400436878204 -0.029615649953484535 -1.924930802488234e-05 -0.15392743051052094 -0.18639887869358063 -0.0033380496315658092 -0.38454487919807434 -0.268545538187027 0.08601292222738266 -0.3666626513004303 0.003915977198630571 0.02841304801404476 0.03299538418650627 0.2238549441099167 -0.09992704540491104 -0.023166468366980553 -0.2058556079864502 0.33758798241615295 -0.226530522108078 -0.16595134139060974 0.00581743847578764 -0.3126581013202667 0.0018604225479066372 -0.5058731436729431 0.0019133816240355372 -0.08887186646461487 -0.010507680475711823 0.10952620953321457 -0.41744327545166016 -0.5604116916656494 0.30674800276756287 -0.014978084713220596 -0.1505184918642044 -0.34347522258758545 -0.022440558299422264 0.24434785544872284 -0.5486055016517639 0.12871907651424408 0.13675332069396973
never 0.3061511218547821 0.23500709235668182 -0.5396162271499634 -0.41214993596076965 0.7605534791946411 0.8307161927223206 -0.08684270828962326 -0.22159692645072937 0.11817257106304169 0.5012929439544678 0.5337387323379517 1.170928716659546 -0.3514325022697449 0.6982640027999878 -0.840580940246582 0.2612358629703522 -0.8205654621124268 -1.8284295797348022 0.5488490462303162 -0.9037033319473267 0.03858374059200287 0.4085369110107422 0.5533953905105591 -0.3200666010379791 -0.3977415859699249 -0.2528167963027954 -0.664020299911499 -0.4277532398700714 -0.025767715647816658 -0.9520735740661621 -0.18532198667526245 0.10372214764356613 0.09800643473863602 0.3459288477897644 0.22741888463497162 0.041271667927503586 0.900664210319519 -0.8296712636947632 -0.4073023796081543 0.7810304164886475 -0.3604636490345001 0.9900838136672974 0.39867034554481506 -0.5580300092697144 -1.1238692998886108 -0.3434658348560333 1.361425757408142 0.3852780759334564 0.4239248037338257 -1.781152367591858
cant -0.25868111848831177 0.1816425323486328 -1.113090991973877 0.07106249779462814 0.2903474271297455 0.5210549831390381 0.9899118542671204 -0.2310124784708023 -0.09525147080421448 -0.6741199493408203 0.522408664226532 1.9244434833526611 0.6369479894638062 -0.7340546250343323 -0.9065818190574646 -0.23837003111839294 -0.654920756816864 -2.183953285217285 0.17001916468143463 -1.2031891345977783 0.3046697676181793 -0.08818422257900238 0.42670196294784546 -0.37173300981521606 -0.6215401291847229 -0.15795746445655823 0.6196983456611633 -1.0983237028121948 0.1548290103673935 -0.7787269949913025 -0.19172006845474243 1.0769795179367065 0.43159371614456177 0.7729383707046509 -0.2485956996679306 0.29327261447906494 0.620470404624939 0.03335723280906677 0.12474124878644943 -0.3735990822315216 0.09087509661912918 0.019503548741340637 -0.502870500087738 -0.3119269907474518 -0.7746076583862305 -0.29983004927635193 0.46695709228515625 -0.3595583140850067 -0.2909788191318512 -1.9904667139053345
want -1.0259902477264404 0.840219259262085 -0.6372643709182739 0.04810437187552452 0.5378282070159912 0.5463504791259766 0.17789725959300995 -0.745683491230011 -0.24134992063045502 -0.26090729236602783 -0.8301694393157959 1.3296153545379639 0.3845822811126709 -0.23245178163051605 -1.2258813381195068 0.7528287172317505 -0.5937226414680481 -1.7893074750900269 -0.3995748460292816 -1.311975359916687 0.05274379253387451 0.5175996422767639 0.14069993793964386 0.5938772559165955 -0.17551174759864807 -0.7478159666061401 0.03882518783211708 -0.4716203510761261 0.23226098716259003 -0.682661771774292 -0.21721364557743073 -0.03116585500538349 -0.2834963798522949 0.4855687916278839 -0.7087005972862244 0.19437363743782043 -0.2597244381904602 -0.4462681710720062 -0.15892980992794037 0.6176431775093079 0.2695600092411041 0.37740492820739746 -0.13523998856544495 -0.987011730670929 -0.40203025937080383 -0.2555347681045532 1.0805250406265259 0.21225778758525848 0.0005835503689013422 -1.6323930025100708
she -0.2716675400733948 -0.03806784749031067 -0.18985368311405182 -0.6397778391838074 0.22401651740074158 -0.24744802713394165 -0.09027357399463654 0.11310527473688126 -0.12389541417360306 0.20198337733745575 -0.19113852083683014 -0.1233673095703125 0.09790417551994324 -0.6690354943275452 0.4195285737514496 0.22996661067008972 0.2078007012605667 -0.2339387685060501 0.2449893057346344 -0.12945255637168884 -0.07977772504091263 -0.013677271082997322 -0.5054229497909546 0.48210829496383667 0.13471709191799164 0.12479986250400543 0.45029333233833313 0.3646249771118164 -0.40348994731903076 0.3852910101413727 -0.1916429102420807 -0.12816837430000305 -0.2953741252422333 0.3274162709712982 0.2756226062774658 0.1141776591539383 0.3595285415649414 -0.4299532175064087 -0.06081053614616394 -0.14491155743598938 -0.05343250185251236 -0.3870345950126648 0.065482959151268 0.19759172201156616 0.2429993897676468 -0.21006925404071808 -0.04312611371278763 0.07744214683771133 0.14822691679000854 -0.1916399598121643
not 0.5079131126403809 0.1117308959364891 0.6157540678977966 -0.205088809132576 0.10014212131500244 0.061368994414806366 0.1749475747346878 0.011283764615654945 0.5870733261108398 0.22622273862361908 -0.06617558002471924 -0.06401694566011429 0.3029995560646057 -0.13145342469215393 0.1560625433921814 0.29201412200927734 0.0033654922153800726 0.12729987502098083 -0.06471096724271774 0.02973060868680477 -0.04985058307647705 -0.05134245380759239 -0.007102619390934706 -0.21484637260437012 -0.11468957364559174 -0.018299425020813942 -0.18097977340221405 0.6849464774131775 0.15421561896800995 -0.005094089545309544 0.6836808323860168 -0.13670794665813446 0.017790412530303 0.1936320662498474 -0.3021739423274994 0.023463597521185875 0.2291061133146286 0.063524030148983 0.11748719215393066 0.08859733492136002 -0.15117114782333374 0.29090189933776855 -0.40731096267700195 -0.20632736384868622 0.33585748076438904 0.1855248659849167 -0.49956995248794556 -0.13189631700515747 0.46671900153160095 0.26029452681541443
cause 0.21056337654590607 0.6215861439704895 -1.2672656774520874 -0.09865667670965195 0.5311998724937439 -0.045899927616119385 -0.09003444761037827 -0.6050487160682678 -0.623553991317749 -0.048097848892211914 -0.28776460886001587 1.0778872966766357 0.39114996790885925 -0.15670353174209595 -1.1116291284561157 0.01053166389465332 -0.8737305402755737 -1.8146882057189941 0.10958971828222275 -1.1107996702194214 -0.023611359298229218 -0.004829889629036188 0.16569027304649353 0.11629283428192139 -0.28528034687042236 -0.43891969323158264 -0.017268747091293335 -0.03970151022076607 0.2661331295967102 -0.5118829011917114 0.11045839637517929 0.41137248277664185 0.3219982385635376 0.3643522560596466 0.23452070355415344 0.23668794333934784 0.6889827251434326 -0.3849329948425293 0.3414771258831024 -0.2437313199043274 0.05601586773991585 0.1425485908985138 0.1612871140241623 -0.9859614372253418 -1.010969638824463 -0.3677860498428345 0.5036142468452454 0.4092768430709839 0.10095008462667465 -1.696934461593628
are 0.003625249257311225 -0.291551411151886 0.3411578834056854 -0.15836836397647858 0.15645457804203033 0.2575305998325348 -0.46935805678367615 -0.12182959914207458 0.6525920629501343 0.029334038496017456 -0.4361797273159027 -0.2549673318862915 -0.0005639070877805352 0.23852883279323578 -0.24968741834163666 -0.19976714253425598 0.1546979397535324 -0.4420681893825531 -0.36250075697898865 0.10408273339271545 -0.3822426497936249 0.03878451883792877 -0.08452525734901428 0.3166902959346771 -0.11987285315990448 -0.46728938817977905 -0.44972747564315796 -0.018989291042089462 -0.07260438054800034 0.2035369873046875 0.1386452466249466 0.10235052555799484 0.1165555939078331 0.13387583196163177 -0.030248058959841728 -0.11843172460794449 -0.3200526535511017 0.17336367070674896 -0.18377836048603058 -0.06681789457798004 -0.5959389805793762 -0.4208051860332489 -0.11653058975934982 0.34702906012535095 -0.20127840340137482 0.1845972090959549 0.06692603975534439 -0.06876212358474731 0.293083518743515 -0.32644540071487427
make 0.28688594698905945 0.4328525960445404 -0.8130415081977844 -0.5181793570518494 0.25232815742492676 0.9471075534820557 0.6126171946525574 -0.019268732517957687 0.16420231759548187 0.10143314301967621 -0.08929789811372757 1.3558986186981201 0.1896304041147232 -0.1699058711528778 -0.8769046068191528 0.8051493167877197 -0.8685039281845093 -1.7353988885879517 0.1785658299922943 -1.5879510641098022 0.27099230885505676 -0.9474280476570129 -0.027229823172092438 0.050111204385757446 0.782230794429779 -0.5564268827438354 0.08673646301031113 -0.07886303961277008 -0.2274223268032074 -0.9462242126464844 -0.6233371496200562 0.2813304364681244 0.16550345718860626 0.5180414319038391 -0.2844417989253998 0.30975785851478577 0.38664355874061584 1.0362391471862793 -0.4930192530155182 -0.1587236225605011 0.13114090263843536 0.6107379198074341 0.6911611557006836 -1.1196938753128052 -0.8748284578323364 -1.102423906326294 0.8207086324691772 0.5303072929382324 -0.016417261213064194 -1.415719747543335
let -0.15172021090984344 -0.030976803973317146 0.19431816041469574 0.02274840511381626 -0.4136210083961487 0.2743705213069916 -0.013814609497785568 -0.13365456461906433 -0.43017229437828064 0.3790529668331146 0.039694465696811676 -0.08473455160856247 -0.010924090631306171 -0.07349618524312973 -0.26545533537864685 -0.135475292801857 0.19065415859222412 -0.21870407462120056 0.08119810372591019 -0.4123079180717468 -0.12823916971683502 0.2502199411392212 0.3745572865009308 -0.34561097621917725 0.04130659997463226 -0.09965511411428452 0.03370927646756172 -0.0035865791141986847 0.01922592706978321 -0.4219450056552887 -0.2786920666694641 -0.2344224452972412 -0.023127742111682892 -0.3590320944786072 -0.19451308250427246 -0.335215300321579 0.019594579935073853 -0.48325714468955994 -0.06932501494884491 0.2720283269882202 0.1491573601961136 0.05625725910067558 0.2884449064731598 0.16639408469200134 -0.014225998893380165 -0.14762230217456818 -0.05337691307067871 0.3680381774902344 -0.09345651417970657 -0.19957931339740753
wanna 0.009452118538320065 0.8108616471290588 -0.24869684875011444 -0.3304462134838104 0.39920276403427124 0.7740111351013184 -0.2371336817741394 -0.5171396136283875 -0.22056730091571808 -0.30466434359550476 -0.7611856460571289 0.9889552593231201 0.018457362428307533 0.021389715373516083 -0.9355745315551758 0.08936760574579239 -0.8211012482643127 -2.3588809967041016 0.08193885535001755 -1.4415316581726074 0.7143351435661316 -0.2331603467464447 0.35486507415771484 0.3166484236717224 -0.10307334363460541 -0.3253331482410431 -0.7568691968917847 -0.13243608176708221 -0.46040287613868713 -0.8734749555587769 -0.12755081057548523 0.3537181317806244 -0.2437230348587036 0.6545204520225525 -0.09369314461946487 -0.16103948652744293 0.06546037644147873 0.48217880725860596 0.04613513872027397 0.3281870484352112 0.8710192441940308 0.2850145101547241 0.2540919780731201 -0.9246958494186401 -0.2582973539829254 -0.9470234513282776 -0.20370636880397797 0.06249739229679108 0.18657872080802917 -2.0504541397094727
come -0.46686863899230957 -0.3784014582633972 -0.6687456369400024 -0.3942186236381531 -0.4086252450942993 -0.01758033037185669 0.0705019012093544 -0.6915447115898132 0.6538576483726501 -0.4198785424232483 -0.3010815680027008 0.8695688843727112 0.04451867192983627 0.25163474678993225 -0.6927782297134399 0.5683320164680481 -0.958179771900177 -1.9062460660934448 -0.6581944227218628 -1.0652284622192383 -0.07798870652914047 -0.06212802976369858 -0.26358672976493835 -0.007988201454281807 0.3891605734825134 -0.13149215281009674 0.16450384259223938 0.731281042098999 0.19690871238708496 -1.038793683052063 0.3295500874519348 0.21897201240062714 -0.2565368115901947 1.1040219068527222 0.5694831013679504 -0.12121281772851944 1.1057547330856323 1.0696810483932495 0.893143892288208 0.9177361726760864 -0.4809720516204834 0.9975337386131287 0.23956289887428284 -0.9918021559715271 -0.9963229298591614 -0.2971665859222412 0.33144548535346985 0.9172877669334412 -0.5873087048530579 -1.899859070777893
say -0.20639708638191223 0.652593731880188 0.22313055396080017 -0.005980890244245529 0.06959313154220581 0.21021704375743866 0.16436025500297546 -0.031810563057661057 0.21950791776180267 0.12869088351726532 0.30537891387939453 -0.5317971110343933 0.050063323229551315 0.04617112874984741 -0.2347501814365387 -0.23583577573299408 0.09073012322187424 0.03880894556641579 -0.020100804045796394 -0.014970564283430576 -0.3846229612827301 -0.008616648614406586 0.041113365441560745 -0.1019580215215683 0.20779499411582947 0.08949340134859085 -0.4973989427089691 0.0749211460351944 -0.18152986466884613 0.23303253948688507 0.1550542563199997 -0.11343147605657578 -0.10877785831689835 -0.42505931854248047 -0.4066365361213684 0.3835027813911438 0.1402321308851242 0.00104891590308398 -0.0355728454887867 0.0046395850367844105 -0.18330161273479462 0.2856045961380005 -0.3342846632003784 -0.6146013736724854 -0.2729860544204712 -0.3404277563095093 0.16733013093471527 0.09842990338802338 0.4767343997955322 0.05326854810118675
back 0.45576706528663635 -0.5329619646072388 -0.8088457584381104 -0.6793124079704285 -0.2164570838212967 0.025534162297844887 -0.49194103479385376 -1.0528019666671753 0.06656341999769211 -0.4903408885002136 0.04348399117588997 0.42210280895233154 -0.15308387577533722 -1.1160870790481567 -1.2802766561508179 0.25809717178344727 -0.5049784779548645 -2.196920394897461 0.11208584159612656 -0.1850769817829132 -0.032479096204042435 -0.6830992102622986 0.40767011046409607 -0.6101422905921936 0.033854108303785324 -1.19232976436615 0.7307010293006897 -0.6058717370033264 -0.19696320593357086 -1.0260016918182373 0.586941659450531 -0.16111503541469574 0.3852173388004303 0.8674987554550171 -0.5912601351737976 0.6072337031364441 0.6975800395011902 -0.2879723012447357 0.740013062953949 1.1068058013916016 -0.14891977608203888 1.0792328119277954 -0.5242311358451843 -0.7906249165534973 -1.0010582208633423 -0.08346596360206604 0.22493703663349152 0.5411161184310913 -0.12323100119829178 -1.9258402585983276
take 0.32182061672210693 0.055199410766363144 -1.4236245155334473 -0.38919442892074585 -0.20469121634960175 0.3974609375 0.062223292887210846 0.274438738822937 -0.02506074868142605 -0.08091510832309723 0.8883607387542725 1.0128185749053955 0.11579398810863495 -0.6906915307044983 -1.1016790866851807 -0.7210217118263245 -0.8343823552131653 -1.981108546257019 -0.041535597294569016 -1.1922564506530762 0.3689764738082886 -0.5554550886154175 0.4497997462749481 0.22903677821159363 0.18650206923484802 -0.20308275520801544 -0.3238758146762848 0.34828847646713257 0.09705287218093872 -0.6034398078918457 0.5425567626953125 0.5293776988983154 -0.3584010899066925 0.5164127349853516 -0.06620404869318008 0.3408268392086029 0.12434598803520203 -0.11328915506601334 0.18247535824775696 0.18815532326698303 0.0019848868250846863 1.038765549659729 -0.4347711205482483 -1.1106821298599243 0.3851069509983063 -0.9879058599472046 0.5539833307266235 0.5373796224594116 -0.8749479055404663 -2.0246365070343018
way 0.052737634629011154 0.05295758321881294 0.27113810181617737 0.10893788188695908 -0.1826326847076416 -0.12064158171415329 0.06559419631958008 -0.20878809690475464 0.5967358350753784 -0.027033183723688126 -0.4781220853328705 -0.012511422857642174 -0.02815641462802887 -0.06762892007827759 -0.46706971526145935 0.26850420236587524 -0.32759183645248413 0.02751246839761734 0.06410136818885803 0.4046647250652313 -0.1464342623949051 0.14299742877483368 0.4804227650165558 0.16797296702861786 0.13269689679145813 -0.04411781579256058 -0.14208035171031952 0.19172878563404083 -0.37978607416152954 -0.12464433163404465 -0.12764006853103638 -0.16184930503368378 -0.006137631367892027 -0.5907078385353088 0.12217243015766144 -0.11634831130504608 -0.5417803525924683 -0.06822999566793442 -0.31465426087379456 -0.10961692780256271 -0.15931886434555054 0.0981101393699646 0.2332438975572586 0.08975167572498322 -0.16560663282871246 -0.14304713904857635 0.2686842679977417 0.47326433658599854 0.006365262437611818 -0.32543128728866577
have 0.201332226395607 0.33344516158103943 0.2667742371559143 -0.20023584365844727 -0.3553159534931183 -0.4248955547809601 -0.12007033079862595 0.5064647197723389 -0.27566835284233093 0.09161954373121262 0.3748120367527008 -0.13899366557598114 0.09734733402729034 -0.040738608688116074 0.052557531744241714 0.06479095667600632 0.2659062147140503 -0.12300346046686172 0.10174683481454849 0.2600392997264862 -0.2574692666530609 -0.062328193336725235 0.550573468208313 0.14358921349048615 -0.17982608079910278 0.025400076061487198 0.03342340141534805 0.29884910583496094 -0.14326255023479462 0.3879105746746063 -0.14800375699996948 0.007901227101683617 0.07445578277111053 -0.12861496210098267 -0.4104071855545044 0.039782386273145676 0.10459080338478088 0.17021292448043823 0.257905513048172 0.11894881725311279 -0.4012148380279541 -0.37046724557876587 0.7297034859657288 -0.08088604360818863 0.1078658327460289 -0.2534438967704773 -0.029671914875507355 0.37454020977020264 0.23300611972808838 -0.012156863696873188
from -0.045490916818380356 0.1239236444234848 0.09636791795492172 -0.10683977603912354 -0.18864616751670837 -0.33694398403167725 0.03510766103863716 -0.02183857187628746 -0.17450298368930817 -0.0291017834097147 0.3104183077812195 -0.04801482707262039 -0.1630583107471466 0.04622513800859451 -0.14279408752918243 0.5412344932556152 -0.04161017760634422 -0.694140613079071 -0.29913610219955444 0.3912734091281891 -0.05838274955749512 -0.37767577171325684 0.34975308179855347 0.2851647734642029 0.16278043389320374 -0.12164942920207977 0.03944826498627663 -0.15522263944149017 -0.06643839925527573 -0.32563257217407227 -0.299927294254303 -0.008287213742733002 -0.2685253918170929 0.30388393998146057 0.2696434259414673 -0.040292225778102875 0.29400959610939026 -0.32863083481788635 0.40128567814826965 0.10005011409521103 0.11812834441661835 -0.026988612487912178 -0.2506721019744873 0.10354628413915634 -0.00010656873928382993 -0.20683839917182922 -0.2982552945613861 0.17743931710720062 -0.38814887404441833 -0.023199310526251793
at 0.21412481367588043 -0.33925047516822815 -0.12372279912233353 0.3406122922897339 -0.24412256479263306 -0.1570451408624649 -0.5278176665306091 -0.050511278212070465 -0.435845285654068 0.19561471045017242 0.030062096193432808 -0.16250479221343994 0.03023597225546837 0.29723748564720154 -0.18551062047481537 -0.08356892317533493 0.16726700961589813 -0.5822581648826599 0.014799344353377819 -0.16418428719043732 -0.10021529346704483 0.21656534075737 -0.2631508708000183 0.13339896500110626 0.684794008731842 0.00811605155467987 -0.2768453061580658 0.19148851931095123 -0.04474242776632309 -0.08002062141895294 -0.04715749993920326 -0.40623876452445984 -0.088160939514637 0.39782387018203735 -0.23998650908470154 0.2757191061973572 0.045845355838537216 0.0004105176485609263 0.03229200094938278 -0.09184277057647705 0.12400394678115845 -0.3787209093570709 -0.3086540102958679 -0.11113883554935455 0.2202245593070984 0.07213005423545837 -0.18190759420394897 0.25758570432662964 -0.18033654987812042 0.11809016019105911
ill 0.05457561835646629 0.3335602283477783 -0.1443825364112854 0.010001962073147297 0.18698062002658844 -0.23470446467399597 -0.18896101415157318 0.28008052706718445 0.2812087833881378 -0.08154886215925217 -0.2993003726005554 0.44016367197036743 0.08391604572534561 0.02953897975385189 0.040113162249326706 0.12001492828130722 -0.35685768723487854 -0.17778874933719635 0.1506796032190323 0.14099924266338348 0.30888721346855164 -0.845382571220398 -0.294638067483902 0.3282129764556885 0.11248217523097992 0.1391502171754837 0.0876191258430481 -0.26695260405540466 0.048738908022642136 -0.20849907398223877 -0.3302982449531555 -0.012513951398432255 0.11636005342006683 0.05000893026590347 0.115920290350914 -0.2199871689081192 -0.058134693652391434 0.012573040090501308 -0.17532190680503845 -0.09537343680858612 -0.013367109932005405 0.0037013180553913116 0.290854811668396 0.3226839005947113 -0.3441222906112671 0.029322873800992966 -0.04656234383583069 -0.1570878028869629 0.21639712154865265 -0.14823827147483826
girl 0.6155692338943481 0.5010576248168945 0.2697329819202423 -0.08537519723176956 0.5756359100341797 0.23244929313659668 -0.14425167441368103 -0.7609927654266357 0.7912803888320923 -0.28961122035980225 0.0070603690110147 1.3301496505737305 0.23040005564689636 0.38561582565307617 -1.0685580968856812 0.023785723373293877 -1.0072394609451294 -2.4795215129852295 -0.04394092783331871 -1.6489100456237793 0.12080268561840057 -0.10062272101640701 -0.5474905371665955 -0.9674538969993591 0.16283731162548065 -0.14377057552337646 0.32521170377731323 0.38561633229255676 0.2938550114631653 -0.8706704378128052 0.04314514994621277 -0.552270770072937 0.05278238654136658 -0.3430841565132141 -0.319443017244339 -0.3149295449256897 -0.2721238434314728 -0.13684026896953583 1.0773390531539917 -0.06756940484046936 0.7300360202789307 -0.5956753492355347 0.1683710217475891 -1.379473328590393 -0.542481541633606 -0.3778036832809448 0.2524248957633972 0.3906170427799225 -0.21844613552093506 -1.334518551826477
will -0.30942460894584656 0.08559025824069977 -0.05204393342137337 -0.1110134869813919 0.352997362613678 -0.20169255137443542 0.20065343379974365 0.11076468229293823 -0.12312861531972885 -0.013106554746627808 -0.4423142671585083 0.3927764594554901 0.6969174742698669 0.29052841663360596 -0.18164508044719696 0.3629605174064636 -0.04065192863345146 0.4152400493621826 -0.2580459415912628 -0.4435247480869293 0.14140251278877258 0.263864666223526 -0.298725426197052 0.16208326816558838 -0.05985526368021965 0.19302788376808167 -0.2781989872455597 0.2711806297302246 -0.009373472072184086 -0.09373535960912704 0.047659147530794144 0.053956855088472366 -0.2539098262786865 0.15706206858158112 0.1773117184638977 -0.20606417953968048 0.07445210963487625 0.03848903253674507 0.37463000416755676 -0.1720268875360489 -0.18571539223194122 0.11691504716873169 0.5366626977920532 -0.18027089536190033 0.1840789020061493 0.1701146960258484 0.14558185636997223 0.050298433750867844 0.10758311301469803 0.06648123264312744
how -0.06915668398141861 0.42619380354881287 0.35721248388290405 -0.09177080541849136 -0.10288377106189728 -0.23845744132995605 0.046679332852363586 0.04085564240813255 -0.18716852366924286 0.28532958030700684 -0.0686788260936737 0.20580506324768066 -0.04562648385763168 0.06636215001344681 0.14355696737766266 -0.03424268588423729 -0.3228904902935028 0.1403173804283142 -0.09195493161678314 0.1243903860449791 0.21234863996505737 -0.10731852799654007 0.22343873977661133 0.5083640813827515 -0.10058529675006866 -0.12105931341648102 0.17326541244983673 -0.14841385185718536 0.29766160249710083 -0.613616943359375 0.3655584454536438 -0.17013610899448395 -0.3600495159626007 0.2710338532924652 -0.19423872232437134 0.04022661969065666 -0.22660012543201447 0.3363904356956482 -0.3701232671737671 -0.0016801808960735798 0.3933280110359192 0.610722541809082 0.1511986404657364 -0.10543716698884964 -0.20204734802246094 0.4839312732219696 0.34902873635292053 0.11055789142847061 0.3059535026550293 -0.26652711629867554
her 0.1265663355588913 0.02559235319495201 -0.31137919425964355 -0.1685238778591156 -0.2001791149377823 0.17070253193378448 0.20219619572162628 0.06818194687366486 0.03152957558631897 0.32657334208488464 0.11726723611354828 0.19090038537979126 -0.04918384924530983 0.07033607363700867 0.1149631142616272 0.42515018582344055 -0.13432034850120544 0.15401160717010498 -0.17782531678676605 -0.0573776513338089 0.6502631902694702 -0.3169449269771576 -0.45826175808906555 0.23651123046875 -0.06324762105941772 0.24379292130470276 0.1976645439863205 0.25003212690353394 0.12058112770318985 -0.08183890581130981 0.5914732217788696 -0.281984806060791 0.19758187234401703 0.2477080225944519 -0.10404345393180847 -0.18268641829490662 -0.6460199356079102 0.20468701422214508 0.11703642457723618 0.06433607637882233 -0.13384521007537842 0.4269641935825348 0.1796305924654007 -0.2104867696762085 0.14191773533821106 -0.11965373903512955 -0.753320038318634 0.0007074963068589568 -0.38154366612434387 -0.057160817086696625
were -0.2328832447528839 -0.14503397047519684 0.028157347813248634 -0.30282819271087646 0.041636187583208084 0.36270520091056824 -0.0009181045461446047 -0.3763609528541565 0.019906584173440933 -0.11566220968961716 -0.1563197523355484 -0.06831899285316467 0.47017309069633484 -0.09566984325647354 0.1786755472421646 -0.7569181323051453 -0.24634240567684174 -0.07876665145158768 -0.17413373291492462 -0.3372477889060974 -0.17478619515895844 0.2824431359767914 -0.07580728083848953 0.1608031839132309 -0.3529204726219177 -0.02272935025393963 0.402718722820282 0.1609947234392166 0.14581412076950073 -0.13844409584999084 -0.2502722442150116 -0.3696669340133667 -0.06991970539093018 0.08356583118438721 0.49192923307418823 -0.13509142398834229 0.08130411058664322 -0.1800370216369629 -0.3950977027416229 0.030631842091679573 0.08987779170274734 -0.1888643354177475 -0.04956825450062752 0.10264931619167328 -0.07480989396572113 0.21963104605674744 0.10353488475084305 0.2868146300315857 0.3549555242061615 -0.4923059344291687
gonna 0.006039500702172518 -0.2682017982006073 -0.7670891880989075 -0.5043085813522339 0.441875696182251 0.5346584916114807 0.013833298347890377 0.48853135108947754 -0.17839115858078003 0.3303668200969696 0.2654775083065033 1.3621777296066284 0.6231217980384827 0.1250564008951187 -1.345184326171875 0.5548564791679382 -0.9069887399673462 -1.1948601007461548 0.3857765197753906 -0.3412937521934509 1.128265619277954 -0.2392820417881012 -0.2804204821586609 0.4980040192604065 0.14737215638160706 0.09708437323570251 -0.41256633400917053 0.15898501873016357 0.22630572319030762 -0.7938740253448486 0.7900349497795105 -0.14806725084781647 0.09909820556640625 1.1770936250686646 -0.31795138120651245 -0.0010423875646665692 0.5520513653755188 -0.39265406131744385 0.6762009859085083 -0.23704595863819122 -0.06843529641628265 0.3245421350002289 0.4780683219432831 -0.964338481426239 -1.0537128448486328 -1.0767154693603516 0.7623456716537476 1.1793205738067627 -0.13678574562072754 -1.726952314376831
feel 0.25165385007858276 0.8264805674552917 -0.5888279676437378 -0.0519634447991848 -0.10408322513103485 0.2332783341407776 0.3553757071495056 -0.04989371821284294 -0.046842362731695175 -0.40299561619758606 -0.43516361713409424 1.5604273080825806 0.08331768214702606 0.28994905948638916 -1.3076376914978027 0.347627729177475 0.20177078247070312 -1.3362128734588623 0.06912151724100113 -1.238287329673767 -0.2724818289279938 -0.7029480934143066 0.2787807583808899 0.2594679594039917 -0.3550081253051758 -0.05665458366274834 0.7630006670951843 -0.020559018477797508 0.4261857569217682 -1.0659854412078857 -0.5230259895324707 0.5524672269821167 0.25216951966285706 -0.3230671286582947 -0.042896002531051636 0.8083592653274536 0.6248301863670349 0.5087383389472961 -0.082795649766922 0.10870278626680374 0.8666648268699646 1.0701179504394531 0.9511772394180298 -0.8247202634811401 -0.7182185053825378 -0.28155967593193054 0.6335532069206238 -0.47150203585624695 0.20446108281612396 -1.602928638458252
right 0.7132887840270996 -0.13579756021499634 -0.1198849156498909 -0.076024629175663 -0.15533347427845 -0.4197588860988617 -0.12338361144065857 0.32337576150894165 -0.07276620715856552 0.11426547914743423 0.2500740587711334 1.573009729385376 0.01105412282049656 -0.9495279788970947 -1.1056675910949707 0.6683394908905029 -0.62546306848526 -1.9210032224655151 0.031200019642710686 -1.3652182817459106 0.04747556149959564 0.19066883623600006 -0.29549217224121094 0.856052041053772 0.17803078889846802 -0.3986174762248993 0.7213974595069885 -0.2723757326602936 -0.14200879633426666 -0.6030713319778442 -0.13006915152072906 -0.42796239256858826 0.05329670011997223 0.7579876780509949 0.09292915463447571 0.36870554089546204 0.6349921226501465 -0.1492878794670105 -0.08615213632583618 0.2331675887107849 0.5625457167625427 0.46148237586021423 0.447424978017807 -1.2227503061294556 -0.6845035552978516 0.37751349806785583 0.9365609884262085 0.19149433076381683 -0.12940678000450134 -1.6481053829193115
here 0.2228502482175827 -0.6904364228248596 0.08170773088932037 -0.047696903347969055 0.3343052864074707 -0.5137180089950562 -0.627449631690979 0.09815091639757156 0.27072182297706604 0.23849375545978546 -0.06063897907733917 -0.2083207368850708 0.34486421942710876 -0.09148789942264557 -0.26856985688209534 0.3084373474121094 -0.06257723271846771 0.1255141794681549 0.19621947407722473 -0.2031783014535904 -0.20172183215618134 0.2551358938217163 -0.024033399298787117 0.592086672782898 0.4909995496273041 -0.0700470507144928 0.09609797596931458 0.30168718099594116 -0.12572835385799408 0.3241826593875885 -0.47543784976005554 0.39441758394241333 -0.017107458785176277 0.09926716238260269 -0.05205794796347618 -0.12492989003658295 -0.24958886206150055 0.021797215566039085 -0.2921258211135864 -0.14979097247123718 -0.2155328094959259 -0.23960551619529724 0.30249452590942383 -0.02116447500884533 0.017578771337866783 0.035884369164705276 -0.04512831196188927 0.08015589416027069 -0.26149436831474304 -0.23431891202926636
life 0.8539546728134155 -0.1831572949886322 -0.44622111320495605 0.009429177269339561 -0.7874387502670288 0.2118837535381317 0.1540425568819046 -0.268106609582901 -0.8386080265045166 0.5519477725028992 -0.5560050010681152 1.3934013843536377 0.6842393279075623 -0.04407745599746704 -1.1765780448913574 -0.5345674157142639 -0.34575462341308594 -1.7515422105789185 0.9244762659072876 -0.7748782634735107 -0.6734000444412231 0.07168515026569366 -0.1978132724761963 0.07781428098678589 -0.33274710178375244 -0.6109946370124817 -0.26945585012435913 -0.2586882710456848 -0.0016516444738954306 -0.5347285270690918 0.013222810812294483 -0.4773961901664734 -0.3007552921772003 0.8061763644218445 -0.5441374778747559 0.34924042224884033 0.19725167751312256 -0.0395573265850544 -0.27646782994270325 0.0927881971001625 -1.4024821519851685 0.7668598890304565 -0.12898769974708557 -1.2871971130371094 -0.667367160320282 -0.5768738985061646 0.7396911978721619 -0.423531174659729 0.6025806069374084 -1.4663957357406616
need -0.25950151681900024 1.1877076625823975 -0.9881333112716675 0.09445875138044357 0.5430868864059448 -0.4729808568954468 0.48787927627563477 0.2850974202156067 0.08554087579250336 -0.31624674797058105 -0.5235314965248108 1.3872264623641968 0.2909835875034332 -0.3466961979866028 -1.327590823173523 0.042738933116197586 -0.4753412902355194 -1.939579963684082 -0.7272139191627502 -0.9640482664108276 -0.15094849467277527 -0.05465769022703171 0.2629230320453644 0.16740411520004272 -0.01637050323188305 -0.5765553116798401 -0.2557888329029083 0.355939656496048 0.43056291341781616 -0.2842378616333008 0.29975858330726624 0.27089062333106995 -0.5212516188621521 0.28001758456230164 -0.5564653277397156 0.03562112897634506 0.07509986311197281 -0.3729781210422516 -0.09117496758699417 0.2425418347120285 -0.33945590257644653 0.19173866510391235 0.32687464356422424 -0.8906565308570862 -0.9717938899993896 -0.7468308806419373 0.44766443967819214 -0.18935450911521912 -0.6697172522544861 -0.9845213294029236
tell -0.11709797382354736 -0.6149457097053528 -0.7411862015724182 -0.12072276324033737 -0.11669784039258957 -0.17965573072433472 0.7287855744361877 -0.5104193091392517 0.05163055285811424 -0.22751981019973755 -0.2926166355609894 1.111095905303955 -0.2813764810562134 0.044384825974702835 -0.9658110737800598 0.13969576358795166 -0.4693557024002075 -2.0522656440734863 -0.533219039440155 -1.5192278623580933 0.37899431586265564 0.5974382162094116 -0.32734301686286926 0.24731384217739105 -0.22196345031261444 -0.05146658420562744 -0.48625069856643677 -0.4127870500087738 -0.2493743747472763 -0.690789520740509 0.18232512474060059 0.3400386571884155 0.4063449203968048 0.28700780868530273 -0.386040598154068 -0.22407543659210205 0.5896929502487183 -0.6786386370658875 -0.2380390465259552 0.5137467980384827 0.11110248416662216 -0.05335385352373123 -0.3639768064022064 -1.1019505262374878 -0.8756737112998962 -1.0830187797546387 0.5080203413963318 0.4912510812282562 0.09378952533006668 -1.4735279083251953
as -0.09679874032735825 -0.31864359974861145 0.04480661451816559 0.23661182820796967 -0.01864815503358841 -0.49215787649154663 0.256098210811615 0.49743297696113586 -0.14987801015377045 0.16181005537509918 -0.035284705460071564 -0.12008853256702423 -0.06163449212908745 0.03594131022691727 -0.38705140352249146 -0.024919195100665092 0.31148824095726013 0.3867075443267822 -0.036165185272693634 0.1505238562822342 0.26715055108070374 0.14166299998760223 -0.432235985994339 0.07383467257022858 -0.410308301448822 -0.2887282967567444 -0.173538938164711 0.05463310331106186 0.1802123636007309 -0.44650083780288696 -0.3943038880825043 0.17325757443904877 0.1736343950033188 -0.1673804521560669 0.17588897049427032 0.10370822250843048 -0.9630588293075562 0.2570934593677521 -0.13777340948581696 -0.18130888044834137 0.00848640687763691 -0.06554342061281204 0.2389461100101471 0.12449538707733154 0.14720389246940613 -0.1929614096879959 -0.1215459555387497 0.1233866736292839 0.0011739656329154968 0.14999881386756897
he 0.14640028774738312 -0.18862472474575043 0.2488795816898346 -0.18974561989307404 -0.13032467663288116 -0.4638545513153076 0.09582889080047607 -0.30659064650535583 -0.5088382363319397 0.17148751020431519 -0.2926890254020691 -0.2147313803434372 -0.35870349407196045 -0.44474712014198303 -0.3690333962440491 0.15240779519081116 -0.08472990989685059 0.03980331867933273 -0.5129784345626831 0.3621980845928192 -0.19403789937496185 -0.017049191519618034 -0.3967035412788391 -0.30693215131759644 0.36223191022872925 0.024744970723986626 -0.13808801770210266 0.47949761152267456 -0.3310388922691345 -0.050905290991067886 0.45573127269744873 -0.2363899201154709 -0.3340000808238983 0.008723624981939793 -0.05979084223508835 0.043784938752651215 0.03880150243639946 0.10734275728464127 0.1396893560886383 -0.2073935568332672 0.018165476620197296 -0.5081852674484253 -0.18694941699504852 0.01065976545214653 -0.22594879567623138 0.12078189104795456 -0.5313079953193665 0.5726413726806641 -0.5872293710708618 -0.17706234753131866
more -0.009132101200520992 0.13868080079555511 0.2379515916109085 -0.028584197163581848 0.03543942794203758 -0.09344848990440369 -0.14437158405780792 -0.09603960067033768 0.4821634292602539 0.2898230254650116 -0.42532846331596375 0.08629448711872101 0.05514301732182503 -0.053457748144865036 0.3578350245952606 -0.07660627365112305 0.06212503835558891 -0.11969826370477676 0.46384376287460327 -0.08082564920186996 0.6261610984802246 0.07820042967796326 -0.10835599899291992 -0.1089138463139534 -0.4149397313594818 0.344734787940979 0.03412988781929016 -0.010272152721881866 -0.015793245285749435 -0.5741879940032959 -0.22069376707077026 -0.11576073616743088 0.22447064518928528 -0.2919900715351105 0.12263660877943039 0.09126819670200348 0.021661903709173203 -0.43971335887908936 0.09932383894920349 0.1483403593301773 0.22450082004070282 0.22518537938594818 -0.12726083397865295 0.013517186045646667 -0.17140236496925354 -0.10576122254133224 0.5649634599685669 -0.08415165543556213 0.25707411766052246 -0.14118745923042297
there -0.16759032011032104 -0.25930288434028625 0.18355268239974976 0.18940556049346924 -0.8349583148956299 -0.022595932707190514 0.29999837279319763 0.4013305604457855 -0.054279834032058716 0.33195772767066956 -0.16215640306472778 0.005506358575075865 -0.009599102661013603 -0.17293629050254822 0.140525221824646 -0.18782082200050354 -0.07769225537776947 -0.4815848469734192 -0.4912678897380829 0.2635324001312256 0.311206579208374 0.20089314877986908 -0.20388701558113098 -0.1288972645998001 -0.011450673453509808 -0.01746101677417755 -0.3141617774963379 -0.14947772026062012 -0.0334320105612278 0.06496872752904892 0.09314589202404022 0.21959182620048523 -0.11176423728466034 0.014375228434801102 -0.2932227849960327 -0.023484688252210617 0.08898156881332397 0.18728980422019958 0.03831750899553299 -0.08813119679689407 0.13548974692821503 0.33711594343185425 0.32798898220062256 0.2518584728240967 0.14470632374286652 0.11715272814035416 -0.1258147954940796 0.14387264847755432 -0.0603635236620903 0.16430439054965973
been 0.12824982404708862 -0.08738892525434494 0.665215790271759 -0.24728868901729584 -0.10772775113582611 0.12192200869321823 -0.10960844904184341 0.3075377643108368 -0.1028355062007904 -0.18695512413978577 -0.1022191271185875 -0.02129575051367283 -0.260174036026001 -0.10732186585664749 -0.06348483264446259 0.0595894455909729 0.04166156053543091 0.3541024327278137 -0.47886553406715393 -0.5546337962150574 -0.20896615087985992 -0.14640453457832336 -0.34063178300857544 0.3772488832473755 -0.03737777844071388 -0.1349184811115265 -0.3386256992816925 -0.40686532855033875 0.05996265262365341 -0.2030404806137085 0.25195226073265076 0.27543142437934875 -0.033043600618839264 0.03052198514342308 -0.16797201335430145 0.07482875883579254 -0.15007445216178894 -0.2360813319683075 0.3904687464237213 0.48569387197494507 0.24969731271266937 -0.2435566782951355 -0.3199363350868225 0.245173841714859 0.13706856966018677 -0.13838954269886017 -0.21098898351192474 0.3284873068332672 -0.03622766584157944 0.13008584082126617
about -0.3568692207336426 -0.10632554441690445 0.329648494720459 -0.24793390929698944 0.12028414011001587 -0.04434829577803612 0.17101378738880157 0.43545129895210266 -0.20494571328163147 -0.3995760381221771 0.14879445731639862 0.3661033511161804 -0.16276444494724274 0.14802445471286774 -0.23569795489311218 0.14020024240016937 0.11938020586967468 0.4924202859401703 -0.18696701526641846 -0.14655068516731262 0.059707168489694595 -0.3606501519680023 0.5936346650123596 0.003874601563438773 0.06561736017465591 -0.2528958022594452 0.06158532202243805 0.10829281061887741 -0.2343825399875641 0.1683143675327301 -0.5948135256767273 -0.214584082365036 0.2255702167749405 -0.2898392379283905 0.3505054712295532 -0.3730716109275818 -0.300808310508728 0.07252400368452072 -0.11963547766208649 -0.12297500669956207 0.18461142480373383 -0.021404150873422623 0.1667957454919815 0.0820990726351738 0.17929932475090027 0.028871573507785797 -0.32899171113967896 -0.12122166901826859 -0.23180492222309113 0.08813904970884323
could 0.4605402648448944 0.0742945596575737 -0.3173394501209259 -0.7842597961425781 0.5720051527023315 0.8107131123542786 0.9139131307601929 0.2618635594844818 -0.3853984773159027 -0.09117233008146286 0.8437162041664124 1.0089701414108276 -0.3057257831096649 0.36442941427230835 -0.5156824588775635 -0.2387804388999939 -0.7240781188011169 -1.8443912267684937 -0.43493354320526123 -1.1578437089920044 -0.3658599555492401 0.39607560634613037 0.17765192687511444 0.021751517429947853 0.2793057858943939 -0.2928147315979004 0.2108616679906845 -0.48938727378845215 -0.16380803287029266 -1.224938988685608 -0.19397248327732086 -0.051853008568286896 -0.4704630374908447 -0.015010857954621315 0.06272256374359131 0.1893911361694336 0.6590145230293274 -0.3366137444972992 -0.11786124110221863 0.49649474024772644 -0.19570545852184296 0.9255639910697937 0.329452246427536 -1.0944058895111084 -0.7689666748046875 -0.6530327796936035 0.9587029814720154 -0.22878943383693695 0.19469115138053894 -1.1590508222579956
away 0.7141427993774414 0.4694274067878723 -1.1562994718551636 0.25761547684669495 -0.8081074357032776 1.0241577625274658 -0.45286911725997925 -0.09170979261398315 -0.16973400115966797 0.5463606119155884 -0.16717888414859772 1.1637614965438843 -0.2762135863304138 -0.3885963261127472 -0.09557753056287766 0.33036914467811584 -0.388865202665329 -1.566248893737793 0.3543912172317505 -0.6171162128448486 -0.38128289580345154 -0.3920922577381134 0.84856116771698 -0.02913680300116539 0.4493488669395447 0.15634766221046448 0.30721041560173035 -0.20686735212802887 0.8098934888839722 -2.036558151245117 1.241628885269165 0.2565184533596039 0.19668538868427277 0.08833976089954376 -0.4219796061515808 0.5059768557548523 0.19241243600845337 -0.32959213852882385 0.5381737351417542 1.2816798686981201 -0.28672629594802856 0.5496515035629272 -0.7271963357925415 -0.11550744622945786 -0.30037274956703186 -1.039110541343689 1.468557596206665 -0.08925866335630417 -0.21608400344848633 -1.642851710319519
give 0.49377140402793884 0.7865910530090332 -0.2481822669506073 -0.08080406486988068 0.25727519392967224 0.6539014577865601 0.6031604409217834 0.3219853937625885 -0.31183046102523804 -0.32922062277793884 -0.42202839255332947 1.0321264266967773 0.22997137904167175 0.24173638224601746 -1.18490731716156 0.4859922230243683 -0.7836490869522095 -1.419417381286621 -0.4502919316291809 -1.1542251110076904 -0.06453344225883484 -0.356485515832901 0.08476163446903229 0.6042013764381409 0.32772478461265564 -0.32524922490119934 -0.4397391080856323 0.3514036536216736 0.16308094561100006 -0.5711731314659119 0.1902264803647995 -0.13283875584602356 -0.2350713461637497 0.34683048725128174 0.11360923200845718 -0.7322366237640381 0.11337045580148697 -1.0804071426391602 0.14170095324516296 -0.019520951434969902 -1.013339638710022 0.0749899372458458 -0.1896980255842209 -0.8497228622436523 -0.7310422658920288 -0.7254706025123596 1.2892078161239624 -0.8747479915618896 -0.3895016610622406 -1.4827016592025757
night 0.5943934917449951 0.7082395553588867 -1.1110050678253174 0.04886724799871445 -0.06066408008337021 -0.7523068189620972 -0.8670561909675598 0.33176901936531067 -0.010988217778503895 -0.2217644900083542 -0.02218281850218773 1.2252283096313477 1.34713613986969 -0.3193289637565613 -0.18502618372440338 0.7460792660713196 -0.9773970246315002 -1.2921769618988037 0.16654805839061737 -1.2755398750305176 0.8653548359870911 0.19922296702861786 0.2790868580341339 0.07083067297935486 -0.9362578988075256 -0.12900620698928833 0.5421004891395569 0.10663922131061554 -0.8109819889068604 -0.3202720284461975 -0.3263421952724457 -0.7214013934135437 -0.6174488067626953 -0.3043876588344574 0.1406979262828827 0.4746440649032593 0.5292122960090637 0.4975989758968353 0.6424483060836792 1.14024019241333 -0.2799122631549835 0.5881569981575012 -0.1241544634103775 -0.7619739770889282 -0.46652865409851074 -0.7069602012634277 0.9062483906745911 0.4217680096626282 0.6587338447570801 -1.7650667428970337
well 0.7742690443992615 -0.2814365327358246 -1.0013024806976318 0.13987621665000916 0.22130024433135986 0.16489975154399872 -0.4625445306301117 -0.5502719879150391 0.12384253740310669 0.1907588541507721 -0.10583505034446716 0.8661884665489197 -0.4171585738658905 0.48109519481658936 -0.9115488529205322 0.5645851492881775 -0.4641845226287842 -1.7290860414505005 -0.17381945252418518 -0.8192546367645264 0.4701552987098694 0.10984548926353455 0.058214087039232254 0.6854615211486816 0.33212292194366455 -0.13036470115184784 0.06304439157247543 0.18456384539604187 -0.26746049523353577 -0.3145918548107147 -0.16657891869544983 -0.5018883943557739 0.22394254803657532 0.8192657232284546 0.2995489537715912 0.30243250727653503 0.1069926768541336 0.11514140665531158 -0.4098142087459564 0.3531757891178131 -0.4365684390068054 0.6015196442604065 -0.015423143282532692 -0.5699263215065002 -0.6688076257705688 -0.8814999461174011 0.61649090051651 0.706452488899231 -0.24777168035507202 -1.388301968574524
keep -0.07429519295692444 -0.5990965366363525 -1.0650383234024048 0.6818079948425293 0.01986805535852909 0.14345340430736542 0.059159670025110245 -0.6274168491363525 -0.21216700971126556 -0.8317127227783203 -0.8816538453102112 1.5936379432678223 -0.10959689319133759 -0.24684597551822662 0.13437065482139587 0.0825866088271141 -0.8180899024009705 -1.3413193225860596 0.5398416519165039 -0.3435303270816803 -0.2920994460582733 -0.9798939824104309 -0.34580570459365845 -0.1952955722808838 -0.6714385747909546 -0.2836078703403473 0.5742346048355103 0.6697197556495667 -0.0938088670372963 0.53363037109375 -0.4755186140537262 0.22109255194664001 0.5158882737159729 -0.3805769979953766 -0.8168777823448181 -0.05575381964445114 1.2451207637786865 -0.42758846282958984 0.07854453474283218 0.38030076026916504 0.1875942349433899 0.11756192147731781 0.2967747151851654 0.07976864278316498 -1.4962011575698853 -0.7424488067626953 1.1466658115386963 -0.054260533303022385 -0.3060374855995178 -1.8815481662750244
think 0.34280821681022644 0.32862234115600586 -1.108158826828003 0.3671720325946808 0.8039014935493469 -0.276665598154068 0.4025147259235382 -0.5667077898979187 -0.7280580997467041 0.3132469058036804 0.3631927967071533 0.3693799376487732 0.2973853647708893 -0.0005619020666927099 -0.7899667620658875 0.054273419082164764 -0.8019448518753052 -1.7773562669754028 -0.5858628749847412 -1.008477807044983 -0.38403886556625366 0.5630629658699036 -0.10084384679794312 0.13167127966880798 -0.06046254560351372 0.0229365061968565 -0.005737269297242165 -0.2712610363960266 0.21165868639945984 -0.6843346357345581 0.46490925550460815 -0.13873255252838135 0.7883167862892151 0.2940160930156708 -0.05480900779366493 0.16254091262817383 0.20416179299354553 -0.43105190992355347 -0.6744434237480164 0.2432871013879776 0.31527113914489746 0.45692792534828186 0.11983692646026611 -0.8069514632225037 -0.7624271512031555 -0.6852579712867737 0.058426789939403534 -0.14882344007492065 0.07037283480167389 -1.8206599950790405
heart 0.4328709542751312 1.0515854358673096 -1.0305869579315186 -0.757956326007843 0.20249994099140167 -0.11052415519952774 0.742231547832489 -0.16679327189922333 0.16884605586528778 0.4501667320728302 0.4078565537929535 1.8361077308654785 -0.34522175788879395 -0.4415343403816223 -0.2373085469007492 -0.6309735178947449 0.5347610712051392 -1.6410126686096191 0.21919909119606018 -1.200577735900879 0.3476276695728302 -0.7337609529495239 0.4773657023906708 -0.07367242872714996 -0.5121995210647583 -0.11315331608057022 0.5223610997200012 0.1499367207288742 0.40033769607543945 -0.6545066237449646 0.13717257976531982 0.3369363248348236 0.23387566208839417 -0.16065804660320282 -0.060121648013591766 -0.6246181130409241 -0.7252476215362549 -0.18889370560646057 0.7079282402992249 -0.3431450128555298 -0.34388893842697144 0.7395369410514832 -0.03020191751420498 -0.4485095739364624 -1.0641329288482666 -0.36905255913734436 1.3040887117385864 0.9729277491569519 0.3905274569988251 -1.100869059562683
where 0.5892374515533447 0.579854428768158 -0.2817050814628601 -0.1146862730383873 -0.03611677512526512 -0.4271925985813141 0.14339406788349152 -0.023946907371282578 -0.2640479505062103 0.03266998380422592 0.1833754926919937 0.2082262635231018 0.05358939990401268 0.04733186215162277 -0.06412701308727264 0.189604252576828 0.35524964332580566 -0.6110984086990356 0.30599942803382874 -0.2771124243736267 0.32949092984199524 -0.07818081229925156 -0.2777312695980072 0.45733609795570374 0.07749076187610626 -0.1469222605228424 0.3360484540462494 -0.0042362455278635025 0.11160335689783096 0.3237559199333191 -0.252333402633667 -0.3178557753562927 0.2599107027053833 -0.7080459594726562 0.017839543521404266 -0.3779452443122864 0.2679938077926636 0.21424761414527893 -0.09707772731781006 0.48979249596595764 0.011247162707149982 0.4296504557132721 0.0330146886408329 0.17832273244857788 -0.0133408447727561 -0.34305810928344727 0.1724901795387268 0.2349286675453186 -0.08429425209760666 -0.029319316148757935
man -0.5109700560569763 0.04593690484762192 -0.015507422387599945 0.2808074653148651 -0.15207941830158234 -0.13999998569488525 0.04892074689269066 -0.2649746239185333 0.2506105303764343 -0.4824994206428528 0.41913479566574097 0.23199717700481415 0.23441937565803528 0.2346753031015396 0.14186200499534607 -0.05081271007657051 0.22565877437591553 -0.24215790629386902 -0.26239699125289917 -0.12311725318431854 0.00524452468380332 0.158403679728508 -0.2871602773666382 0.5305652022361755 0.14410388469696045 0.12669198215007782 -0.01566632278263569 -0.3299916982650757 0.26195529103279114 0.3400166928768158 -0.06165776401758194 0.08947880566120148 -0.013634604401886463 0.3018677234649658 0.24982072412967682 0.4086076021194458 -0.24617981910705566 -0.2155430018901825 0.25151029229164124 0.2439832240343094 -0.1505327820777893 0.14561785757541656 -0.3960567116737366 -0.33160436153411865 -0.09695498645305634 -0.0922684371471405 -0.5619710683822632 0.05739010125398636 -0.29788851737976074 -0.05409987270832062
good -0.054704081267118454 -0.2471074014902115 0.02111613005399704 0.4833357334136963 -0.12990565598011017 0.037905506789684296 -0.43139004707336426 0.6793601512908936 0.24178002774715424 0.23182007670402527 -0.012764457613229752 1.3821126222610474 -0.8935242295265198 0.6424397826194763 -1.2611701488494873 0.30292215943336487 -0.6384995579719543 -1.4679205417633057 0.33896127343177795 -1.5216569900512695 -0.6412308812141418 -0.19416116178035736 -0.08791446685791016 0.09852167218923569 -0.15523365139961243 0.34411555528640747 0.33238089084625244 -0.20832140743732452 0.0051264031790196896 -0.2995741367340088 -1.2475589513778687 -0.2894083559513092 -0.2343721240758896 0.8992308378219604 0.0780680701136589 0.1545695811510086 0.20843298733234406 -0.2695176303386688 0.5689899921417236 -0.49980971217155457 0.509596586227417 0.12183059006929398 0.25515472888946533 -0.6156273484230042 -1.4567588567733765 -1.132178544998169 0.05429951846599579 -0.6074767708778381 0.1396750509738922 -1.377475619316101
then -0.12787365913391113 -0.18495647609233856 -0.06841249763965607 -0.2087218314409256 0.013090623542666435 0.36713525652885437 0.31647002696990967 0.20344200730323792 -0.0998181477189064 0.34810498356819153 0.15072160959243774 -0.1814083755016327 0.48352646827697754 0.13051146268844604 -0.028003878891468048 -0.12252108007669449 -0.29292622208595276 0.024506153538823128 0.3017162084579468 0.15438640117645264 -0.037167027592659 0.33663037419319153 -0.0692657008767128 0.20288406312465668 -0.07374196499586105 0.1443006694316864 0.002449213759973645 0.4081568717956543 -0.027694113552570343 0.45254743099212646 0.14816096425056458 0.26022785902023315 0.11767052859067917 -0.11436496675014496 -0.2023392915725708 -0.02642497792840004 0.1864248514175415 0.8149428963661194 -0.2644946873188019 -0.2562553584575653 0.13926558196544647 -0.13193489611148834 0.17466677725315094 0.24367472529411316 0.2496308535337448 0.31208670139312744 -0.042329296469688416 -0.3583119213581085 0.3042011260986328 -0.16249415278434753
too 0.38126304745674133 0.4406510889530182 0.07700971513986588 0.19394685328006744 0.31103959679603577 -0.10197620093822479 0.20620667934417725 0.29953402280807495 -0.460463285446167 -0.18840661644935608 0.34316208958625793 0.221879780292511 -0.38760873675346375 0.2726263403892517 -0.025809921324253082 -0.431755930185318 -0.07743929326534271 -0.21773791313171387 -0.09960073977708817 0.1539909392595291 0.11862502992153168 -0.25469735264778137 -0.09349197894334793 0.3704323172569275 0.38290151953697205 -0.21236124634742737 -0.22895468771457672 0.04062304645776749 0.3325377404689789 -0.4106496572494507 -0.053998831659555435 0.11921872198581696 -0.08958464860916138 -0.2254939079284668 -0.12081640213727951 -0.784824013710022 0.26794612407684326 -0.24154511094093323 -0.00039873202331364155 0.4127627909183502 0.1276129186153412 0.05223356559872627 -0.07987669110298157 -0.32037848234176636 -0.15060128271579742 -0.05191972106695175 -0.26161718368530273 0.11877037584781647 0.1703411340713501 -0.43974676728248596
some -0.4395458400249481 -0.454959511756897 -0.16863428056240082 0.15411239862442017 0.12117825448513031 0.08699172735214233 -0.041656993329524994 0.04218341410160065 0.6908847689628601 -0.14870736002922058 0.255593478679657 0.11284689605236053 -0.21712444722652435 0.1586826890707016 0.3107853829860687 -0.2644333243370056 0.11097349226474762 -0.15804226696491241 0.11933188140392303 0.028538472950458527 -0.1345064491033554 -0.3774844706058502 0.14773929119110107 -0.024197351187467575 -0.5668448805809021 -0.15640810132026672 -0.14971914887428284 0.28379175066947937 0.08591972291469574 0.06188501417636871 -0.24612686038017273 0.22676363587379456 -0.10811630636453629 0.3613085150718689 0.07539824396371841 0.19593073427677155 0.2722609043121338 -0.14673946797847748 -0.4240416884422302 0.0991949513554573 0.17027461528778076 0.586036741733551 -0.34789374470710754 -0.24689902365207672 0.3906705677509308 -0.03423299640417099 0.0213319119066 0.3242782652378082 -0.34947469830513 -0.04380563646554947
