you 0.1144586056470871 0.3917805850505829 -0.3644046187400818 -0.19869211316108704 -0.2436884641647339 -0.09941638261079788 0.36052364110946655 -0.27467599511146545 0.23841679096221924 0.24807865917682648 -0.21919596195220947 -0.1581098586320877 -0.03179773688316345 -0.4792128801345825 -0.4595614969730377 0.1617887020111084 0.09721335768699646 -0.05098402127623558 0.27518436312675476 0.15972310304641724 -0.04147674888372421 -0.2398422360420227 -0.203948974609375 0.2004082053899765 0.011576967313885689 0.13264526426792145 0.3880446255207062 0.3286969065666199 0.1640990674495697 0.21708323061466217 -0.050976693630218506 -0.10899047553539276 0.48723116517066956 0.107293501496315 -0.18368224799633026 0.19673514366149902 0.32160550355911255 0.14080916345119476 -0.3347928524017334 -0.13994820415973663 -0.4832538366317749 0.7773715257644653 0.045171529054641724 -0.07180928438901901 -0.13146404922008514 -0.08438852429389954 0.259216845035553 0.23914648592472076 0.10649727284908295 0.3437228500843048
the 0.2229917347431183 -0.04898786172270775 0.46151402592658997 -0.4845713973045349 0.0239199697971344 -0.040247589349746704 -0.015204017050564289 -0.5463497638702393 -0.2470422089099884 -0.00838004145771265 0.1694822460412979 0.33586156368255615 -0.24346934258937836 0.22901131212711334 0.32495585083961487 0.05524463951587677 0.2829567492008209 0.19467344880104065 -0.16394472122192383 0.19133110344409943 -0.0006637548794969916 0.19809752702713013 0.10361925512552261 0.16397951543331146 0.05381590500473976 -0.24585987627506256 -0.34561464190483093 0.5600218176841736 -0.3126980662345886 0.24636027216911316 0.1550147533416748 0.5073655247688293 -0.1056385487318039 0.04931894689798355 -0.46996521949768066 -0.009253772906959057 -0.01130924466997385 -0.16338872909545898 0.35882243514060974 -0.15807202458381653 -0.016069676727056503 0.20108221471309662 -0.3183084726333618 -0.017577020451426506 -0.14751452207565308 0.012453385628759861 -0.26002511382102966 0.2023773342370987 0.2627570629119873 -0.31387874484062195
i -0.04342631250619888 0.12374196946620941 0.04799814894795418 0.12084151059389114 0.03110749088227749 -0.5424886345863342 0.08063111454248428 0.1170644760131836 -0.29740601778030396 0.17464043200016022 -0.09980184584856033 -0.007911293767392635 -0.09011777490377426 0.13691048324108124 -0.00647295918315649 -0.3228839337825775 0.16107244789600372 -0.28244203329086304 -0.11073866486549377 -0.23266160488128662 -0.05519995093345642 0.2207358181476593 0.2586676776409149 0.28704509139060974 -0.19092409312725067 -0.3058745563030243 0.005770302377641201 0.15857656300067902 -0.030512940138578415 -0.12273017317056656 0.2901766300201416 0.20909976959228516 -0.2587580382823944 0.29050731658935547 -0.1358753740787506 0.5844875574111938 0.2318192422389984 0.0221076812595129 0.40130898356437683 -0.16739997267723083 -0.09093339741230011 0.5444716215133667 -0.25957199931144714 -0.10998961329460144 0.055817749351263046 0.5048608779907227 -0.37973108887672424 0.018386879935860634 -0.4939519166946411 0.35649365186691284
to 0.41789573431015015 0.20923283696174622 0.29814812541007996 -0.05040203407406807 -0.010349336080253124 0.04944799095392227 -0.01946941390633583 0.013524183072149754 -0.07335260510444641 0.12296878546476364 0.025004049763083458 0.1987290382385254 0.595198392868042 0.19852972030639648 0.27094796299934387 0.49940916895866394 0.021862294524908066 0.3360539376735687 0.07747091352939606 -0.05180659890174866 -0.13339215517044067 0.26205945014953613 -0.010350784286856651 -0.19800949096679688 -0.25132760405540466 0.23418167233467102 -0.07006251066923141 0.08043769001960754 0.16130174696445465 -0.364326536655426 -0.20102114975452423 0.03404069319367409 0.07864485681056976 -0.1569484919309616 0.09442120790481567 0.21968461573123932 -0.09314355254173279 0.17495504021644592 -0.21557775139808655 -0.4303990304470062 -0.04676120728254318 0.11818380653858185 0.19485631585121155 -0.008343080058693886 0.1904955953359604 0.004050592426210642 -0.37227943539619446 0.16613206267356873 -0.40677109360694885 -0.5761021375656128
and -0.02192242257297039 0.2034081220626831 -0.10174999386072159 0.08882557600736618 -0.03734315559267998 -0.09741325676441193 -0.4385770559310913 0.3590276837348938 -0.4037541151046753 -0.6349257230758667 0.10444065183401108 0.45300015807151794 -0.15157830715179443 0.16735221445560455 0.012626232579350471 -0.12225396931171417 0.08397562056779861 0.02152104116976261 0.06181945279240608 -0.5595938563346863 -0.0011822227388620377 -0.3189111649990082 -0.02773025631904602 -0.3653935194015503 0.060986556112766266 0.06793760508298874 -0.061696406453847885 -0.26456019282341003 0.2149372696876526 -0.060319818556308746 0.0015453101368620992 0.32684504985809326 0.31608936190605164 0.2578241229057312 -0.22256852686405182 0.24351130425930023 0.4501805603504181 0.03957061469554901 0.3028315603733063 0.4037167429924011 -0.020311100408434868 -0.3443490266799927 0.12353559583425522 -0.21618612110614777 -0.11886575073003769 -0.04526034742593765 0.5227572917938232 0.3832341432571411 0.5352388620376587 0.12477684020996094
a 0.14980781078338623 0.4604400098323822 0.01166743878275156 0.2217279076576233 -0.0027793303597718477 0.050006214529275894 -0.27557024359703064 -0.512677013874054 -0.21764792501926422 0.0032878031488507986 -0.04086048901081085 -0.3611364960670471 0.27284228801727295 -0.39146414399147034 -0.05964260548353195 0.09956574440002441 -0.08591508865356445 -0.4136555790901184 -0.2012632191181183 0.4697381556034088 -0.000934953975956887 0.08896151930093765 -0.21928955614566803 0.23905734717845917 -0.1728948950767517 0.07314342260360718 -0.0038302491884678602 -0.7555436491966248 0.27220895886421204 -0.16113151609897614 0.2959873676300049 0.3173980712890625 -0.08341913670301437 -0.017394626513123512 -0.08577589690685272 0.052005231380462646 -0.6769970655441284 0.06351231038570404 0.5592646598815918 0.15445734560489655 0.010873276740312576 0.10784953832626343 -0.007157598156481981 0.38762715458869934 -0.0800953209400177 0.020651038736104965 -0.33435317873954773 0.08034082502126694 -0.27488869428634644 -0.3301204741001129
me 0.2471698820590973 0.09385025501251221 0.35956862568855286 -0.150965616106987 0.15048635005950928 -0.12206321954727173 0.3555493950843811 0.4014471769332886 0.10974650830030441 0.32845404744148254 -0.3220690190792084 0.29575514793395996 0.19556865096092224 0.030132591724395752 0.018937930464744568 0.34810736775398254 0.24247890710830688 -0.03060312569141388 0.2942626476287842 0.47289153933525085 0.3994855582714081 -0.0336056612432003 -0.04204617813229561 -0.3420693278312683 -0.2115083783864975 0.05283394083380699 -0.21873213350772858 0.5610489845275879 0.44832366704940796 0.048882078379392624 -0.19178757071495056 0.2975928783416748 -0.12061582505702972 -0.21469098329544067 0.11037985980510712 0.19944913685321808 -0.33913126587867737 0.04065785929560661 -0.0977487862110138 -0.008610679768025875 -0.41320574283599854 0.4080284833908081 -0.18245097994804382 -0.0666673481464386 0.07676494121551514 0.02419815957546234 0.356406569480896 -0.15828388929367065 -0.799311637878418 -0.4089890420436859
my 0.17168520390987396 0.24377377331256866 0.2589367926120758 -0.27210676670074463 0.38967862725257874 0.17065808176994324 -0.034785959869623184 -0.24668826162815094 -0.2544201612472534 -0.10899043083190918 0.04791479557752609 -0.1185067743062973 0.6889259815216064 -0.04646674543619156 -0.09954403340816498 0.8282626867294312 -0.3198893666267395 -0.444463312625885 0.0675579234957695 0.0020533089991658926 -0.0806499719619751 -0.5199453234672546 -0.02684352733194828 -0.05267513915896416 -0.06839244067668915 0.10257194191217422 0.07393123209476471 0.04426952451467514 -0.18504400551319122 0.29943135380744934 0.16180044412612915 -0.020841578021645546 -0.011436733417212963 -0.1581028699874878 -0.1348777860403061 -0.13939663767814636 0.19028902053833008 -0.04864928871393204 -0.22463205456733704 -0.0306226909160614 0.31209704279899597 -0.09210722148418427 0.21369023621082306 -0.17497840523719788 0.4291258156299591 -0.07518515735864639 -0.1606857180595398 0.0596260130405426 -0.35122397541999817 -0.16534069180488586
it 0.03098859265446663 0.4231160581111908 0.178434818983078 -0.5993302464485168 -0.03718702495098114 0.1657184660434723 0.436035692691803 0.06467607617378235 0.05005911365151405 -0.13104012608528137 -0.3441551923751831 -0.5082745552062988 0.26796215772628784 0.4301914870738983 -0.026876216754317284 0.0995435044169426 0.04525606706738472 -0.02589586190879345 -0.06157800182700157 0.03186265379190445 0.10496512055397034 -0.5018148422241211 0.27209046483039856 0.21682782471179962 0.02088567428290844 0.23828142881393433 0.1795167177915573 -0.3184453547000885 -0.09514793008565903 0.17843174934387207 -0.09666752815246582 -0.08331701159477234 -0.07307419180870056 -0.13458719849586487 -0.10653860867023468 0.22310982644557953 -0.2989000380039215 -0.08484385162591934 0.04740110784769058 0.28298112750053406 -0.39132314920425415 -0.3545515537261963 0.5645758509635925 -0.09116008877754211 -0.02603301964700222 -0.04607091099023819 0.24819038808345795 0.14800675213336945 -0.11883143335580826 -0.22315749526023865
in -0.0837491825222969 -0.5277714729309082 0.3230900168418884 0.3301687240600586 -0.36534005403518677 0.1543969362974167 -0.17917248606681824 -0.008967746049165726 0.18579286336898804 0.8341953158378601 0.10574400424957275 -0.38320624828338623 0.5489341616630554 0.12034731358289719 -0.020225683227181435 -0.2215603142976761 0.2147318571805954 -0.5815994143486023 0.13690069317817688 0.09289960563182831 -0.13196979463100433 -0.03295992687344551 -0.5069379806518555 0.05734645202755928 0.026526130735874176 0.04939218983054161 -0.0537017323076725 0.07648659497499466 -0.3008633852005005 0.020323926582932472 0.601343035697937 -0.551045835018158 -0.19379721581935883 0.05275179445743561 0.08448135107755661 0.18841594457626343 0.46322470903396606 -0.26966214179992676 0.3072144687175751 0.09419982880353928 0.28970977663993835 -0.18849168717861176 0.14902137219905853 0.4904802441596985 -0.30571720004081726 0.044939592480659485 0.16114749014377594 0.3303530216217041 0.01971999742090702 0.5804190635681152
on -0.33450478315353394 0.1910226196050644 -0.06343422830104828 -0.3215551972389221 -0.041865624487400055 -0.4010602831840515 0.26376304030418396 -0.16349267959594727 -0.10087386518716812 0.13947951793670654 -0.5644286870956421 0.17995481193065643 0.5302451252937317 0.09955406934022903 0.4498744308948517 -0.3039145767688751 -0.14283113181591034 -0.16249485313892365 -0.1369069516658783 0.05205055698752403 0.04208755120635033 0.0011558918049558997 0.2553580403327942 -0.4583776295185089 0.3329032063484192 -0.0063556768000125885 0.006408888380974531 -0.17618496716022491 -0.14620204269886017 0.15338881313800812 -0.07380012422800064 -0.07685282826423645 -0.29439201951026917 0.403809130191803 -0.227653369307518 0.33991146087646484 0.013361843302845955 -0.04971162602305412 -0.14431262016296387 -0.2333107739686966 0.2446029931306839 0.47070935368537903 -0.48238295316696167 -0.3041417598724365 -0.08189333975315094 -0.3828030228614807 -0.10943172872066498 -0.19660301506519318 -0.0031088769901543856 0.5637862086296082
that -0.14126695692539215 -0.01604175567626953 -0.1267569661140442 -0.07266268134117126 0.3350505232810974 0.5199530720710754 0.12785686552524567 -0.3082062900066376 -0.18840281665325165 -0.11020893603563309 0.2034441977739334 0.6660545468330383 0.062014125287532806 -0.06137257441878319 0.06676595658063889 0.09475405514240265 -0.18472109735012054 -0.14082899689674377 -0.08539798110723495 0.4037424623966217 -0.134745791554451 -0.1814405471086502 -0.06845210492610931 0.3246271312236786 0.2997641861438751 0.13487963378429413 -0.15471984446048737 0.17269815504550934 0.19774173200130463 0.17975693941116333 -0.0768560990691185 -0.22847966849803925 0.43056443333625793 -0.14659318327903748 0.18074046075344086 -0.0324481800198555 0.02570061944425106 -0.04137282073497772 -0.12222977727651596 0.06318984925746918 -0.18225812911987305 -0.22303971648216248 -0.07835715264081955 -0.0397106297314167 0.028708210214972496 -0.22624580562114716 0.15124502778053284 -0.2185027152299881 -0.2948331832885742 0.10758712142705917
your 0.17817138135433197 -0.04692846164107323 0.11588795483112335 -0.08712015300989151 -0.09155791997909546 0.21114589273929596 -0.1521013379096985 0.08429604768753052 0.06126990169286728 0.3257794976234436 0.17558233439922333 -0.3908001482486725 0.10619527846574783 -0.13583773374557495 0.06667865067720413 -0.14967653155326843 -0.30475306510925293 0.46320289373397827 -0.11074856668710709 -0.024519644677639008 -0.06511839479207993 -0.41081660985946655 0.1227671205997467 0.128273144364357 -0.04332427307963371 -0.1904057264328003 -0.3854164779186249 -0.40693336725234985 -0.2322075515985489 -0.27883610129356384 0.12306206673383713 -0.32666704058647156 0.09779255837202072 0.12691359221935272 -0.3011403977870941 -0.35586172342300415 -0.03870810940861702 -0.04150373488664627 0.059212300926446915 -0.04445081949234009 -0.08910078555345535 -0.6038755178451538 -0.09235045313835144 0.3189139664173126 -0.3606792986392975 -0.016256816685199738 0.20582807064056396 0.2618059515953064 -0.09225217998027802 0.3947421908378601
of 0.049991924315690994 0.810375988483429 -0.01659703068435192 -0.24158836901187897 0.2629348039627075 -0.4452381134033203 -0.014793562702834606 -0.18389782309532166 0.5603519678115845 0.059558674693107605 -0.09196357429027557 -0.09494253247976303 -0.11457029730081558 -0.3730282783508301 -0.1034848764538765 0.5680603384971619 0.3436582386493683 -0.1750933676958084 0.18814295530319214 -0.5231270790100098 0.0719841718673706 0.0838177353143692 0.01313069462776184 -0.09820400178432465 0.2404858022928238 -0.15588705241680145 0.21248236298561096 0.26989883184432983 -0.27929094433784485 -0.09352325648069382 0.10081854462623596 0.22740095853805542 -0.17614905536174774 0.18524447083473206 0.3130243420600891 0.36480712890625 0.16885362565517426 0.32910776138305664 -0.0746040865778923 0.27442389726638794 -0.14468368887901306 -0.12857508659362793 -0.03940734267234802 -0.006635099183768034 0.3310541808605194 -0.6052483320236206 0.43909287452697754 -0.054443176835775375 0.3786916434764862 -0.39625459909439087
all -0.08944746106863022 -0.1572190821170807 -0.08546125888824463 -0.22234176099300385 0.08193119615316391 -0.037993695586919785 0.13450808823108673 -0.10031573474407196 0.09008241444826126 -0.05698317661881447 -0.15514390170574188 0.032351844012737274 0.28840649127960205 0.268012672662735 -0.39824989438056946 -0.033633895218372345 0.01391654834151268 -0.02958006225526333 -0.20640793442726135 -0.024709327146410942 0.05121353268623352 -0.03247351571917534 -0.2353796362876892 -0.08554941415786743 0.002452313667163253 0.3472787141799927 -0.30113670229911804 -0.31240329146385193 0.03693957254290581 -0.45985138416290283 0.16402161121368408 -0.2038673311471939 0.19892899692058563 0.23926420509815216 0.40916845202445984 -0.04193388298153877 -0.3616602420806885 -0.35514071583747864 -0.2824661135673523 0.08637198805809021 0.06837636232376099 -0.20086254179477692 0.03201642259955406 0.03938068449497223 -0.10887154191732407 -0.24210019409656525 -0.37182891368865967 -0.14862024784088135 0.00373795791529119 -0.7663354277610779
be -0.5344381332397461 0.1395145058631897 0.15893137454986572 -0.14934112131595612 -0.2955307960510254 0.16100573539733887 -0.11966776102781296 -0.18604332208633423 0.22362974286079407 -0.009847283363342285 0.17177346348762512 0.4364313781261444 -0.5642961263656616 0.24678578972816467 -0.4047824442386627 0.7556158900260925 -0.16377775371074677 -0.09400926530361176 0.1409522294998169 0.3064415454864502 -0.21086908876895905 -0.457194060087204 0.28379949927330017 0.10924194753170013 0.17645451426506042 0.11228162050247192 0.15489381551742554 0.3403833210468292 0.23895394802093506 0.23488809168338776 0.21734756231307983 -0.14514432847499847 -0.12398571521043777 -0.19013527035713196 -0.08336673676967621 0.06317821145057678 0.14441607892513275 0.2432265430688858 0.22746986150741577 -0.15702441334724426 -0.1580875664949417 -0.19828638434410095 -0.0439031645655632 -0.062083013355731964 -0.011765110306441784 0.07820852100849152 -0.31332018971443176 0.05564908683300018 0.13058866560459137 0.08900798857212067
we 0.03988900035619736 -0.5771434307098389 0.3760926127433777 0.14511209726333618 -0.34445855021476746 0.22228124737739563 -0.11330004036426544 0.12936218082904816 -0.11319049447774887 0.1492827981710434 0.27198415994644165 0.07059434801340103 -0.053782302886247635 -0.0020717137958854437 -0.06524144858121872 -0.43095722794532776 0.5448866486549377 -0.018669547513127327 -0.046590011566877365 -0.2966957092285156 0.24450600147247314 -0.16260290145874023 0.28117215633392334 0.08585380017757416 0.025373417884111404 -0.0041624014265835285 0.044454172253608704 -0.007996457628905773 0.05932360514998436 0.1505388468503952 0.08965705335140228 -0.467550665140152 -0.12322137504816055 -0.11179576069116592 0.019830822944641113 0.025133805349469185 0.2646605670452118 -0.045403093099594116 -0.00893473532050848 0.158821702003479 -0.10595451295375824 0.3691098690032959 -0.16133779287338257 -0.13979372382164001 -0.3676791191101074 -0.48889803886413574 0.16844400763511658 -0.03429194912314415 0.227854385972023 -0.35310736298561096
is 0.17211130261421204 -0.050043556839227676 0.012930096127092838 0.084339439868927 0.23345042765140533 0.047418683767318726 0.09285321831703186 0.034951698035001755 -0.12600865960121155 0.10961519926786423 -0.40910956263542175 0.05485336855053902 -0.0561407208442688 0.009222541004419327 -0.319516658782959 0.17112404108047485 0.04022979363799095 0.40536245703697205 -0.031024236232042313 0.1643378585577011 0.042834870517253876 -0.2362542450428009 -0.5015805959701538 0.02093091979622841 -0.4698103070259094 -0.1710139364004135 -0.32869672775268555 -0.013503593392670155 0.29083338379859924 -0.01559767872095108 -0.4009014964103699 0.05664204806089401 -0.07106708735227585 -0.07318302989006042 -0.31578972935676575 0.3486652076244354 0.41578933596611023 -0.17776133120059967 0.21848368644714355 0.13642627000808716 -0.41929030418395996 -0.30958741903305054 0.08609695732593536 0.12321208417415619 0.02421647310256958 -0.6186996698379517 0.5967236161231995 0.1628117859363556 0.2271297127008438 -0.04321730509400368
for 0.09696505963802338 -0.3734167516231537 0.1487145572900772 -0.14892689883708954 0.023719171062111855 0.23768581449985504 0.005440519656985998 -0.28724491596221924 -0.08651969581842422 -0.0641036331653595 0.4653230905532837 -0.3950634002685547 -0.3272634744644165 -0.10959368944168091 0.6484895348548889 -0.1161060631275177 0.002424209611490369 -0.11917278170585632 -0.1496914178133011 0.08889337629079819 0.03932301327586174 0.3814515173435211 -0.212157741189003 0.5247147679328918 0.01261131837964058 -0.09272129088640213 0.42315179109573364 0.1686754673719406 -0.18883903324604034 0.023910535499453545 0.1460355669260025 0.06101767346262932 -0.10668505728244781 0.09748756140470505 -0.029385387897491455 0.10805529356002808 0.1286148875951767 0.2697383463382721 -0.08965948969125748 -0.19212879240512848 0.174887552857399 -0.3979455232620239 -0.5321341156959534 -0.05518682673573494 -0.08899032324552536 -0.029203616082668304 0.11223592609167099 -0.16861756145954132 -0.726826012134552 -0.1501617282629013
like 0.2933168113231659 0.4195796549320221 -0.8207456469535828 -0.830510675907135 0.4778783917427063 -0.15860679745674133 -0.4912571907043457 1.1224228143692017 -0.6286616921424866 0.21469026803970337 0.1789747178554535 1.5535138845443726 -0.44003286957740784 -0.24941810965538025 -0.9519213438034058 -0.45393669605255127 1.0599374771118164 -1.8851903676986694 0.510385274887085 0.7897378206253052 0.45646899938583374 0.4896334409713745 -0.1617240160703659 -0.1120167225599289 -0.2229655385017395 0.6990429162979126 -0.5866923332214355 0.049741968512535095 0.07576452940702438 -0.36553382873535156 -0.06386084854602814 0.297617644071579 -0.22050613164901733 0.1047852486371994 0.426444411277771 -0.009744773618876934 -0.653892457485199 0.29055333137512207 0.14093239605426788 0.5773727893829346 1.1306591033935547 0.8698769807815552 0.2071656435728073 -1.2689698934555054 -1.4607234001159668 0.3135192096233368 0.4223214387893677 0.3434424102306366 -0.2401512861251831 2.219252586364746
so 0.07590314000844955 -0.03172449395060539 0.630903959274292 -0.07284687459468842 0.20137345790863037 0.0983486920595169 -0.07834536582231522 -0.1956513375043869 0.4607081711292267 0.31815266609191895 0.2648699879646301 -0.06329362839460373 0.2993656098842621 0.3425765335559845 -0.19242046773433685 0.2759716510772705 0.29462867975234985 -0.3257487416267395 -0.11424481868743896 -0.27598223090171814 -0.4779049754142761 -0.012082433328032494 0.05959843844175339 0.04800669103860855 0.4477827847003937 -0.3099291920661926 0.07334733754396439 -0.22521638870239258 0.12172776460647583 0.11121789366006851 0.39911869168281555 0.23328964412212372 -0.2441813349723816 0.2002294659614563 0.07563542574644089 0.0036529270000755787 0.3644877076148987 0.37140247225761414 0.35323262214660645 0.14807763695716858 -0.22778978943824768 -0.05936068296432495 0.18820689618587494 0.16428375244140625 -0.6623513102531433 0.05178196728229523 -0.04707188904285431 -0.043088171631097794 -0.19508351385593414 -0.2865039110183716
know -0.021156933158636093 0.37889939546585083 -0.9315502643585205 -0.17804934084415436 -0.17079468071460724 -0.11812852323055267 -0.09643836319446564 0.8534976840019226 0.10958579182624817 0.12204081565141678 -0.1876535713672638 1.590258002281189 0.10429684072732925 -0.15250413119792938 -1.2078226804733276 -0.16918256878852844 0.8245940208435059 -2.344376802444458 0.09614497423171997 1.1144238710403442 0.02540322206914425 -0.2661333382129669 -0.1360032558441162 -0.052816566079854965 -0.13469721376895905 0.6850108504295349 0.043277300894260406 -0.2259671986103058 -0.1375010758638382 -0.6966814398765564 -0.03968484327197075 0.0750301405787468 0.45286402106285095 0.32944226264953613 0.06119031459093094 0.10830557346343994 0.7843594551086426 0.5539565682411194 0.31665900349617004 0.18566864728927612 0.5645747184753418 0.17953436076641083 0.08942273259162903 -1.4551581144332886 -1.136583685874939 0.7367015480995178 0.5687284469604492 -0.5351519584655762 -0.0023684801999479532 2.1403913497924805
up -0.20520998537540436 0.07882842421531677 0.053007666021585464 -0.13611522316932678 -0.012594723142683506 -0.15445274114608765 0.022588837891817093 0.31529954075813293 -0.4319571852684021 0.4029572010040283 0.311366468667984 0.11162029206752777 -0.16214868426322937 0.13404347002506256 -0.47395288944244385 0.05527584254741669 -0.09885730594396591 -0.15005841851234436 0.1200571060180664 0.09939376264810562 0.21209250390529633 -0.351809561252594 -0.014005894772708416 -0.27361273765563965 -0.24961191415786743 -0.08728545904159546 -0.3410421907901764 -0.08032359182834625 -0.2720511257648468 0.10076000541448593 0.0770559310913086 -0.2893994152545929 0.24299806356430054 -0.2860088646411896 -0.22752171754837036 0.12651191651821136 0.49188145995140076 -0.145320862531662 -0.48842912912368774 0.13985006511211395 -0.31343063712120056 0.1205495297908783 0.3058083951473236 -0.3760404884815216 0.2607914209365845 -0.21648086607456207 -0.34770092368125916 0.08176126331090927 0.16197392344474792 0.3539145886898041
but 0.24402141571044922 -0.38846880197525024 -0.3140887916088104 0.1333719789981842 0.26935672760009766 -0.008550314232707024 -0.08670876920223236 -0.41518351435661316 0.027415895834565163 -0.08983339369297028 -0.3626256585121155 0.27267733216285706 -0.1257798969745636 0.13914817571640015 0.33837926387786865 -0.3066658675670624 0.42697474360466003 -0.08280517160892487 0.18332752585411072 -0.3279086649417877 -0.12918978929519653 0.07115177810192108 -0.019351491704583168 0.16545459628105164 -0.5952089428901672 0.06141673028469086 -0.0004951909650117159 0.15727661550045013 0.20341725647449493 -0.2634100914001465 -0.3061045706272125 -0.26656007766723633 0.06680016219615936 -0.07833219319581985 0.18844303488731384 -0.3291550576686859 -0.21337927877902985 0.26160770654678345 -0.49565625190734863 0.04908806458115578 -0.1706784963607788 0.16312548518180847 0.39859598875045776 0.35844817757606506 -0.08726630359888077 0.25025421380996704 -0.04713177680969238 0.09913098812103271 0.2229381650686264 0.2554641664028168
its 0.4912337362766266 -0.7477277517318726 0.11456006020307541 0.32832446694374084 -0.13070155680179596 0.05394776165485382 0.025945547968149185 -0.02930554188787937 0.02768169343471527 0.1594754010438919 -0.10175687074661255 0.00547747453674674 0.043284788727760315 0.21733678877353668 0.34664079546928406 0.3981266915798187 -0.2759101986885071 -0.25950887799263 0.3300689160823822 -0.3032885193824768 0.11756754666566849 0.05346066504716873 -0.4792203903198242 0.056170668452978134 0.05124785751104355 0.3555305004119873 -0.08185777813196182 -0.1704666018486023 0.08514365553855896 -0.3986377716064453 -0.18452925980091095 0.0304260216653347 -0.009435569867491722 -0.14343954622745514 0.05256897956132889 -0.31720396876335144 -0.2750686705112457 0.23501744866371155 0.3094165623188019 0.06764812022447586 -0.09723617136478424 0.11357729136943817 0.07924030721187592 -0.06357451528310776 0.2858071029186249 -0.14784201979637146 0.11402373760938644 0.027158310636878014 0.05021335184574127 0.14848650991916656
love -0.06901895999908447 1.4073636531829834 -0.7326117157936096 -1.001655101776123 -0.6142867803573608 -0.49872294068336487 0.19243192672729492 0.8768796920776367 -0.7028854489326477 0.2397846281528473 -0.17591150104999542 1.5919827222824097 -0.9413546919822693 -0.5279482007026672 -1.3053911924362183 0.43662282824516296 0.01328944694250822 -1.8257006406784058 0.6494661569595337 1.565057635307312 0.12956024706363678 0.5817750692367554 -0.7469953894615173 0.012945329770445824 0.24006050825119019 0.20511725544929504 0.00910287443548441 0.04411749914288521 -0.7759435176849365 -0.4489522874355316 -0.2061816155910492 0.14959849417209625 0.39182528853416443 0.8092705011367798 0.130644291639328 -0.1758476346731186 0.6686549186706543 0.4589518904685974 0.4597335159778595 0.11149638146162033 -0.2052779197692871 0.5332914590835571 -0.15063589811325073 -0.9778961539268494 -1.0297619104385376 1.3309677839279175 1.3818668127059937 0.12818646430969238 -0.6915059685707092 2.1738147735595703
with -0.08708152174949646 -0.6208304762840271 0.0008894141064956784 -0.1862407773733139 -0.12684360146522522 0.3882610499858856 0.042349524796009064 -0.48286256194114685 0.2841431796550751 0.29910242557525635 0.02146415039896965 -0.18349342048168182 0.48272761702537537 0.052834026515483856 0.042185183614492416 -0.09802386909723282 -0.45063072443008423 0.03402850404381752 0.3910263180732727 -0.19616685807704926 0.12115780264139175 0.1958073079586029 -0.01788831129670143 0.3040314316749573 0.23783154785633087 -0.0959259420633316 0.32519015669822693 0.3136584758758545 -0.7433537244796753 -0.21311120688915253 0.04486710578203201 0.5476409792900085 0.15220262110233307 0.08605086803436279 0.43684008717536926 0.12055709213018417 0.2411651611328125 -0.037893831729888916 0.4468787610530853 0.06596996635198593 -0.22815373539924622 0.2967580556869507 0.41203242540359497 0.29454755783081055 -0.2511775493621826 0.2419363260269165 -0.14724405109882355 0.15091854333877563 -0.42787492275238037 -0.23989392817020416
just -0.047685857862234116 -0.30431079864501953 0.3367246091365814 0.17933125793933868 0.09493754059076309 0.16355569660663605 -0.23920242488384247 0.5022004246711731 -0.009955725632607937 0.2992672026157379 -0.3456382155418396 0.25366196036338806 -0.40636032819747925 0.6418161392211914 -0.062318675220012665 0.26351290941238403 0.07356110215187073 -0.2622554302215576 -0.10697028785943985 -0.38592126965522766 0.40760645270347595 -0.07775559276342392 0.11948000639677048 -0.09007470309734344 0.17658093571662903 -0.021321073174476624 -0.2515256106853485 -0.37010863423347473 0.0475730374455452 0.7095046639442444 -0.046998340636491776 0.02083374373614788 0.307940810918808 0.09873861819505692 0.18897736072540283 -0.15101249516010284 -0.08883391320705414 -0.3292143940925598 -0.12311263382434845 -0.10776324570178986 -0.06537740677595139 0.007627232000231743 -0.38143670558929443 -0.3573899269104004 0.17851977050304413 0.33067426085472107 0.13084553182125092 -0.1328173130750656 -0.07120359688997269 0.10036133229732513
this -0.007594412192702293 0.45596742630004883 0.6599463820457458 0.18112096190452576 -0.3236750066280365 -0.12335904687643051 -0.10940232127904892 -0.04088262841105461 0.2347126305103302 0.4431783854961395 0.16766774654388428 -0.07213710248470306 -0.03683262690901756 -0.3851741850376129 -0.21957512199878693 0.19190458953380585 0.10602684319019318 0.032479312270879745 0.07785651832818985 -0.30575719475746155 -0.1499432772397995 0.19090184569358826 0.21098892390727997 0.5634301900863647 -0.23209358751773834 -0.34293097257614136 0.05666646733880043 -0.22430354356765747 -0.22208154201507568 -0.34263715147972107 -0.03950185328722 0.25229722261428833 0.0063363551162183285 0.28010818362236023 -0.1100652813911438 -0.09737952053546906 -0.03563827648758888 0.015284216031432152 -0.002435248577967286 0.04532570019364357 -0.10272977501153946 0.45850229263305664 0.3671841323375702 0.0924283042550087 -0.06777781248092651 0.36003217101097107 0.01848006621003151 0.07734111696481705 -0.2271628975868225 -0.09716402739286423
got -0.2006838172674179 -0.027603084221482277 -0.2590751349925995 0.26344501972198486 0.37193775177001953 -0.1330043226480484 0.11287069320678711 0.41050639748573303 0.42186442017555237 0.27007782459259033 -0.2706388831138611 -0.10463038831949234 -0.702546238899231 0.38398516178131104 0.2454119324684143 -0.536525547504425 -0.07260196655988693 -0.5662088394165039 0.39655667543411255 0.16910097002983093 0.18299232423305511 -0.026703156530857086 0.311003714799881 -0.36065155267715454 -0.3582230806350708 0.09601620584726334 0.37020450830459595 -0.11636824905872345 -0.08311052620410919 0.4798150062561035 0.049899931997060776 -0.19798174500465393 -0.021815786138176918 0.14973844587802887 -0.07146656513214111 -0.33209365606307983 -0.09642329812049866 -0.3740423917770386 -0.41203224658966064 -0.26835283637046814 0.13328944146633148 0.2714678943157196 -0.3296169936656952 -0.07234232872724533 0.4029943346977234 0.0611308328807354 0.03562081232666969 0.177147775888443 0.001320213545113802 0.21932394802570343
no 0.4225369095802307 0.2594548165798187 -0.10219445079565048 -0.09750499576330185 0.38886839151382446 0.14187569916248322 -0.13225525617599487 -0.14673873782157898 0.05526851490139961 0.06330898404121399 0.23972634971141815 0.06492874026298523 -0.059083081781864166 -0.11835184693336487 -0.11665793508291245 -0.394504576921463 0.11932811886072159 0.05212859436869621 0.02733396179974079 0.3534447252750397 -0.4442800283432007 -0.08422914147377014 0.10298140347003937 -0.011272570118308067 -0.20548012852668762 -0.1007336899638176 0.23563332855701447 -0.09073074907064438 -0.1728997826576233 -0.4635673761367798 0.25061601400375366 0.34631866216659546 -0.3066321015357971 0.28215986490249634 -0.1664419323205948 0.28366997838020325 0.397819459438324 -0.47303420305252075 0.16485705971717834 -0.048958200961351395 0.34104809165000916 -0.1340462863445282 0.372029185295105 0.0979059636592865 0.09204327315092087 -0.24263305962085724 0.221578910946846 -0.006339359562844038 -0.38673821091651917 0.24134840071201324
when 0.0320415161550045 0.48160845041275024 0.4026665687561035 -0.38446855545043945 0.04022958502173424 -0.18601612746715546 0.12437388300895691 -0.4185243546962738 0.019076569005846977 0.3499712646007538 -0.1100110411643982 -0.21464090049266815 0.40450209379196167 -0.02570645697414875 0.46198195219039917 0.41171154379844666 -0.25069695711135864 -0.2133156955242157 -0.1881231665611267 0.05938537046313286 -0.22397056221961975 0.044213857501745224 -0.029913567006587982 0.37140965461730957 -0.2486831098794937 -0.17178845405578613 0.1428041309118271 0.2901065945625305 -0.17313867807388306 -0.11192716658115387 0.19647875428199768 0.2737107276916504 0.17283330857753754 0.35317519307136536 -0.1687285155057907 0.08120064437389374 0.21271085739135742 -0.06244507431983948 -0.42387622594833374 -0.27124059200286865 0.5140665173530579 0.20902523398399353 -0.15504033863544464 0.4688258171081543 0.02915131114423275 -0.6513469815254211 0.16414980590343475 0.03981103375554085 -0.29645416140556335 -0.2908603549003601
what 0.36011794209480286 -0.00805618055164814 -0.5152637958526611 -0.36317750811576843 0.23126089572906494 -0.46670103073120117 -0.11050734668970108 -0.10556808859109879 0.11959429085254669 0.1803099811077118 -0.34172874689102173 0.18758584558963776 -0.01672293059527874 0.1904626488685608 0.17018426954746246 0.1701379269361496 0.2954467833042145 -0.7054858207702637 0.20080626010894775 -0.04003344848752022 -0.1752856820821762 0.3777889013290405 -0.26223042607307434 0.08654092252254486 -0.2658526599407196 0.1512867510318756 -0.051099374890327454 -0.3159610629081726 -0.3169441819190979 0.11541645228862762 -0.3568844795227051 -0.260261207818985 -0.15342622995376587 -0.17543968558311462 0.5393140316009521 0.11404760181903839 -0.38377130031585693 0.2497483640909195 -0.2319899946451187 -0.10760031640529633 -0.3825813829898834 -0.2810996472835541 0.16197140514850616 -0.1088138222694397 0.13939818739891052 -0.046655215322971344 0.19777053594589233 0.01231349352747202 0.1747220754623413 -0.38696280121803284
get 0.5244081020355225 -0.2917928993701935 0.38926681876182556 0.25125232338905334 0.23499628901481628 -0.21103717386722565 0.16789217293262482 0.4521152377128601 0.2805660367012024 -0.2494792342185974 -0.07730402797460556 -0.2778770923614502 -0.0032133657950907946 0.4057326316833496 -0.19635577499866486 -0.3569967448711395 -0.2616184651851654 0.38459715247154236 0.276528924703598 -0.26251721382141113 -0.37804678082466125 -0.509192168712616 0.394082248210907 -0.11065537482500076 -0.06906981766223907 0.1494709700345993 0.23908251523971558 -0.048245869576931 -0.27281904220581055 -0.027860326692461967 -0.39772194623947144 0.18358199298381805 0.18605703115463257 0.11051665991544724 -0.03956211730837822 0.08815595507621765 0.06319966167211533 -0.17936073243618011 -0.22982364892959595 -0.09322023391723633 0.21071910858154297 0.5094902515411377 -0.32396847009658813 -0.6261559128761292 0.08590038865804672 -0.14161677658557892 0.3685849606990814 -0.26598528027534485 -0.34698256850242615 0.0016322379233315587
do 0.14066137373447418 0.22880610823631287 0.0761696845293045 -0.04979047179222107 0.019705824553966522 0.07543099671602249 0.10345011204481125 0.11191852390766144 0.0036985091865062714 -0.009898177348077297 -0.21573437750339508 0.3435375690460205 -0.03038124181330204 -0.13836751878261566 0.1631801873445511 0.04579003155231476 0.10987503081560135 0.2513764798641205 0.015061233192682266 0.26569926738739014 0.31200817227363586 0.08147464692592621 0.05177278444170952 -0.07932822406291962 -0.12175948172807693 0.08052613586187363 0.17825168371200562 0.23249323666095734 0.10540821403265 -0.5571533441543579 -0.20312638580799103 -0.3799888491630554 -0.7468077540397644 -0.07467066496610641 0.2672404646873474 0.26001042127609253 0.030565328896045685 -0.4175519645214081 0.1837681382894516 0.304238885641098 -0.3181453049182892 0.14618456363677979 -0.48023679852485657 -0.035907577723264694 0.39403244853019714 -0.20067013800144196 0.4641868472099304 0.1004483550786972 0.3047868311405182 0.025932861492037773
can -0.41351985931396484 -0.20284894108772278 0.3340916037559509 0.02679261937737465 -0.1017337515950203 -0.04321480542421341 0.21447883546352386 0.17836326360702515 0.08192439377307892 0.2511381506919861 0.36782100796699524 -0.3381672203540802 -0.030100924894213676 0.5737459063529968 0.5452446341514587 -0.11665870994329453 0.19488641619682312 -0.5858455896377563 0.40763065218925476 -0.2308763712644577 0.067933589220047 -0.0981348529458046 -0.1435224562883377 -0.11379428952932358 -0.4996943771839142 -0.2993697226047516 0.14383874833583832 0.2682616710662842 -0.12136002629995346 -0.09094998985528946 -0.2037208378314972 -0.402177631855011 -0.17297203838825226 0.1352447271347046 -0.23765669763088226 -0.1015070378780365 0.18076519668102264 0.11465030908584595 0.11833866685628891 -0.10573149472475052 0.0130049679428339 0.07123739272356033 -0.015238971449434757 -0.3070533871650696 -0.07694810628890991 0.032933272421360016 0.08075966686010361 0.019853608682751656 0.3814230263233185 -0.3617570996284485
now -0.04005070775747299 0.20327451825141907 0.1545124053955078 -0.06128590926527977 0.09028881043195724 -0.09787597507238388 -0.03047765977680683 -0.06825120002031326 0.005603259429335594 0.5248585939407349 0.12742236256599426 0.02199721708893776 0.5193458795547485 -0.4309151768684387 -0.2997107207775116 -0.09916753321886063 0.2487148493528366 -0.21477414667606354 0.11595314741134644 0.369202584028244 -0.055050767958164215 0.39267683029174805 0.23147788643836975 0.26361560821533203 0.23721008002758026 -0.37787091732025146 -0.2835483253002167 0.4631771743297577 0.14024709165096283 0.033433474600315094 0.5146013498306274 -0.06441207975149155 0.05468687415122986 0.1362469345331192 -0.043203555047512054 -0.15203028917312622 -0.10012298822402954 0.016097847372293472 -0.02639022469520569 0.03684679791331291 0.21308615803718567 0.32108548283576965 -0.31488272547721863 -0.013408776372671127 0.18196377158164978 -0.10940087586641312 -0.25956013798713684 -0.163374125957489 -0.503650963306427 0.4598899185657501
if 0.05692777782678604 0.3369443118572235 -0.25849905610084534 -0.38743487000465393 -0.3687407076358795 -0.08609694987535477 0.1590850055217743 -0.0274671521037817 0.04435112327337265 0.12709574401378632 -0.1089487075805664 -0.15619951486587524 0.19753748178482056 0.2949872612953186 -0.29555651545524597 -0.1649627387523651 -0.2925393283367157 0.08748915791511536 -0.40550240874290466 -0.42045092582702637 0.373888224363327 0.02043113484978676 0.015996728092432022 -0.15820033848285675 -0.007195254787802696 0.08435837924480438 0.5840807557106018 -0.41784369945526123 0.027248211205005646 -0.22329290211200714 -0.14568272233009338 -0.4437642991542816 -0.004972661845386028 -0.05980212613940239 0.08834387362003326 0.24632316827774048 0.3843989372253418 -0.0952388346195221 0.04710022732615471 -0.20011179149150848 0.08730566501617432 -0.018098432570695877 0.4619581401348114 0.22646182775497437 0.2214253842830658 0.3916904926300049 -0.2351788431406021 -0.06327922642230988 0.07142646610736847 0.4077092111110687
out -0.25682029128074646 -0.24397815763950348 -0.4580194056034088 0.36213418841362 -0.06309539824724197 0.0874694287776947 -0.28746604919433594 0.25692763924598694 0.11272548884153366 0.41969114542007446 0.32694560289382935 -0.167382150888443 -0.17880520224571228 0.43615880608558655 0.2981284260749817 -0.22262176871299744 0.2567649781703949 0.14817501604557037 0.017909109592437744 -0.01436266116797924 0.5965861678123474 -0.24945741891860962 -0.032128769904375076 -0.006844646297395229 0.2152644544839859 0.014996826648712158 -0.01953946053981781 0.05240258574485779 -0.11840067058801651 -0.16657234728336334 -0.002819627523422241 -0.2127678096294403 0.2464480698108673 0.18619336187839508 0.2661709785461426 0.19105926156044006 0.21638453006744385 0.2912138104438782 0.21493664383888245 0.49930083751678467 0.05111074447631836 -0.40070948004722595 0.44056281447410583 -0.33820900321006775 0.06756534427404404 0.6286152005195618 -0.2878841161727905 0.0989299789071083 -0.1891864389181137 0.5816875696182251
down -0.2076164335012436 -0.10477938503026962 0.4536571204662323 0.15251068770885468 0.149335578083992 -0.17562240362167358 -0.3325122892856598 -0.28266239166259766 -0.0881788358092308 -0.0029991604387760162 -0.052650950849056244 -0.07700271159410477 -0.4821382462978363 0.3849050998687744 0.1826302409172058 0.19736438989639282 0.0019941364880651236 -0.25320640206336975 0.1377389281988144 -0.253084659576416 -0.34546515345573425 -0.40241217613220215 -0.11963856965303421 -0.035948481410741806 -0.011607780121266842 0.01298131886869669 -0.03710893541574478 -0.22986271977424622 0.0338992215692997 0.23695962131023407 0.1786937713623047 0.17308785021305084 0.03699970245361328 -0.11886706203222275 0.1874171495437622 -0.20511823892593384 0.5923050045967102 0.26921212673187256 -0.5103574395179749 -0.21548676490783691 -0.16670244932174683 -0.3815450966358185 0.04117604345083237 -0.013073799200356007 0.07961302995681763 -0.3544740676879883 -0.2790474593639374 0.30697304010391235 -0.009215696714818478 -0.1547912359237671
baby -0.392816424369812 0.08873996138572693 -0.3669961988925934 -0.12373866885900497 -0.6828340888023376 -0.08176859468221664 0.29883402585983276 0.7498505711555481 -0.518094539642334 0.25442665815353394 -0.4295344650745392 1.552304983139038 -0.8794266581535339 0.6616267561912537 -0.9864012598991394 -0.04772239550948143 1.204483151435852 -2.112895965576172 -0.17303678393363953 1.3277158737182617 -0.08369375020265579 -0.6013583540916443 0.08539388328790665 0.5518506765365601 0.5808646082878113 0.04971960186958313 -0.09664289653301239 0.22551967203617096 -0.5972159504890442 -1.094262957572937 -0.08742369711399078 0.10745826363563538 0.07502570748329163 0.15315093100070953 -0.19196394085884094 0.2609938681125641 -0.2914970815181732 -0.48591893911361694 -0.2137785255908966 -0.12796427309513092 0.7354464530944824 0.3868669271469116 -0.25705456733703613 -1.3338825702667236 -1.1970912218093872 0.9314364790916443 1.1540937423706055 -0.48063698410987854 0.4535287916660309 1.9404882192611694
one -0.0717671737074852 0.02493264339864254 0.3353622257709503 0.1530369073152542 0.5053380727767944 -0.10467138886451721 -0.1945894956588745 -0.4678366482257843 0.11308460682630539 0.07593554258346558 -0.026207663118839264 -0.3520616590976715 0.337554931640625 -0.18658263981342316 -0.09833353012800217 0.21847590804100037 -0.09128011763095856 -0.17907476425170898 0.29321253299713135 -0.576163649559021 -0.21406279504299164 -0.193806454539299 -0.027132583782076836 -0.07830610126256943 0.31231263279914856 -0.12715178728103638 -0.15205085277557373 -0.5882775783538818 0.034855760633945465 -0.0594143308699131 -0.15736736357212067 -0.06300196796655655 0.1026969775557518 -0.249797061085701 -0.39692768454551697 -0.10119215399026871 -0.05297695845365524 -0.09447367489337921 0.16646306216716766 -0.2468303143978119 0.004901967942714691 0.7102620601654053 0.2720063030719757 0.4119165539741516 0.0021655617747455835 0.1398177146911621 -0.062182746827602386 -0.03288932889699936 -0.4891204833984375 0.30823612213134766
see 0.04254548251628876 -0.7368754744529724 -0.1927010864019394 0.3744995594024658 0.3919643759727478 0.46219319105148315 0.13166330754756927 0.060072749853134155 0.19612860679626465 -0.1772024929523468 0.6872345805168152 -0.2597431540489197 0.07042737305164337 -0.36469191312789917 -0.34159645438194275 0.09006615728139877 -0.3244636654853821 0.26094692945480347 -0.04146076738834381 -0.21828703582286835 -0.05338436737656593 0.13497433066368103 -0.1501142680644989 -0.09014150500297546 0.23724113404750824 0.2409350872039795 0.19025123119354248 -0.28627637028694153 -0.16145218908786774 0.22120575606822968 -0.44466590881347656 0.4311659634113312 0.13258425891399384 -0.2679646909236908 0.24302543699741364 -0.10006061941385269 0.1993788778781891 -0.036100372672080994 -0.25074195861816406 0.150106281042099 0.10025261342525482 -0.03738270699977875 0.03541053086519241 0.17642812430858612 -0.1221013218164444 0.29185882210731506 -0.07471135258674622 -0.0119337048381567 0.17328204214572906 -0.2648929953575134
they 0.04894356429576874 0.144866943359375 -0.10823111981153488 0.16280581057071686 0.029978560283780098 0.09221574664115906 0.039921533316373825 0.0646505355834961 -0.2325342297554016 0.22153006494045258 -0.025603121146559715 -0.3126572370529175 0.8074511289596558 0.32154205441474915 0.4010794162750244 0.31363776326179504 0.29303890466690063 -0.04270705208182335 0.33278316259384155 -0.039489150047302246 0.08734793961048126 0.5735987424850464 0.005804994143545628 0.18408124148845673 0.19724640250205994 -0.08654476702213287 0.049510203301906586 0.17217090725898743 -0.02804248221218586 0.4567866623401642 0.12502068281173706 0.3745153546333313 0.097063809633255 0.10235539823770523 -0.20132222771644592 0.3593755066394806 0.4083874821662903 -0.22380243241786957 0.07330191880464554 0.12823814153671265 -0.06967034190893173 -0.4164314568042755 0.4499340355396271 0.1702468991279602 0.17691358923912048 0.19739632308483124 0.31579524278640747 -0.319197416305542 0.4341380000114441 0.12742653489112854
time 0.6656230092048645 0.5024185180664062 -0.801560640335083 0.264406681060791 0.4681861102581024 -0.24661089479923248 0.31665560603141785 0.23441976308822632 0.06793466955423355 -0.3736850321292877 0.5597474575042725 1.0130820274353027 -0.05360255017876625 0.7434743642807007 -1.311679482460022 0.03694647550582886 0.8266794681549072 -1.3855372667312622 0.2736322283744812 1.3824079036712646 -0.03611356392502785 0.05125027522444725 -0.23863646388053894 -0.15155832469463348 -0.2956834137439728 0.13853511214256287 -0.17635191977024078 0.16244307160377502 0.3517259657382965 -0.9066952466964722 -0.2995317876338959 0.07265936583280563 -0.5260428786277771 0.1656968891620636 -0.8411747217178345 0.8490369319915771 1.0221993923187256 -0.24836672842502594 0.4422532320022583 0.1916545033454895 -0.4944140315055847 0.28092387318611145 0.3512328267097473 -1.3699355125427246 -1.41050386428833 1.0958329439163208 0.8340804576873779 -0.14838115870952606 0.790303647518158 2.292279005050659
yeah 0.4910873472690582 0.20182380080223083 -0.8628289103507996 0.2930925786495209 -0.6595798134803772 -0.3842948079109192 -0.1482773870229721 0.6655107736587524 -0.21472395956516266 -0.9862015247344971 -0.5355968475341797 1.531110405921936 0.013775022700428963 -0.06892187893390656 -0.9485369920730591 -0.8279998898506165 0.35455548763275146 -1.2575757503509521 0.33317267894744873 1.115220069885254 -0.31354227662086487 0.10303644835948944 -0.25778573751449585 0.8955265283584595 0.08400069922208786 0.9087926149368286 -0.12472153455018997 1.1577376127243042 0.07228704541921616 -0.7730322480201721 -0.4609946310520172 0.5581064224243164 -0.11967522650957108 0.9292413592338562 -0.36473220586776733 -0.13009443879127502 0.44893312454223633 0.004502429626882076 -0.5653851628303528 -0.01486367266625166 1.1170300245285034 0.6662440299987793 0.03797733783721924 -1.3797835111618042 -0.9119877815246582 0.757731020450592 0.10635217279195786 -0.38211455941200256 0.15763676166534424 1.5328487157821655
was -0.4185969829559326 -0.39253103733062744 0.24393367767333984 -0.016414130106568336 0.14726495742797852 0.3202085494995117 -0.2781502902507782 -0.5149574279785156 0.15141458809375763 -0.49011579155921936 0.3843463659286499 -0.1857980638742447 0.032909639179706573 2.1931915398454294e-05 -0.1520722508430481 0.20640861988067627 0.0043135411106050014 -0.37799397110939026 -0.28378811478614807 -0.09190142899751663 0.42751193046569824 -0.004016043618321419 -0.02823292650282383 0.032926205545663834 0.2090020626783371 0.1220834031701088 0.02168884500861168 -0.2023792713880539 -0.37588414549827576 -0.2149098515510559 -0.16045042872428894 -0.005858124699443579 -0.34557774662971497 0.0014159734128043056 -0.5516330003738403 -0.0019740713760256767 -0.0829302966594696 0.010773414745926857 -0.1045173704624176 -0.344773530960083 -0.5767842531204224 0.29228994250297546 -0.01524671632796526 -0.18278424441814423 -0.39520639181137085 0.024606646969914436 0.23757843673229218 0.3895336091518402 -0.14270147681236267 -0.146163210272789
never 0.2583220303058624 0.2667805552482605 -0.4877379834651947 -0.5022040009498596 -0.8349688649177551 0.7969764471054077 0.07452148199081421 0.2544516921043396 -0.10311758518218994 -0.5568755269050598 0.5364355444908142 1.2257106304168701 0.39052048325538635 -0.795574963092804 -0.8304499387741089 -0.2892792820930481 1.0603625774383545 -1.7972813844680786 0.5800015926361084 0.9655715227127075 -0.04498688504099846 -0.41897642612457275 -0.5498871803283691 -0.3193955421447754 -0.3713512420654297 0.30887269973754883 0.621667206287384 -0.42052966356277466 0.028690818697214127 -0.9032336473464966 -0.17917898297309875 -0.10444755852222443 0.10832548886537552 0.2632875144481659 0.24799056351184845 -0.042580746114254 0.8404499292373657 0.8506532907485962 0.3886756896972656 0.6450663208961487 -0.3709946870803833 0.9434177875518799 0.4058205187320709 -0.6776515245437622 -1.293136477470398 0.3766190707683563 1.3237088918685913 -0.27356407046318054 -0.4699746072292328 1.9037121534347534
cant -0.21826811134815216 0.2062009871006012 -1.0060793161392212 0.08658953756093979 -0.3187560737133026 0.49989214539527893 -0.8494633436203003 0.26526325941085815 0.08311659842729568 0.7488653063774109 0.5250482559204102 2.0144786834716797 -0.707792341709137 0.8363533616065979 -0.8956553339958191 0.26395881175994873 0.8463108539581299 -2.1467485427856445 0.17966940999031067 1.2855603694915771 -0.35523104667663574 0.0904376357793808 -0.4239969551563263 -0.37095361948013306 -0.5803006291389465 0.19298063218593597 -0.5801721811294556 -1.0797760486602783 -0.17239288985729218 -0.7387794852256775 -0.1853649914264679 -1.084511637687683 0.4770360291004181 0.5882858037948608 -0.27108296751976013 -0.3025747835636139 0.5789886116981506 -0.034200821071863174 -0.11903659999370575 -0.30856186151504517 0.09353003650903702 0.018584279343485832 -0.5118894577026367 -0.3787929117679596 -0.8912721872329712 0.32877132296562195 0.45402050018310547 0.25530195236206055 0.3225870728492737 2.127429246902466
want -0.8657028079032898 0.953818678855896 -0.5759982466697693 0.058615099638700485 -0.5904513001441956 0.5241602659225464 -0.15265722572803497 0.8562412261962891 0.21060234308242798 0.2898362874984741 -0.8343640565872192 1.3918215036392212 -0.4273573160171509 0.264846533536911 -1.211106538772583 -0.8336441516876221 0.7672286033630371 -1.7588257789611816 -0.4222545921802521 1.401794195175171 -0.061496857553720474 -0.5308260917663574 -0.13980798423290253 0.5926321148872375 -0.16386646032333374 0.9136256575584412 -0.03634880483150482 -0.4636559784412384 -0.25860878825187683 -0.6476423144340515 -0.2100135087966919 0.03138382360339165 -0.3133455812931061 0.3695679306983948 -0.7728077173233032 -0.20053887367248535 -0.242360457777977 0.4575541019439697 0.15166166424751282 0.5101220011711121 0.2774352729320526 0.35961654782295227 -0.1376655250787735 -1.1985914707183838 -0.46258050203323364 0.28020042181015015 1.05059015750885 -0.15071219205856323 -0.0006469398504123092 1.744716763496399
she -0.22922572493553162 -0.04321470111608505 -0.1716013103723526 -0.7795682549476624 -0.2459351122379303 -0.23739784955978394 0.07746557891368866 -0.12987467646598816 0.10811134427785873 -0.22437897324562073 -0.1921042799949646 -0.12913905084133148 -0.10879353433847427 0.7622731328010559 0.4144722521305084 -0.25465330481529236 -0.2685271203517914 -0.22995349764823914 0.25889483094215393 0.13831497728824615 0.09301719069480896 0.014026772230863571 0.5022189021110535 0.4810975193977356 0.12577854096889496 -0.1524711549282074 -0.42157235741615295 0.3584674596786499 0.4492620527744293 0.3655261695384979 -0.1852903813123703 0.12906476855278015 -0.3264739513397217 0.24919754266738892 0.30055466294288635 -0.11779920756816864 0.3354921042919159 0.44082653522491455 0.05802955850958824 -0.11968492716550827 -0.05499354377388954 -0.3687923550605774 0.0666574016213417 0.23994825780391693 0.27959778904914856 0.23034630715847015 -0.04193134978413582 -0.05498727411031723 -0.1643284112215042 0.20482654869556427
not 0.42856335639953613 0.12683714926242828 0.556555986404419 -0.24990038573741913 -0.10994040220975876 0.05887647345662117 -0.15012603998184204 -0.012956737540662289 -0.5122811794281006 -0.2513059675693512 -0.06650994718074799 -0.06701197475194931 -0.33670058846473694 0.14977294206619263 0.1541816145181656 -0.3233615458011627 -0.004349003545939922 0.1251312494277954 -0.06838393956422806 -0.03176598623394966 0.05812351033091545 0.052654433995485306 0.0070575932040810585 -0.2143959105014801 -0.10707986354827881 0.022356871515512466 0.16943638026714325 0.6733796000480652 -0.17170991003513336 -0.004832770675420761 0.6610183715820312 0.1376640647649765 0.019663557410240173 0.1473739743232727 -0.3295077681541443 -0.024207828566432 0.21378912031650543 -0.06513052433729172 -0.11211428791284561 0.07317405194044113 -0.15558764338493347 0.2771906852722168 -0.41461607813835144 -0.2505565285682678 0.38644134998321533 -0.20343276858329773 -0.4857298731803894 0.09365208446979523 -0.5174174308776855 -0.27820518612861633
cause 0.17766767740249634 0.7056258916854858 -1.1454317569732666 -0.12021299451589584 -0.583174467086792 -0.044035688042640686 0.07726037502288818 0.694755494594574 0.5441142916679382 0.053430866450071335 -0.28921860456466675 1.1283162832260132 -0.43465548753738403 0.17854192852973938 -1.098231315612793 -0.011662228032946587 1.1290642023086548 -1.7837741374969482 0.11580999940633774 1.1868457794189453 0.027529768645763397 0.004953309893608093 -0.1646399050951004 0.11604901403188705 -0.2663518786430359 0.5362393260002136 0.016167297959327698 -0.03903105854988098 -0.29632338881492615 -0.4856240749359131 0.10679695010185242 -0.41424956917762756 0.355901300907135 0.2773096263408661 0.25573480129241943 -0.2441953420639038 0.6429204940795898 0.39466777443885803 -0.32586073875427246 -0.20130184292793274 0.05765238404273987 0.13582979142665863 0.16417980194091797 -1.19731605052948 -1.1632329225540161 0.40328681468963623 0.4896621108055115 -0.29060423374176025 -0.11191601306200027 1.8136992454528809
are 0.003058887319639325 -0.33096981048583984 0.3083592355251312 -0.1929716020822525 -0.17176267504692078 0.24707090854644775 0.4027656316757202 0.13989250361919403 -0.5694529414176941 -0.03258655220270157 -0.4383836090564728 -0.26689597964286804 0.0006266274722293019 -0.27177050709724426 -0.24667809903621674 0.22121195495128632 -0.19990593194961548 -0.4345373511314392 -0.38307619094848633 -0.11120831221342087 0.4456775188446045 -0.03977559879422188 0.08398941904306412 0.3160263001918793 -0.11191923916339874 0.570899248123169 0.4210425913333893 -0.018668614327907562 0.08084065467119217 0.193095862865448 0.1340494602918625 -0.1030663475394249 0.12882767617702484 0.10189331322908401 -0.03298421576619148 0.12218820303678513 -0.2986553907394409 -0.1777479648590088 0.175373837351799 -0.05518603324890137 -0.613349437713623 -0.4009712040424347 -0.11862056702375412 0.42141959071159363 -0.23159316182136536 -0.2024155557155609 0.06507192552089691 0.04882407933473587 -0.3249204158782959 0.34890785813331604
make 0.24206659197807312 0.491375207901001 -0.7348763346672058 -0.6314007043838501 -0.27701687812805176 0.9086405038833618 -0.5256991386413574 0.02212558500468731 -0.14328321814537048 -0.11267989128828049 -0.08974909782409668 1.4193344116210938 -0.2107219696044922 0.1935841590166092 -0.8663358092308044 -0.8915812969207764 1.1223102807998657 -1.7058355808258057 0.18870118260383606 1.6966632604599 -0.3159646987915039 0.9716380834579468 0.027057204395532608 0.050006140023469925 0.7303293943405151 0.679800808429718 -0.08120416104793549 -0.07753125578165054 0.25322121381759644 -0.8976843357086182 -0.6026749610900879 -0.2832980155944824 0.18292924761772156 0.3942829668521881 -0.31017163395881653 -0.3195829391479492 0.360794335603714 -1.0624451637268066 0.4704725444316864 -0.13109254837036133 0.1349722146987915 0.5819517374038696 0.7035571336746216 -1.3597159385681152 -1.0065873861312866 1.2088359594345093 0.797971785068512 -0.3765410780906677 0.018200624734163284 1.5131343603134155
let -0.12801741063594818 -0.035164933651685715 0.17563657462596893 0.02771889604628086 0.45409122109413147 0.26322686672210693 0.011854595504701138 0.15347068011760712 0.3753691017627716 -0.4210817813873291 0.03989502787590027 -0.0886988565325737 0.01213911920785904 0.08373870700597763 -0.2622559666633606 0.15001843869686127 -0.24636977910995483 -0.21497833728790283 0.08580688387155533 0.4405348002910614 0.14952103793621063 -0.25661391019821167 -0.37218281626701355 -0.3448863625526428 0.03856588900089264 0.12175116688013077 -0.03155920282006264 -0.0035260117147117853 -0.021406924352049828 -0.40029987692832947 -0.26945406198501587 0.2360619604587555 -0.02556285262107849 -0.2732604444026947 -0.21210820972919464 0.34584781527519226 0.018284576013684273 0.49547848105430603 0.06615465134382248 0.2246728390455246 0.15351502597332 0.053605660796165466 0.29361817240715027 0.20206299424171448 -0.016368592157959938 0.16187164187431335 -0.051898159086704254 -0.2613230049610138 0.10360844433307648 0.21331222355365753
wanna 0.007975442335009575 0.9204918742179871 -0.22478733956813812 -0.4026481807231903 -0.4382622539997101 0.7425744533538818 0.20348919928073883 0.5938126444816589 0.19246740639209747 0.3384450674057007 -0.7650316953659058 1.0352236032485962 -0.020510276779532433 -0.02437061257660389 -0.9242986440658569 -0.09896112978458405 1.0610549449920654 -2.3186962604522705 0.08658967912197113 1.5402199029922485 -0.8328822255134583 0.23911839723587036 -0.35261547565460205 0.3159845173358917 -0.09623438119888306 0.3974677324295044 0.7085939645767212 -0.13019959628582 0.5126311779022217 -0.8286670446395874 -0.12332279980182648 -0.3561919927597046 -0.2693845331668854 0.4981575310230255 -0.10216836631298065 0.16614742577075958 0.061083994805812836 -0.4943729043006897 -0.04402529448270798 0.27105528116226196 0.8964662551879883 0.2715808153152466 0.2586491107940674 -1.1229172945022583 -0.2971998155117035 1.038435459136963 -0.19806289672851562 -0.04437584802508354 -0.20684626698493958 2.1915442943573
come -0.393931120634079 -0.42956215143203735 -0.6044529676437378 -0.4803547263145447 0.4486066699028015 -0.016866298392415047 -0.06049910560250282 0.7940756678581238 -0.5705572962760925 0.4664340317249298 -0.3026028275489807 0.9102516770362854 -0.04947024583816528 -0.28670287132263184 -0.6844285726547241 -0.6293419599533081 1.2381924390792847 -1.873772144317627 -0.6955533623695374 1.1381547451019287 0.09093128144741058 0.0637156143784523 0.26191574335098267 -0.007971453480422497 0.3633396029472351 0.16064728796482086 -0.1540113091468811 0.7189316749572754 -0.21924613416194916 -0.9855051636695862 0.3186262249946594 -0.22050346434116364 -0.28354746103286743 0.8402745127677917 0.6209969520568848 0.12505751848220825 1.0318289995193481 -1.0967328548431396 -0.8522987961769104 0.7579739093780518 -0.4950237572193146 0.9505165219306946 0.24385946989059448 -1.2044087648391724 -1.1463803052902222 0.3258507549762726 0.3222631514072418 -0.6513139605522156 0.6511064767837524 2.0305867195129395
say -0.17415228486061096 0.7408257722854614 0.20167896151542664 -0.007287704851478338 -0.07640238106250763 0.2016790211200714 -0.1410408467054367 0.036526914685964584 -0.19154298305511475 -0.14295993745326996 0.30692189931869507 -0.5566772222518921 -0.0556316003203392 -0.05260559543967247 -0.23192088305950165 0.2611525058746338 -0.11724454909563065 0.03814781457185745 -0.021241720765829086 0.015995459631085396 0.4484528601169586 0.008836833760142326 -0.040852732956409454 -0.10174425691366196 0.19400770962238312 -0.10933635383844376 0.46567341685295105 0.07365593314170837 0.20212270319461823 0.2210783213376999 0.14991456270217896 0.11422479897737503 -0.12023103982210159 -0.3235139548778534 -0.44341975450515747 -0.3956669270992279 0.13085685670375824 -0.001075442531146109 0.03394603356719017 0.00383191229775548 -0.18865680694580078 0.27214306592941284 -0.34028005599975586 -0.7463497519493103 -0.3141007721424103 0.37328773736953735 0.16269442439079285 -0.06988948583602905 -0.5285207629203796 -0.05693391337990761
back 0.3845639228820801 -0.6050195693969727 -0.7310839891433716 -0.8277410864830017 0.2376360446214676 0.024497084319591522 0.4221445322036743 1.2088942527770996 -0.05808335542678833 0.5447091460227966 0.043703701347112656 0.4418509006500244 0.1701105684041977 1.271626353263855 -1.2648463249206543 -0.2858036458492279 0.6525503396987915 -2.159494638442993 0.11844780296087265 0.19774746894836426 0.03786914795637131 0.7005547285079956 -0.4050857424736023 -0.6088629961013794 0.03160787373781204 1.4566993713378906 -0.6840948462486267 -0.595640242099762 0.2193068116903305 -0.9733693599700928 0.5674858689308167 0.1622418463230133 0.42577672004699707 0.660256028175354 -0.6447439193725586 -0.6264942288398743 0.6509430408477783 0.29525500535964966 -0.706170916557312 0.9141297936439514 -0.15327049791812897 1.028364896774292 -0.5336332321166992 -0.960106372833252 -1.1518287658691406 0.09152256697416306 0.21870538592338562 -0.3842158019542694 0.1366172581911087 2.0583558082580566
take 0.2715435326099396 0.06266248971223831 -1.2867584228515625 -0.4742327630519867 0.22471895813941956 0.38131794333457947 -0.05339506268501282 -0.31512802839279175 0.02186805196106434 0.0898868516087532 0.8928493857383728 1.0602033138275146 -0.12867313623428345 0.7869471311569214 -1.088401198387146 0.7984226942062378 1.0782171487808228 -1.9473594427108765 -0.04389314725995064 1.2738791704177856 -0.4302097260951996 0.5696488618850708 -0.4469482898712158 0.2285565733909607 0.17412757873535156 0.24811133742332458 0.3032180964946747 0.34240683913230896 -0.10806259512901306 -0.5724842548370361 0.5245721936225891 -0.5330800414085388 -0.39613696932792664 0.3930433392524719 -0.07219268381595612 -0.3516373634338379 0.11603277921676636 0.11615418642759323 -0.1741304248571396 0.15540069341659546 0.002042875625193119 0.9898049235343933 -0.44256871938705444 -1.348772406578064 0.44310835003852844 1.0832641124725342 0.538635790348053 -0.381562739610672 0.969991147518158 2.163950204849243
way 0.044498588889837265 0.060117561370134354 0.24507109820842743 0.13274063169956207 0.20050214231014252 -0.11574169248342514 -0.056287702172994614 0.23974378407001495 -0.5207127332687378 0.03003058210015297 -0.48053792119026184 -0.013096770271658897 0.03128810226917267 0.07705377042293549 -0.46144041419029236 -0.2973278760910034 0.4233252704143524 0.0270437803119421 0.06773974746465683 -0.43236836791038513 0.1707356870174408 -0.1466515064239502 -0.4773772060871124 0.16762077808380127 0.1238923892378807 0.0538998506963253 0.13301806151866913 0.18849101662635803 0.4228692054748535 -0.11825026571750641 -0.12340909987688065 0.16298124194145203 -0.006783859804272652 -0.4495895802974701 0.13322381675243378 0.120038703083992 -0.5055593848228455 0.0699554979801178 0.30026453733444214 -0.09053449332714081 -0.16397340595722198 0.09348586946725845 0.23742713034152985 0.10899119824171066 -0.1905488222837448 0.15685483813285828 0.2612406313419342 -0.33603814244270325 -0.007056703791022301 0.34782394766807556
have 0.16987867653369904 0.3785276412963867 0.24112676084041595 -0.243987038731575 0.39008137583732605 -0.407638281583786 0.10303477197885513 -0.5815550684928894 0.24054867029190063 -0.10177817940711975 0.3767058551311493 -0.14549648761749268 -0.10817475616931915 0.046415992081165314 0.05192408710718155 -0.07174620032310486 -0.34361302852630615 -0.12090803682804108 0.10752195864915848 -0.2778417766094208 0.30019745230674744 0.06392089277505875 -0.5470831990242004 0.14328816533088684 -0.16789454221725464 -0.031031915917992592 -0.03129156306385994 0.2938023507595062 0.15951432287693024 0.36801135540008545 -0.14309777319431305 -0.007956487126648426 0.08229520171880722 -0.0978892520070076 -0.44753149151802063 -0.04104422777891159 0.09759833663702011 -0.17451752722263336 -0.24611102044582367 0.09824185073375702 -0.41293641924858093 -0.35300585627555847 0.7427907586097717 -0.09822510182857513 0.12411162257194519 0.27790772914886475 -0.028849884867668152 -0.26593974232673645 -0.25831693410873413 0.01299336738884449
from -0.038384005427360535 0.14067837595939636 0.08710318058729172 -0.1301840841770172 0.20710401237010956 -0.3232589066028595 -0.03012659214437008 0.02507643774151802 0.1522715985774994 0.032328542321920395 0.3119867444038391 -0.050261203199625015 0.18119440972805023 -0.052667129784822464 -0.141073077917099 -0.5993354916572571 0.05377008393406868 -0.6823155879974365 -0.31611496210098267 -0.4180602729320526 0.0680716261267662 0.3873266875743866 -0.3475358784198761 0.28456687927246094 0.15197987854480743 0.14862218499183655 -0.036932140588760376 -0.15260136127471924 0.07397519797086716 -0.30892813205718994 -0.28998538851737976 0.008345172740519047 -0.29679831862449646 0.23128701746463776 0.2940346300601959 0.041570235043764114 0.2743534445762634 0.33694174885749817 -0.3829341232776642 0.08263309299945831 0.12157949060201645 -0.025716546922922134 -0.2551679313182831 0.1257428675889969 -0.00012261918163858354 0.22680360078811646 -0.28999242186546326 -0.12598958611488342 0.4303124248981476 0.024795636534690857
at 0.18067272007465363 -0.38511785864830017 -0.11182818561792374 0.41503551602363586 0.26800841093063354 -0.15066669881343842 0.4529309868812561 0.058000266551971436 0.38031935691833496 -0.21730417013168335 0.030213991180062294 -0.17010758817195892 -0.03359895944595337 -0.3386608958244324 -0.1832747757434845 0.0925399661064148 -0.21614810824394226 -0.5723391175270081 0.015639351680874825 0.1754244565963745 0.116846464574337 -0.22209933400154114 0.2614826560020447 0.13311927020549774 0.6393576264381409 -0.00991558562964201 0.2591873109340668 0.18825480341911316 0.04981803148984909 -0.07591568678617477 -0.045594338327646255 0.4090799391269684 -0.0974433645606041 0.3027849793434143 -0.2616950273513794 -0.2844645082950592 0.04278034344315529 -0.00042089945054613054 -0.030815226957201958 -0.07585451006889343 0.12762674689292908 -0.36087048053741455 -0.31418970227241516 -0.1349630057811737 0.2533928155899048 -0.07909244298934937 -0.1768680363893509 -0.18289697170257568 0.19992601871490479 -0.1262158453464508
ill 0.04604942724108696 0.378658264875412 -0.13050171732902527 0.012187373824417591 -0.2052754908800125 -0.22517187893390656 0.1621512621641159 -0.32160627841949463 -0.24538326263427734 0.09059087187051773 -0.30081263184547424 0.46075671911239624 -0.09324958175420761 -0.033655568957328796 0.039629705250263214 -0.13289842009544373 0.4611436128616333 -0.17476002871990204 0.15923213958740234 -0.15065214037895203 -0.3601484000682831 0.866985023021698 0.29277026653289795 0.3275248408317566 0.10501893609762192 -0.17000333964824677 -0.0820305272936821 -0.26244449615478516 -0.054267872124910355 -0.19780339300632477 -0.31934958696365356 0.01260147150605917 0.12861156463623047 0.0380619540810585 0.12640611827373505 0.2269648313522339 -0.05424807593226433 -0.012891006655991077 0.1673041135072708 -0.07877054810523987 -0.013757633045315742 0.003526862245053053 0.29607129096984863 0.39185571670532227 -0.39595091342926025 -0.032153282314538956 -0.04527238383889198 0.11153912544250488 -0.2399037629365921 0.15843844413757324
girl 0.5194006562232971 0.5688017010688782 0.2438010722398758 -0.10402954369783401 -0.6319583058357239 0.22300828993320465 0.12378527224063873 0.8738203644752502 -0.6904726624488831 0.3217228651046753 0.0070960428565740585 1.392380714416504 -0.2560262084007263 -0.4393557012081146 -1.055679440498352 -0.026339098811149597 1.3015891313552856 -2.437281608581543 -0.046435002237558365 1.7617956399917603 -0.14085042476654053 0.1031939759850502 0.5440198183059692 -0.9654255509376526 0.1520329862833023 0.17564813792705536 -0.3044687807559967 0.3791043162345886 -0.3271900713443756 -0.8260064125061035 0.04171498492360115 0.5561332702636719 0.05833982303738594 -0.2611224353313446 -0.3483389616012573 0.324918657541275 -0.2539308965206146 0.1403008997440338 -1.028070330619812 -0.0558067262172699 0.7513641715049744 -0.5675991773605347 0.17139075696468353 -1.6751827001571655 -0.62418532371521 0.41427141427993774 0.24543172121047974 -0.27735498547554016 0.24217535555362701 1.426345705986023
will -0.26108410954475403 0.09716223925352097 -0.04704046994447708 -0.13526974618434906 -0.3875359296798706 -0.19350075721740723 -0.1721847653388977 -0.1271870732307434 0.10744223743677139 0.014559789560735226 -0.4445491433143616 0.41115251183509827 -0.7744318842887878 -0.33101680874824524 -0.17945583164691925 -0.4019239544868469 0.05253180116415024 0.40816622972488403 -0.27269256114959717 0.4738887548446655 -0.16486887633800507 -0.2706073224544525 0.2968316972255707 0.1617434322834015 -0.05588383972644806 -0.23582704365253448 0.2604546844959259 0.2666011452674866 0.010436803102493286 -0.08892688155174255 0.0460793562233448 -0.05433421954512596 -0.28064388036727905 0.11954042315483093 0.19335085153579712 0.2126002311706543 0.06947458535432816 -0.03946240246295929 -0.3574974834918976 -0.1420799344778061 -0.19114111363887787 0.11140444129705429 0.5462877750396729 -0.21891449391841888 0.21180322766304016 -0.18653512001037598 0.14154866337776184 -0.03571406006813049 -0.11926957964897156 -0.07105575501918793
how -0.05835254117846489 0.48381608724594116 0.3228703737258911 -0.11182258278131485 0.11295030266046524 -0.22877241671085358 -0.04005647450685501 -0.04691305011510849 0.16332358121871948 -0.3169664740562439 -0.06902584433555603 0.21543365716934204 0.05070127546787262 -0.0756104588508606 0.14182676374912262 0.03791860491037369 0.41725003719329834 0.13792701065540314 -0.0971742644906044 -0.1329062432050705 -0.24758882820606232 0.11006088554859161 -0.22202228009700775 0.5072982311248779 -0.09391141682863235 0.14790122210979462 -0.16221405565738678 -0.14590755105018616 -0.3314284682273865 -0.5821393132209778 0.3534409999847412 0.17132601141929626 -0.3979589641094208 0.20628470182418823 -0.21180900931358337 -0.04150255024433136 -0.21145066618919373 -0.344897598028183 0.3531968295574188 -0.001387690077535808 0.40481916069984436 0.5819371342658997 0.15391039848327637 -0.12803910672664642 -0.23247791826725006 -0.5306429862976074 0.33935925364494324 -0.07850088179111481 -0.3391883969306946 0.2848666310310364
her 0.10679324716329575 0.02905249409377575 -0.28144344687461853 -0.20534607768058777 0.21976538002490997 0.1637694090604782 -0.1735086292028427 -0.07829084992408752 -0.02751276269555092 -0.3627833127975464 0.11785975843667984 0.19983166456222534 0.054654307663440704 -0.080138199031353 0.11357753723859787 -0.47078967094421387 0.1735733151435852 0.15138794481754303 -0.18791863322257996 0.06130576506257057 -0.7581772208213806 0.3250439763069153 0.4553566575050354 0.23601536452770233 -0.059051111340522766 -0.2978479564189911 -0.18505693972110748 0.24580976366996765 -0.1342599093914032 -0.07764068990945816 0.5718672275543213 0.28395697474479675 0.21838518977165222 0.18853135406970978 -0.11345493793487549 0.18848095834255219 -0.6028299927711487 -0.20986345410346985 -0.11168413609266281 0.05313625931739807 -0.13775552809238434 0.40683990716934204 0.18285226821899414 -0.255607545375824 0.16329212486743927 0.13120338320732117 -0.7324501276016235 -0.0005023529520258307 0.42298972606658936 0.0610940083861351
were -0.19650056958198547 -0.16464287042617798 0.025450322777032852 -0.36899566650390625 -0.04571002721786499 0.3479738235473633 0.0007878440665081143 0.4321616291999817 -0.017370520159602165 0.12848664820194244 -0.1571095883846283 -0.07151529937982559 -0.5224679112434387 0.1090025082230568 0.17652207612991333 0.8381726145744324 0.3183320164680481 -0.07742482423782349 -0.18401750922203064 0.3603360056877136 0.2037927359342575 -0.2896605432033539 0.07532671093940735 0.1604660302400589 -0.3295040428638458 0.027769021689891815 -0.37703219056129456 0.15827597677707672 -0.16235533356666565 -0.13134212791919708 -0.2419762909412384 0.37225231528282166 -0.07728152722120285 0.06360221654176712 0.5364277958869934 0.13937632739543915 0.07586849480867386 0.18459007143974304 0.377029150724411 0.02529936097562313 0.09250359237194061 -0.17996251583099365 -0.05045726150274277 0.1246536374092102 -0.08607709407806396 -0.24083106219768524 0.10066656023263931 -0.20365078747272491 -0.39351338148117065 0.5261811017990112
gonna 0.005095967557281256 -0.3044632375240326 -0.693341851234436 -0.6144991517066956 -0.48511046171188354 0.5129431486129761 -0.011870632879436016 -0.5609627962112427 0.15566442906856537 -0.3669973909854889 0.2668188810348511 1.4259072542190552 -0.6924283504486084 -0.1424844115972519 -1.3289717435836792 -0.6144198179244995 1.172041654586792 -1.1745051145553589 0.40767309069633484 0.36465898156166077 -1.3155063390731812 0.24539652466773987 0.27864277362823486 0.4969598650932312 0.13759395480155945 -0.1186104342341423 0.38625168800354004 0.15630020201206207 -0.25197795033454895 -0.7531495094299316 0.7638471126556396 0.1491028070449829 0.10953221470117569 0.8958896398544312 -0.3467123806476593 0.0010754505638033152 0.5151437520980835 0.40258410573005676 -0.6452770829200745 -0.19578030705451965 -0.07043465226888657 0.30924534797668457 0.4866425096988678 -1.171057939529419 -1.2124136686325073 1.1806460618972778 0.7412256598472595 -0.8373685479164124 0.15164440870285034 1.8457825183868408
feel 0.21233871579170227 0.9382224678993225 -0.5322185158729553 -0.06331737339496613 0.11426711082458496 0.22380365431308746 -0.30495506525039673 0.057291142642498016 0.040874723345041275 0.44767916202545166 -0.4373623728752136 1.6334319114685059 -0.09258466213941574 -0.3303567171096802 -1.2918775081634521 -0.38494521379470825 -0.26073506474494934 -1.313449740409851 0.07304483652114868 1.3230613470077515 0.31770139932632446 0.7209108471870422 -0.2770134508609772 0.2589239478111267 -0.3314531743526459 0.06921634078025818 -0.7143343091011047 -0.020211834460496902 -0.47453248500823975 -1.0113019943237305 -0.5056889057159424 -0.5563310980796814 0.27872034907341003 -0.2458873838186264 -0.04677625745534897 -0.8339992165565491 0.5830569267272949 -0.521604061126709 0.07900924980640411 0.08977948129177094 0.8919846415519714 1.0196795463562012 0.9682366251945496 -1.0015106201171875 -0.8263902068138123 0.3087373971939087 0.6160012483596802 0.3347868323326111 -0.22667112946510315 1.7132248878479004
right 0.6018537282943726 -0.15415768325328827 -0.10835927724838257 -0.09263589233160019 0.17053188383579254 -0.4027102589607239 0.10587796568870544 -0.3713206350803375 0.06349591910839081 -0.12693506479263306 0.25133761763572693 1.646602988243103 -0.01228361390531063 1.0818554162979126 -1.092341661453247 -0.7400851249694824 0.8082445859909058 -1.8882778882980347 0.03297092393040657 1.4586820602416992 -0.055354341864585876 -0.19554108381271362 0.29361894726753235 0.8542572259902954 0.1662183552980423 0.48700106143951416 -0.6753847002983093 -0.2677760720252991 0.158118337392807 -0.5721346735954285 -0.12575766444206238 0.4309554994106293 0.058908287435770035 0.5769068002700806 0.10133527219295502 -0.3804003596305847 0.5925394296646118 0.15306329727172852 0.08221223950386047 0.1925770789384842 0.5789806246757507 0.4397311210632324 0.45544955134391785 -1.4848638772964478 -0.7875974178314209 -0.4139532148838043 0.910614550113678 -0.13596925139427185 0.1434638947248459 1.7615102529525757
here 0.1880350112915039 -0.7837848663330078 0.07385241240262985 -0.05811860039830208 -0.36701494455337524 -0.49285319447517395 0.5384271740913391 -0.11270313709974289 -0.23623231053352356 -0.2649375796318054 -0.06094536930322647 -0.21806703507900238 -0.3832216262817383 0.10423776507377625 -0.265332967042923 -0.34154778718948364 0.08086442947387695 0.12337598949670792 0.20735684037208557 0.2170880287885666 0.2351984679698944 -0.2616555094718933 0.02388104237616062 0.5908452868461609 0.4584214985370636 0.08557825535535812 -0.08996857702732086 0.2965925335884094 0.13999104499816895 0.3075525760650635 -0.45967817306518555 -0.397176057100296 -0.018908696249127388 0.0755525454878807 -0.05676696449518204 0.12889248132705688 -0.23290249705314636 -0.02234845608472824 0.27876636385917664 -0.12371492385864258 -0.22182965278625488 -0.22831209003925323 0.30791977047920227 -0.025701375678181648 0.020226329565048218 -0.03934812918305397 -0.04387807846069336 -0.05691414698958397 0.2898997962474823 0.2504422068595886
life 0.7205438613891602 -0.20792055130004883 -0.403321772813797 0.011489436961710453 0.8644846677780151 0.20327803492546082 -0.13218702375888824 0.30785706639289856 0.7317708134651184 -0.6131469011306763 -0.5588143467903137 1.4585916996002197 -0.760343611240387 0.050220146775245667 -1.1623975038528442 0.5919527411460876 0.44679585099220276 -1.7217038869857788 0.9769492745399475 0.8279269933700562 0.7851537466049194 -0.07351695746183395 0.19655926525592804 0.07765112817287445 -0.3106691837310791 0.7464675903320312 0.2522692084312439 -0.2543197274208069 0.0018390078330412507 -0.5072977542877197 0.01278450433164835 0.48073503375053406 -0.3324216902256012 0.6135833263397217 -0.5933586359024048 -0.36031782627105713 0.1840643286705017 0.04055771231651306 0.263824462890625 0.07663535326719284 -1.4434559345245361 0.7307151556015015 -0.13130110502243042 -1.5631258487701416 -0.7678800821304321 0.6325570344924927 0.7191988229751587 0.30072546005249023 -0.6680372953414917 1.5672972202301025
need -0.21896035969257355 1.3482881784439087 -0.8931349515914917 0.11509783565998077 -0.5962245464324951 -0.45377060770988464 -0.4186590611934662 -0.32736700773239136 -0.07464311271905899 0.35131168365478516 -0.5261767506599426 1.4521279335021973 -0.32334813475608826 0.3950121998786926 -1.3115901947021484 -0.04732691869139671 0.6142521500587463 -1.9065382480621338 -0.7684903740882874 1.0300476551055908 0.17599906027317047 0.056054383516311646 -0.26125624775886536 0.16705313324928284 -0.015284312888979912 0.7043922543525696 0.23947389423847198 0.3499288260936737 -0.4794061779975891 -0.2696568965911865 0.2898222506046295 -0.2727851867675781 -0.5761340260505676 0.21312226355075836 -0.6068016290664673 -0.03675097972154617 0.07007903605699539 0.38241058588027954 0.0870053619146347 0.20031942427158356 -0.3493731915950775 0.18270136415958405 0.33273711800575256 -1.0815812349319458 -1.118156909942627 0.8189191818237305 0.4352623522281647 0.13444988429546356 0.7424668073654175 1.0522654056549072
tell -0.09880410134792328 -0.6980876922607422 -0.6699291467666626 -0.14710049331188202 0.12811598181724548 -0.1723589450120926 -0.6253856420516968 0.5860959887504578 -0.0450529083609581 0.2527468502521515 -0.29409515857696533 1.1630785465240479 0.31267249584198 -0.050570350140333176 -0.9541707634925842 -0.15469197928905487 0.6065173745155334 -2.0173041820526123 -0.5634844303131104 1.6232352256774902 -0.44189009070396423 -0.612704873085022 0.32526788115501404 0.24679531157016754 -0.20723608136177063 0.06287802755832672 0.4552362263202667 -0.4058162271976471 0.27766352891921997 -0.6553530693054199 0.17628146708011627 -0.34241682291030884 0.44912880659103394 0.21844252943992615 -0.42096075415611267 0.2311827838420868 0.5502687692642212 0.6958010792732239 0.22715307772159576 0.4243122339248657 0.11434836685657501 -0.050839103758335114 -0.3705047369003296 -1.3381690979003906 -1.007559895515442 1.1875578165054321 0.4939461648464203 -0.34880951046943665 -0.10397762060165405 1.5749202966690063
as -0.08167615532875061 -0.3617248833179474 0.040498942136764526 0.2883111238479614 0.020472759380936623 -0.4721687436103821 -0.21976304054260254 -0.5711842179298401 0.130783811211586 -0.17975130677223206 -0.035462990403175354 -0.12570688128471375 0.06848976761102676 -0.04095013439655304 -0.3823865056037903 0.027594245970249176 -0.4025156795978546 0.38011980056762695 -0.03821790963411331 -0.1608288288116455 -0.3114853501319885 -0.14528298377990723 0.4294959008693695 0.0736798644065857 -0.38308414816856384 0.3527466654777527 0.16247013211250305 0.05371050164103508 -0.2006557285785675 -0.42359602451324463 -0.3812336027622223 -0.17446930706501007 0.19191628694534302 -0.12739378213882446 0.19179940223693848 -0.10699769109487534 -0.8986731171607971 -0.26359522342681885 0.13147278130054474 -0.1497460901737213 0.008734338916838169 -0.062454137951135635 0.2432316094636917 0.15118271112442017 0.16937443614006042 0.2115871161222458 -0.11817865073680878 -0.08760987222194672 -0.0013014902360737324 -0.16032010316848755
he 0.1235286071896553 -0.21412718296051025 0.22495250403881073 -0.23120473325252533 0.14307613670825958 -0.44501495361328125 -0.08223270624876022 0.3520468771457672 0.4440130889415741 -0.19050177931785583 -0.2941679060459137 -0.22477759420871735 0.39860016107559204 0.5067276358604431 -0.36458566784858704 -0.16876862943172455 0.10949086397886276 0.03912525251507759 -0.5420949459075928 -0.3869944214820862 0.22623935341835022 0.01748485676944256 0.39418870210647583 -0.30628862977027893 0.33819764852523804 -0.030231555923819542 0.12928037345409393 0.4714002311229706 0.3685920834541321 -0.04829392582178116 0.44062480330467224 0.2380431890487671 -0.3691668212413788 0.006639578379690647 -0.0651993602514267 -0.04517373442649841 0.0362074114382267 -0.11005740612745285 -0.13330110907554626 -0.17128987610340118 0.01869618520140648 -0.4842327833175659 -0.19030235707759857 0.012944835238158703 -0.2599791884422302 -0.13244043290615082 -0.5165886878967285 -0.40660011768341064 0.651018500328064 0.18924586474895477
more -0.007705419324338436 0.1574307382106781 0.21507510542869568 -0.034829795360565186 -0.03890695422887802 -0.08965305238962173 0.12388816475868225 0.11027878522872925 -0.4207366108894348 -0.32195815443992615 -0.42747753858566284 0.0903317779302597 -0.061276279389858246 0.06090768799185753 0.35352227091789246 0.0848298892378807 -0.08028008788824081 -0.11765914410352707 0.4901714026927948 0.08635903149843216 -0.7300752997398376 -0.08019872009754181 0.10766909271478653 -0.10868549346923828 -0.3874082863330841 -0.4211712181568146 -0.031952984631061554 -0.010098684579133987 0.017584839835762978 -0.5447330474853516 -0.21337826550006866 0.11657034605741501 0.24810506403446198 -0.2222345620393753 0.1337299793958664 -0.09416308999061584 0.020213687792420387 0.4508334994316101 -0.09478157013654709 0.12251683324575424 0.23105965554714203 0.21457162499427795 -0.1295432597398758 0.016414783895015717 -0.19721747934818268 0.11596988886594772 0.5493116974830627 0.05975131317973137 -0.28499940037727356 0.15090246498584747
there -0.14140817523002625 -0.2943612039089203 0.16590607166290283 0.230790376663208 0.9166537523269653 -0.021678190678358078 -0.2574346661567688 -0.4608333110809326 0.047364674508571625 -0.3687646985054016 -0.1629757434129715 0.0057639735750854015 0.010666759684681892 0.19703690707683563 0.13883157074451447 0.20798321068286896 0.10039656609296799 -0.47338083386421204 -0.5191521048545837 -0.281574010848999 -0.36285266280174255 -0.20602667331695557 0.20259450376033783 -0.1286270171403885 -0.010690915398299694 0.021332567557692528 0.29412364959716797 -0.14695344865322113 0.037224553525447845 0.06163593381643295 0.09005831927061081 -0.22112761437892914 -0.12353184819221497 0.010941031388938427 -0.3197469115257263 0.024229587987065315 0.08303266763687134 -0.1920262724161148 -0.036565180867910385 -0.07278905063867569 0.1394481062889099 0.3212265074253082 0.3338714838027954 0.3058478832244873 0.16650070250034332 -0.12846095860004425 -0.1223292350769043 -0.10215580463409424 0.06692065298557281 -0.17561005055904388
been 0.10821373760700226 -0.09920409321784973 0.6012624502182007 -0.3013208508491516 0.11826823651790619 0.11697010695934296 0.09405722469091415 -0.3531344532966614 0.08973443508148193 0.20768441259860992 -0.10273561626672745 -0.02229207381606102 0.28911179304122925 0.1222783699631691 -0.0627196878194809 -0.06598632037639618 -0.053836483508348465 0.3480701148509979 -0.5060458183288574 0.592604398727417 0.24364501237869263 0.15014567971229553 0.3384723961353302 0.37645792961120605 -0.03489774465560913 0.16483330726623535 0.31702718138694763 -0.39999449253082275 -0.06676484644412994 -0.19262482225894928 0.24360060691833496 -0.2773577570915222 -0.036522746086120605 0.023230379447340965 -0.1831662952899933 -0.0772022232413292 -0.14004115760326385 0.24205172061920166 -0.3726118803024292 0.40114283561706543 0.25699228048324585 -0.23207701742649078 -0.3256744146347046 0.29773029685020447 0.15771262347698212 0.1517476588487625 -0.2051437497138977 -0.23324018716812134 0.04016298055648804 -0.13903695344924927
about -0.30111658573150635 -0.12070098519325256 0.29795634746551514 -0.3021070659160614 -0.1320531815290451 -0.0425470732152462 -0.14675037562847137 -0.5000129342079163 0.17883597314357758 0.4438804090023041 0.14954626560211182 0.3832314908504486 0.18086786568164825 -0.16865332424640656 -0.23285722732543945 -0.15525059401988983 -0.15426716208457947 0.48403164744377136 -0.19757920503616333 0.15658365190029144 -0.06961583346128464 0.3698660135269165 -0.5898714065551758 0.0038664781022816896 0.061263617128133774 0.3089691996574402 -0.057657234370708466 0.10646405071020126 0.2609710097312927 0.1596800982952118 -0.575096845626831 0.21608483791351318 0.2493204027414322 -0.2205975502729416 0.38221123814582825 0.3849048912525177 -0.28069764375686646 -0.07435809820890427 0.1141643300652504 -0.10156715661287308 0.1900048851966858 -0.020395299419760704 0.1697872281074524 0.09969815611839294 0.20630380511283875 -0.031658418476581573 -0.3198773264884949 0.08607262372970581 0.25698524713516235 -0.09420382976531982
could 0.3885914087295532 0.08433934301137924 -0.28683069348335266 -0.9556192755699158 -0.6279722452163696 0.7777857780456543 -0.7842472791671753 -0.30068838596343994 0.3362993597984314 0.10128137469291687 0.8479793071746826 1.056174874305725 0.33973002433776855 -0.4152167737483978 -0.5094672441482544 0.2644132971763611 0.9356783628463745 -1.8129711151123047 -0.45962023735046387 1.2371104955673218 0.42657604813575745 -0.4061966836452484 -0.17652572691440582 0.021705912426114082 0.2607737183570862 0.3577391803264618 -0.19741231203079224 -0.4811228811740875 0.182390496134758 -1.1621015071868896 -0.18754273653030396 0.052215661853551865 -0.5199978947639465 -0.011424810625612736 0.06839627772569656 -0.19539834558963776 0.6149558424949646 0.34512656927108765 0.11247122287750244 0.4100634753704071 -0.2014230340719223 0.8819389939308167 0.33536097407341003 -1.3290071487426758 -0.8847815990447998 0.7160671353340149 0.9321430921554565 0.1624503880739212 -0.2158399373292923 1.2388041019439697
away 0.6025744080543518 0.5328949689865112 -1.0451338291168213 0.3139040172100067 0.8871756196022034 0.9825612306594849 0.3886161148548126 0.10530702024698257 0.14811018109321594 -0.6069402098655701 -0.16802358627319336 1.2182081937789917 0.3069353401660919 0.44275158643722534 -0.09442558884620667 -0.36583393812179565 0.502504825592041 -1.5395671129226685 0.3745063543319702 0.6593644022941589 0.4445584714412689 0.40211156010627747 -0.8431817889213562 -0.029075713828206062 0.4195343852043152 -0.191013902425766 -0.28761565685272217 -0.20337393879890442 -0.9017682075500488 -1.9320858716964722 1.2004716396331787 -0.25831252336502075 0.21739430725574493 0.06723566353321075 -0.46015068888664246 -0.5220257043838501 0.17954862117767334 0.33792737126350403 -0.513562023639679 1.0585612058639526 -0.2951030731201172 0.523744523525238 -0.740238606929779 -0.14026808738708496 -0.34561222791671753 1.1394113302230835 1.427872657775879 0.0633775070309639 0.23955662548542023 1.7558951377868652
give 0.41663092374801636 0.8929398059844971 -0.22432222962379456 -0.0984596237540245 -0.2824479341506958 0.6273430585861206 -0.5175841450691223 -0.3697241544723511 0.27210378646850586 0.3657240867614746 -0.42416077852249146 1.0804145336151123 -0.2555498778820038 -0.2754250764846802 -1.1706264019012451 -0.5381630063056946 1.0126579999923706 -1.3952369689941406 -0.475850373506546 1.2332441806793213 0.07524304836988449 0.3655949532985687 -0.08422429859638214 0.6029345989227295 0.3059800863265991 0.39736518263816833 0.411691278219223 0.3454694151878357 -0.18158093094825745 -0.5418727993965149 0.18392090499401093 0.13376779854297638 -0.25982192158699036 0.26397377252578735 0.12388601154088974 0.755462110042572 0.10579102486371994 1.1077301502227783 -0.1352207064628601 -0.016122685745358467 -1.0429445505142212 0.07145540416240692 -0.19310025870800018 -1.0318728685379028 -0.8411453366279602 0.7954971194267273 1.253491759300232 0.621108889579773 0.43181219696998596 1.584725260734558
night 0.5015330910682678 0.8039950728416443 -1.0041940212249756 0.05954466387629509 0.06659967452287674 -0.7217516303062439 0.7440384030342102 -0.38095831871032715 0.009588337503373623 0.2463534027338028 -0.022294901311397552 1.2825506925582886 -1.4969708919525146 0.3638310432434082 -0.1827961802482605 -0.8261701464653015 1.2630256414413452 -1.2701640129089355 0.17600128054618835 1.3628642559051514 -1.0089643001556396 -0.20431379973888397 -0.2773176431655884 0.07068216800689697 -0.874136745929718 0.15761014819145203 -0.507523775100708 0.10483837872743607 0.9029801487922668 -0.30384257435798645 -0.3155246675014496 0.7264467477798462 -0.6824597120285034 -0.23167039453983307 0.15342506766319275 -0.4896990656852722 0.4938315451145172 -0.5101830363273621 -0.6130679845809937 0.9417438507080078 -0.2880899906158447 0.5604351162910461 -0.12638117372989655 -0.9253137707710266 -0.536793053150177 0.7751999497413635 0.881141722202301 -0.29947352409362793 -0.7302902936935425 1.8865196704864502
well 0.6533072590827942 -0.3194873631000519 -0.905038058757782 0.1704389452934265 -0.2429530769586563 0.15820230543613434 0.39691880345344543 0.6318573355674744 -0.10806521028280258 -0.21190989017486572 -0.10636980086565018 0.9067131280899048 0.4635568857192993 -0.5481412410736084 -0.9005625247955322 -0.6251928210258484 0.5998349785804749 -1.6996301412582397 -0.18368539214134216 0.8753413558006287 -0.5481796264648438 -0.11265242099761963 -0.05784504860639572 0.6840243935585022 0.3100864291191101 0.15926985442638397 -0.05902324244379997 0.1814470738172531 0.29780131578445435 -0.29845377802848816 -0.16105720400810242 0.5053985118865967 0.24752135574817657 0.6235457062721252 0.3266453444957733 -0.3120252192020416 0.09983963519334793 -0.11805327981710434 0.3910726308822632 0.29169389605522156 -0.4493228793144226 0.5731679201126099 -0.015699757263064384 -0.6920979619026184 -0.7695374488830566 0.966587245464325 0.59941166639328 -0.5016117691993713 0.27468645572662354 1.4838298559188843
keep -0.06268827617168427 -0.6800956726074219 -0.9626464247703552 0.8307819366455078 -0.021812018007040024 0.1376270055770874 -0.05076610669493675 0.7204400300979614 0.1851373016834259 0.9239317178726196 -0.8861085772514343 1.6681963205337524 0.12178677320480347 0.28124675154685974 0.13275116682052612 -0.0914522036910057 1.0571635961532593 -1.3184692859649658 0.5704829096794128 0.3670486807823181 0.3405746519565582 1.0049337148666382 0.34361353516578674 -0.19488611817359924 -0.6268883347511292 0.34649091958999634 -0.5376083254814148 0.6584100723266602 0.10445059090852737 0.5062559247016907 -0.4597562551498413 -0.22263884544372559 0.5702059268951416 -0.2896583378314972 -0.8907702565193176 0.0575222484767437 1.1618777513504028 0.438401997089386 -0.07495255023241043 0.3140968680381775 0.19307483732700348 0.1120208278298378 0.302097350358963 0.09686816483736038 -1.7215455770492554 0.8141140937805176 1.114898681640625 0.03852732107043266 0.33928149938583374 2.0110158920288086
think 0.28925228118896484 0.37305277585983276 -1.0016212463378906 0.44739851355552673 -0.8825581669807434 -0.26542872190475464 -0.3454059958457947 0.6507300138473511 0.6353046894073486 -0.34797921776771545 0.36502790451049805 0.3866613805294037 -0.33046194911003113 0.0006402094732038677 -0.7804457545280457 -0.06009962037205696 1.0363003015518188 -1.7470780611038208 -0.6191162467002869 1.0775189399719238 0.447771817445755 -0.5774511694908142 0.10020456463098526 0.13139522075653076 -0.05645082890987396 -0.02802211046218872 0.005371329840272665 -0.26668018102645874 -0.23566934466362 -0.6492293477058411 0.44949856400489807 0.13970281183719635 0.8713182806968689 0.22377657890319824 -0.05976688116788864 -0.16769647598266602 0.19051247835159302 0.44195303320884705 0.6435999274253845 0.20093496143817902 0.3244818449020386 0.4353913366794586 0.12198620289564133 -0.9799328446388245 -0.8772571682929993 0.7514028549194336 0.05680813267827034 0.10567107796669006 -0.07801724225282669 1.945938229560852
heart 0.3652447760105133 1.193761944770813 -0.9315071105957031 -0.923568606376648 -0.2223132848739624 -0.10603518784046173 -0.6369238495826721 0.19152265787124634 -0.14733535051345825 -0.5000805258750916 0.40991732478141785 1.922010064125061 0.38361892104148865 0.503067135810852 -0.2344484031200409 0.6987078785896301 -0.6910364031791687 -1.613057255744934 0.2316407710313797 1.2827701568603516 -0.405318021774292 0.7525110840797424 -0.4743395149707794 -0.07351796329021454 -0.4782148599624634 0.13824227452278137 -0.4890434145927429 0.14740470051765442 -0.44575217366218567 -0.6209314465522766 0.13262560963630676 -0.3392927944660187 0.258500337600708 -0.12227734178304672 -0.06556008756160736 0.6444301009178162 -0.6767609119415283 0.19367074966430664 -0.6755533814430237 -0.28340932726860046 -0.35393571853637695 0.7046800255775452 -0.030743587762117386 -0.5446538925170898 -1.2244031429290771 0.40467557311058044 1.2679603099822998 -0.6908207535743713 -0.43294939398765564 1.176619052886963
where 0.49718260765075684 0.6582520008087158 -0.2546221911907196 -0.13974504172801971 0.0396505743265152 -0.40984204411506653 -0.12304934859275818 0.027497364208102226 0.2304086834192276 -0.03629238158464432 0.18430203199386597 0.2179681360721588 -0.059549860656261444 -0.05392809212207794 -0.06335413455963135 -0.20995809137821198 -0.45906564593315125 -0.6006880402565002 0.3233678638935089 0.2960837483406067 -0.38417142629623413 0.08017860352993011 0.2759706377983093 0.456377238035202 0.07234922051429749 0.17949864268302917 -0.31461432576179504 -0.0041647073812782764 -0.124263696372509 0.307147741317749 -0.2439691126346588 0.3200788199901581 0.28727659583091736 -0.5388960242271423 0.01945325918495655 0.38993310928344727 0.25007694959640503 -0.21966584026813507 0.09263818711042404 0.4045279920101166 0.011575751006603241 0.4093995690345764 0.03360680490732193 0.21654869616031647 -0.01535012386739254 0.3761719763278961 0.1677115261554718 -0.16680949926376343 0.09345090389251709 0.03133675456047058
man -0.4311426877975464 0.052147675305604935 -0.014016550965607166 0.34216341376304626 0.16695943474769592 -0.13431383669376373 -0.04197987914085388 0.3042607605457306 -0.2186831682920456 0.5359982252120972 0.4212525486946106 0.24285118281841278 -0.26049259305000305 -0.2673799395561218 0.1401522308588028 0.05626740679144859 -0.2916039228439331 -0.23803262412548065 -0.27729055285453796 0.13154594600200653 -0.006114876829087734 -0.16245144605636597 0.2853398621082306 0.5294528007507324 0.1345425248146057 -0.15478280186653137 0.014667079783976078 -0.3244190514087677 -0.29167163372039795 0.32257434725761414 -0.05961395055055618 -0.0901046022772789 -0.015070185996592045 0.22975248098373413 0.2724188268184662 -0.42156803607940674 -0.22972135245800018 0.2209939956665039 -0.24000824987888336 0.20150989294052124 -0.15493062138557434 0.13875439763069153 -0.4031600058078766 -0.4026883840560913 -0.1115574911236763 0.10117470473051071 -0.5464022755622864 -0.040749453008174896 0.33024731278419495 0.057822443544864655
good -0.046157822012901306 -0.2805168628692627 0.019086042419075966 0.5889437794685364 0.14261609315872192 0.03636596351861954 0.3701845109462738 -0.7800846099853516 -0.2109776735305786 -0.25752392411231995 -0.012828952632844448 1.4467747211456299 0.9929061532020569 -0.731971025466919 -1.2459700107574463 -0.33544057607650757 0.825090765953064 -1.4429137706756592 0.3582006096839905 1.6258306503295898 0.7476460337638855 0.19912265241146088 0.08735714852809906 0.09831510484218597 -0.14493383467197418 -0.42041468620300293 -0.3111806809902191 -0.2048034369945526 -0.005707944743335247 -0.28420644998550415 -1.206205129623413 0.2914324402809143 -0.25904905796051025 0.6844074130058289 0.08512989431619644 -0.1594723016023636 0.19449810683727264 0.27633360028266907 -0.5429689884185791 -0.4128013551235199 0.5244845747947693 0.11608829349279404 0.2597309350967407 -0.7475957274436951 -1.6761629581451416 1.2414627075195312 0.052795205265283585 0.4313347637653351 -0.15484757721424103 1.4722586870193481
then -0.10789632797241211 -0.20996297895908356 -0.06183537840843201 -0.2543272078037262 -0.014371458441019058 0.3522239327430725 -0.27156931161880493 -0.2336050570011139 0.08710148185491562 -0.3867023289203644 0.15148314833641052 -0.18989557027816772 -0.537306547164917 -0.14869971573352814 -0.02766636572778225 0.13567359745502472 0.37852922081947327 0.024088678881525993 0.31884151697158813 -0.16495580971240997 0.04333505779504776 -0.34523242712020874 0.0688266009092331 0.2024586945772171 -0.06884915381669998 -0.17629577219486237 -0.0022929958067834377 0.4012642204761505 0.030835745856165886 0.429332435131073 0.1432497650384903 -0.26204782724380493 0.13006001710891724 -0.08704353123903275 -0.2206423580646515 0.027263138443231583 0.1739613264799118 -0.835552453994751 0.25239884853363037 -0.21164566278457642 0.1433342695236206 -0.12571635842323303 0.17779943346977234 0.2959097921848297 0.2872280180454254 -0.3422110676765442 -0.04115660488605499 0.25441694259643555 -0.3372456729412079 0.17367523908615112
too 0.32169944047927856 0.5002280473709106 0.06960605829954147 0.23632393777370453 -0.341472864151001 -0.09783440828323364 -0.1769501119852066 -0.3439440429210663 0.40180104970932007 0.2092968374490738 0.34489598870277405 0.23226043581962585 0.43072035908699036 -0.31061986088752747 -0.025498850271105766 0.47810450196266174 0.10006968677043915 -0.21402864158153534 -0.10525404661893845 -0.16453327238559723 -0.13831137120723724 0.2612057328224182 0.09289930015802383 0.36965563893318176 0.35749581456184387 0.2594470977783203 0.21435129642486572 0.039937037974596024 -0.37026098370552063 -0.389583945274353 -0.05220889300107956 -0.1200525239109993 -0.09901697933673859 -0.17162412405014038 -0.1317451149225235 0.8097174763679504 0.2500324547290802 0.24765367805957794 0.00038049728027544916 0.3409078121185303 0.13134115934371948 0.04977162182331085 -0.08130928128957748 -0.38905608654022217 -0.17328350245952606 0.056931301951408386 -0.2543693482875824 -0.08433210104703903 -0.18884482979774475 0.47000542283058167
some -0.37087687849998474 -0.5164710283279419 -0.15242192149162292 0.18778569996356964 -0.13303478062152863 0.08345853537321091 0.03574670851230621 -0.048437681049108505 -0.6028672456741333 0.16519580781459808 0.256884902715683 0.11812643706798553 0.24127404391765594 -0.18079689145088196 0.30703967809677124 0.2928199768066406 -0.14340370893478394 -0.1553499400615692 0.12610512971878052 -0.030492234975099564 0.1568283885717392 0.3871304988861084 -0.14680272340774536 -0.02414661832153797 -0.5292344689369202 0.1910877376794815 0.1401696354150772 0.27899929881095886 -0.09566649794578552 0.058710407465696335 -0.237968310713768 -0.22834958136081696 -0.1194998249411583 0.27499306201934814 0.08221855759620667 -0.20214536786079407 0.2540588080883026 0.1504504382610321 0.4046494662761688 0.08192680031061172 0.17524921894073486 0.5584148168563843 -0.3541332185268402 -0.2998252809047699 0.4495099186897278 0.0375373549759388 0.02074093371629715 -0.23025158047676086 0.3874371647834778 0.04681986942887306
